<?xml version="1.0"?>
<opencv_storage>
<stage0>
  <maxWeakCount>5</maxWeakCount>
  <stageThreshold>-3.7007838487625122e-01</stageThreshold>
  <weakClassifiers>
    <_>
      <internalNodes>
        0 -1 2368710 -1.0219099931418896e-03</internalNodes>
      <leafValues>
        9.0170937776565552e-01 -6.6867470741271973e-01</leafValues></_>
    <_>
      <internalNodes>
        0 -1 2361432 3.6762191939487820e-06</internalNodes>
      <leafValues>
        4.9695280194282532e-01 -9.2141693830490112e-01</leafValues></_>
    <_>
      <internalNodes>
        0 -1 2238878 -3.8413327274611220e-06</internalNodes>
      <leafValues>
        -1. 3.0319294333457947e-01</leafValues></_>
    <_>
      <internalNodes>
        0 -1 1955039 -7.0985192905936856e-06</internalNodes>
      <leafValues>
        -9.8945814371109009e-01 2.5863012671470642e-01</leafValues></_>
    <_>
      <internalNodes>
        0 -1 2115988 -7.1105489041656256e-04</internalNodes>
      <leafValues>
        6.5819013118743896e-01 -4.2664700746536255e-01</leafValues></_></weakClassifiers></stage0>
</opencv_storage>
