<?xml version="1.0"?>
<opencv_storage>
<stage15>
  <maxWeakCount>16</maxWeakCount>
  <stageThreshold>-9.2931091785430908e-01</stageThreshold>
  <weakClassifiers>
    <_>
      <internalNodes>
        0 -1 2429348 -1.2102426262572408e-03</internalNodes>
      <leafValues>
        5.3012049198150635e-01 -4.9315068125724792e-01</leafValues></_>
    <_>
      <internalNodes>
        0 -1 2250608 8.6321565322577953e-04</internalNodes>
      <leafValues>
        1.7218895256519318e-01 -8.6211216449737549e-01</leafValues></_>
    <_>
      <internalNodes>
        0 -1 2247043 -6.7302398383617401e-03</internalNodes>
      <leafValues>
        -7.0557028055191040e-01 1.4322546124458313e-01</leafValues></_>
    <_>
      <internalNodes>
        0 -1 198916 3.6567025817930698e-03</internalNodes>
      <leafValues>
        -1.4954605698585510e-01 7.5761240720748901e-01</leafValues></_>
    <_>
      <internalNodes>
        0 -1 2446871 3.0291496659629047e-04</internalNodes>
      <leafValues>
        -1.6574499011039734e-01 7.5256192684173584e-01</leafValues></_>
    <_>
      <internalNodes>
        0 -1 2096862 1.5110020525753498e-02</internalNodes>
      <leafValues>
        1.3352555036544800e-01 -7.9786771535873413e-01</leafValues></_>
    <_>
      <internalNodes>
        0 -1 2504876 3.0015438096597791e-04</internalNodes>
      <leafValues>
        -2.1286149322986603e-01 6.5663951635360718e-01</leafValues></_>
    <_>
      <internalNodes>
        0 -1 2604769 -1.7993521396419965e-05</internalNodes>
      <leafValues>
        -3.1708896160125732e-01 3.8781371712684631e-01</leafValues></_>
    <_>
      <internalNodes>
        0 -1 2370716 1.1725890217348933e-03</internalNodes>
      <leafValues>
        -4.0653020143508911e-01 3.6448550224304199e-01</leafValues></_>
    <_>
      <internalNodes>
        0 -1 2313787 2.6441246063768631e-06</internalNodes>
      <leafValues>
        -3.1943890452384949e-01 4.0982940793037415e-01</leafValues></_>
    <_>
      <internalNodes>
        0 -1 2232673 2.9505768325179815e-03</internalNodes>
      <leafValues>
        -2.0933341979980469e-01 7.3417216539382935e-01</leafValues></_>
    <_>
      <internalNodes>
        0 -1 2373791 1.5873898519203067e-05</internalNodes>
      <leafValues>
        -2.7168786525726318e-01 5.0593966245651245e-01</leafValues></_>
    <_>
      <internalNodes>
        0 -1 3354033 -8.2277180626988411e-04</internalNodes>
      <leafValues>
        6.8345808982849121e-01 -1.6238573193550110e-01</leafValues></_>
    <_>
      <internalNodes>
        0 -1 45595 6.4421747811138630e-04</internalNodes>
      <leafValues>
        -1.6066735982894897e-01 6.1951088905334473e-01</leafValues></_>
    <_>
      <internalNodes>
        0 -1 33517 -8.6809205822646618e-04</internalNodes>
      <leafValues>
        6.4057201147079468e-01 -1.6630914807319641e-01</leafValues></_>
    <_>
      <internalNodes>
        0 -1 1673553 -4.6553239371860400e-05</internalNodes>
      <leafValues>
        -7.0280504226684570e-01 1.8057554960250854e-01</leafValues></_></weakClassifiers></stage15>
</opencv_storage>
