<?xml version="1.0"?>
<opencv_storage>
<cascade>
  <stageType>BOOST</stageType>
  <featureType>HOG</featureType>
  <height>20</height>
  <width>20</width>
  <stageParams>
    <boostType>GAB</boostType>
    <minHitRate>9.9900001287460327e-01</minHitRate>
    <maxFalseAlarm>5.0000000000000000e-01</maxFalseAlarm>
    <weightTrimRate>9.4999999999999996e-01</weightTrimRate>
    <maxDepth>1</maxDepth>
    <maxWeakCount>100</maxWeakCount></stageParams>
  <featureParams>
    <maxCatCount>0</maxCatCount>
    <featSize>36</featSize></featureParams>
  <stageNum>30</stageNum>
  <stages>
    <!-- stage 0 -->
    <_>
      <maxWeakCount>8</maxWeakCount>
      <stageThreshold>-1.5336936712265015e+00</stageThreshold>
      <weakClassifiers>
        <_>
          <internalNodes>
            0 -1 30 2.4931294843554497e-02</internalNodes>
          <leafValues>
            -7.3102527856826782e-01 6.7255812883377075e-01</leafValues></_>
        <_>
          <internalNodes>
            0 -1 39 2.2079844027757645e-02</internalNodes>
          <leafValues>
            -6.0615456104278564e-01 4.9592304229736328e-01</leafValues></_>
        <_>
          <internalNodes>
            0 -1 70 1.7913855612277985e-02</internalNodes>
          <leafValues>
            3.5846731066703796e-01 -5.3812599182128906e-01</leafValues></_>
        <_>
          <internalNodes>
            0 -1 12 1.4745794236660004e-02</internalNodes>
          <leafValues>
            -6.7787539958953857e-01 2.8962057828903198e-01</leafValues></_>
        <_>
          <internalNodes>
            0 -1 37 1.5598899684846401e-02</internalNodes>
          <leafValues>
            -5.8781778812408447e-01 2.2348067164421082e-01</leafValues></_>
        <_>
          <internalNodes>
            0 -1 126 1.2754647061228752e-02</internalNodes>
          <leafValues>
            4.5395290851593018e-01 -4.5199605822563171e-01</leafValues></_>
        <_>
          <internalNodes>
            0 -1 141 2.1247198805212975e-02</internalNodes>
          <leafValues>
            3.2952952384948730e-01 -5.0637346506118774e-01</leafValues></_>
        <_>
          <internalNodes>
            0 -1 44 1.3136816211044788e-02</internalNodes>
          <leafValues>
            -6.5736663341522217e-01 1.9459550082683563e-01</leafValues></_></weakClassifiers></_>
    <!-- stage 1 -->
    <_>
      <maxWeakCount>14</maxWeakCount>
      <stageThreshold>-1.6200783252716064e+00</stageThreshold>
      <weakClassifiers>
        <_>
          <internalNodes>
            0 -1 30 3.6654800176620483e-02</internalNodes>
          <leafValues>
            -4.4921466708183289e-01 6.9230771064758301e-01</leafValues></_>
        <_>
          <internalNodes>
            0 -1 126 1.0489864274859428e-02</internalNodes>
          <leafValues>
            5.6771492958068848e-01 -3.1860342621803284e-01</leafValues></_>
        <_>
          <internalNodes>
            0 -1 111 2.0276915282011032e-02</internalNodes>
          <leafValues>
            -6.3449901342391968e-01 2.6904791593551636e-01</leafValues></_>
        <_>
          <internalNodes>
            0 -1 138 1.8594337627291679e-02</internalNodes>
          <leafValues>
            -5.2370202541351318e-01 3.0019032955169678e-01</leafValues></_>
        <_>
          <internalNodes>
            0 -1 70 2.1738540381193161e-02</internalNodes>
          <leafValues>
            2.8042459487915039e-01 -5.2731108665466309e-01</leafValues></_>
        <_>
          <internalNodes>
            0 -1 127 6.0101710259914398e-03</internalNodes>
          <leafValues>
            6.3547152280807495e-01 -2.5912344455718994e-01</leafValues></_>
        <_>
          <internalNodes>
            0 -1 129 2.0289754495024681e-02</internalNodes>
          <leafValues>
            -3.8092681765556335e-01 3.2962992787361145e-01</leafValues></_>
        <_>
          <internalNodes>
            0 -1 51 3.5402826964855194e-02</internalNodes>
          <leafValues>
            -2.4844639003276825e-01 4.7599747776985168e-01</leafValues></_>
        <_>
          <internalNodes>
            0 -1 141 1.4975259080529213e-02</internalNodes>
          <leafValues>
            3.2392475008964539e-01 -3.3404222130775452e-01</leafValues></_>
        <_>
          <internalNodes>
            0 -1 124 1.0374560952186584e-02</internalNodes>
          <leafValues>
            -7.2255641222000122e-01 1.4160688221454620e-01</leafValues></_>
        <_>
          <internalNodes>
            0 -1 130 5.1939703524112701e-02</internalNodes>
          <leafValues>
            -2.2982032597064972e-01 4.8368939757347107e-01</leafValues></_>
        <_>
          <internalNodes>
            0 -1 75 1.9668404012918472e-02</internalNodes>
          <leafValues>
            -4.1588819026947021e-01 2.6770135760307312e-01</leafValues></_>
        <_>
          <internalNodes>
            0 -1 120 1.7140537500381470e-02</internalNodes>
          <leafValues>
            -5.7091724872589111e-01 1.7302230000495911e-01</leafValues></_>
        <_>
          <internalNodes>
            0 -1 125 9.8572038114070892e-03</internalNodes>
          <leafValues>
            -7.3149514198303223e-01 1.1677078157663345e-01</leafValues></_></weakClassifiers></_>
    <!-- stage 2 -->
    <_>
      <maxWeakCount>18</maxWeakCount>
      <stageThreshold>-1.4730674028396606e+00</stageThreshold>
      <weakClassifiers>
        <_>
          <internalNodes>
            0 -1 56 2.2665802389383316e-02</internalNodes>
          <leafValues>
            4.4713869690895081e-01 -3.6100628972053528e-01</leafValues></_>
        <_>
          <internalNodes>
            0 -1 93 4.1401896625757217e-02</internalNodes>
          <leafValues>
            -3.2826572656631470e-01 3.9063692092895508e-01</leafValues></_>
        <_>
          <internalNodes>
            0 -1 123 1.7930280417203903e-02</internalNodes>
          <leafValues>
            -4.7053241729736328e-01 3.3159205317497253e-01</leafValues></_>
        <_>
          <internalNodes>
            0 -1 44 1.7379023134708405e-02</internalNodes>
          <leafValues>
            -4.2126128077507019e-01 2.4687199294567108e-01</leafValues></_>
        <_>
          <internalNodes>
            0 -1 70 1.3504437170922756e-02</internalNodes>
          <leafValues>
            3.0641764402389526e-01 -4.1391861438751221e-01</leafValues></_>
        <_>
          <internalNodes>
            0 -1 124 1.7458468675613403e-02</internalNodes>
          <leafValues>
            -4.2191049456596375e-01 2.1908105909824371e-01</leafValues></_>
        <_>
          <internalNodes>
            0 -1 48 2.3800592869520187e-02</internalNodes>
          <leafValues>
            -5.0872457027435303e-01 1.9647267460823059e-01</leafValues></_>
        <_>
          <internalNodes>
            0 -1 50 2.6681378483772278e-02</internalNodes>
          <leafValues>
            -3.1922185420989990e-01 3.0932912230491638e-01</leafValues></_>
        <_>
          <internalNodes>
            0 -1 66 1.4261059463024139e-02</internalNodes>
          <leafValues>
            -7.2126418352127075e-01 1.4519831538200378e-01</leafValues></_>
        <_>
          <internalNodes>
            0 -1 24 2.1817911416292191e-02</internalNodes>
          <leafValues>
            -3.5338422656059265e-01 2.6272565126419067e-01</leafValues></_>
        <_>
          <internalNodes>
            0 -1 126 1.6224425286054611e-02</internalNodes>
          <leafValues>
            2.9200872778892517e-01 -3.1384384632110596e-01</leafValues></_>
        <_>
          <internalNodes>
            0 -1 69 1.2990241870284081e-02</internalNodes>
          <leafValues>
            3.0035898089408875e-01 -3.1962135434150696e-01</leafValues></_>
        <_>
          <internalNodes>
            0 -1 125 1.1035609990358353e-02</internalNodes>
          <leafValues>
            -6.5049308538436890e-01 1.7616954445838928e-01</leafValues></_>
        <_>
          <internalNodes>
            0 -1 94 4.8938751220703125e-02</internalNodes>
          <leafValues>
            -2.6124942302703857e-01 2.7418997883796692e-01</leafValues></_>
        <_>
          <internalNodes>
            0 -1 109 2.9361756518483162e-02</internalNodes>
          <leafValues>
            -2.5469484925270081e-01 3.5869964957237244e-01</leafValues></_>
        <_>
          <internalNodes>
            0 -1 36 1.1315654963254929e-02</internalNodes>
          <leafValues>
            -5.3973454236984253e-01 1.1847254633903503e-01</leafValues></_>
        <_>
          <internalNodes>
            0 -1 55 4.4459365308284760e-03</internalNodes>
          <leafValues>
            6.3370865583419800e-01 -1.3057312369346619e-01</leafValues></_>
        <_>
          <internalNodes>
            0 -1 28 6.3290171325206757e-02</internalNodes>
          <leafValues>
            -5.9105753898620605e-02 8.1550318002700806e-01</leafValues></_></weakClassifiers></_>
    <!-- stage 3 -->
    <_>
      <maxWeakCount>27</maxWeakCount>
      <stageThreshold>-1.4380042552947998e+00</stageThreshold>
      <weakClassifiers>
        <_>
          <internalNodes>
            0 -1 30 4.1473906487226486e-02</internalNodes>
          <leafValues>
            -2.7783784270286560e-01 4.7835737466812134e-01</leafValues></_>
        <_>
          <internalNodes>
            0 -1 133 2.1207947283983231e-02</internalNodes>
          <leafValues>
            2.0106825232505798e-01 -4.3013474345207214e-01</leafValues></_>
        <_>
          <internalNodes>
            0 -1 75 1.4679228886961937e-02</internalNodes>
          <leafValues>
            -6.0887295007705688e-01 1.4281196892261505e-01</leafValues></_>
        <_>
          <internalNodes>
            0 -1 37 1.9221566617488861e-02</internalNodes>
          <leafValues>
            -3.5844209790229797e-01 1.8063719570636749e-01</leafValues></_>
        <_>
          <internalNodes>
            0 -1 126 5.5080535821616650e-03</internalNodes>
          <leafValues>
            4.5898568630218506e-01 -1.6112531721591949e-01</leafValues></_>
        <_>
          <internalNodes>
            0 -1 100 1.9607525318861008e-02</internalNodes>
          <leafValues>
            -3.1468856334686279e-01 2.1784761548042297e-01</leafValues></_>
        <_>
          <internalNodes>
            0 -1 24 1.4925872907042503e-02</internalNodes>
          <leafValues>
            -3.9129319787025452e-01 1.5662454068660736e-01</leafValues></_>
        <_>
          <internalNodes>
            0 -1 93 2.8568489477038383e-02</internalNodes>
          <leafValues>
            -3.5242810845375061e-01 2.1405032277107239e-01</leafValues></_>
        <_>
          <internalNodes>
            0 -1 56 1.6824085265398026e-02</internalNodes>
          <leafValues>
            2.2578769922256470e-01 -2.6851993799209595e-01</leafValues></_>
        <_>
          <internalNodes>
            0 -1 141 1.1857692152261734e-02</internalNodes>
          <leafValues>
            3.2438525557518005e-01 -2.4695783853530884e-01</leafValues></_>
        <_>
          <internalNodes>
            0 -1 51 2.9181290417909622e-02</internalNodes>
          <leafValues>
            -2.2952215373516083e-01 3.3449003100395203e-01</leafValues></_>
        <_>
          <internalNodes>
            0 -1 36 1.7101960256695747e-02</internalNodes>
          <leafValues>
            -3.9010781049728394e-01 1.7774403095245361e-01</leafValues></_>
        <_>
          <internalNodes>
            0 -1 94 3.6963354796171188e-02</internalNodes>
          <leafValues>
            -3.3216634392738342e-01 1.9167260825634003e-01</leafValues></_>
        <_>
          <internalNodes>
            0 -1 110 2.0278468728065491e-02</internalNodes>
          <leafValues>
            -4.3218877911567688e-01 1.6076749563217163e-01</leafValues></_>
        <_>
          <internalNodes>
            0 -1 125 1.7586894333362579e-02</internalNodes>
          <leafValues>
            -3.5788035392761230e-01 1.8801404535770416e-01</leafValues></_>
        <_>
          <internalNodes>
            0 -1 142 2.1401733160018921e-02</internalNodes>
          <leafValues>
            1.4011499285697937e-01 -4.0656062960624695e-01</leafValues></_>
        <_>
          <internalNodes>
            0 -1 84 9.4018466770648956e-03</internalNodes>
          <leafValues>
            -6.7157822847366333e-01 9.3814380466938019e-02</leafValues></_>
        <_>
          <internalNodes>
            0 -1 17 4.1305612772703171e-02</internalNodes>
          <leafValues>
            7.8278839588165283e-02 -6.3800805807113647e-01</leafValues></_>
        <_>
          <internalNodes>
            0 -1 25 4.4769342057406902e-03</internalNodes>
          <leafValues>
            -6.6129231452941895e-01 8.0105833709239960e-02</leafValues></_>
        <_>
          <internalNodes>
            0 -1 55 5.4259477183222771e-03</internalNodes>
          <leafValues>
            4.7051033377647400e-01 -1.5803326666355133e-01</leafValues></_>
        <_>
          <internalNodes>
            0 -1 140 1.7183925956487656e-02</internalNodes>
          <leafValues>
            2.6815801858901978e-01 -2.4835625290870667e-01</leafValues></_>
        <_>
          <internalNodes>
            0 -1 122 6.7734131589531898e-03</internalNodes>
          <leafValues>
            -8.7209242582321167e-01 8.3158984780311584e-02</leafValues></_>
        <_>
          <internalNodes>
            0 -1 66 1.0530814528465271e-02</internalNodes>
          <leafValues>
            -7.6096755266189575e-01 5.0482425838708878e-02</leafValues></_>
        <_>
          <internalNodes>
            0 -1 83 2.8320346027612686e-02</internalNodes>
          <leafValues>
            1.2688145041465759e-01 -3.6980429291725159e-01</leafValues></_>
        <_>
          <internalNodes>
            0 -1 103 8.5578083992004395e-02</internalNodes>
          <leafValues>
            5.3671110421419144e-02 -7.0537340641021729e-01</leafValues></_>
        <_>
          <internalNodes>
            0 -1 63 2.1212171763181686e-02</internalNodes>
          <leafValues>
            1.4409129321575165e-01 -3.1913751363754272e-01</leafValues></_>
        <_>
          <internalNodes>
            0 -1 16 3.8434289395809174e-02</internalNodes>
          <leafValues>
            7.3553889989852905e-02 -5.7742565870285034e-01</leafValues></_></weakClassifiers></_>
    <!-- stage 4 -->
    <_>
      <maxWeakCount>34</maxWeakCount>
      <stageThreshold>-1.3015882968902588e+00</stageThreshold>
      <weakClassifiers>
        <_>
          <internalNodes>
            0 -1 141 8.5697742179036140e-03</internalNodes>
          <leafValues>
            4.9922719597816467e-01 -1.2637828290462494e-01</leafValues></_>
        <_>
          <internalNodes>
            0 -1 31 5.2026454359292984e-02</internalNodes>
          <leafValues>
            -2.3584727942943573e-01 3.4902650117874146e-01</leafValues></_>
        <_>
          <internalNodes>
            0 -1 70 3.5271011292934418e-03</internalNodes>
          <leafValues>
            5.5106115341186523e-01 -1.1272831261157990e-01</leafValues></_>
        <_>
          <internalNodes>
            0 -1 56 5.5951206013560295e-03</internalNodes>
          <leafValues>
            5.4223054647445679e-01 -1.6245926916599274e-01</leafValues></_>
        <_>
          <internalNodes>
            0 -1 1 1.0272944346070290e-02</internalNodes>
          <leafValues>
            -5.8109694719314575e-01 1.4376033842563629e-01</leafValues></_>
        <_>
          <internalNodes>
            0 -1 102 2.3348351940512657e-02</internalNodes>
          <leafValues>
            -4.6157896518707275e-01 1.6147676110267639e-01</leafValues></_>
        <_>
          <internalNodes>
            0 -1 123 2.3651907220482826e-02</internalNodes>
          <leafValues>
            -2.8951641917228699e-01 2.1666690707206726e-01</leafValues></_>
        <_>
          <internalNodes>
            0 -1 129 2.8041556477546692e-02</internalNodes>
          <leafValues>
            -2.8148758411407471e-01 2.1148949861526489e-01</leafValues></_>
        <_>
          <internalNodes>
            0 -1 125 2.3294094949960709e-02</internalNodes>
          <leafValues>
            -2.9200354218482971e-01 2.1120496094226837e-01</leafValues></_>
        <_>
          <internalNodes>
            0 -1 126 1.7250411212444305e-02</internalNodes>
          <leafValues>
            2.1094048023223877e-01 -3.3578988909721375e-01</leafValues></_>
        <_>
          <internalNodes>
            0 -1 28 1.7693303525447845e-02</internalNodes>
          <leafValues>
            -3.2647749781608582e-01 1.8422427773475647e-01</leafValues></_>
        <_>
          <internalNodes>
            0 -1 111 2.6490408927202225e-02</internalNodes>
          <leafValues>
            -3.9953431487083435e-01 1.6737535595893860e-01</leafValues></_>
        <_>
          <internalNodes>
            0 -1 44 2.0811362192034721e-02</internalNodes>
          <leafValues>
            -3.4564015269279480e-01 1.8883392214775085e-01</leafValues></_>
        <_>
          <internalNodes>
            0 -1 127 3.6002253182232380e-03</internalNodes>
          <leafValues>
            5.7982099056243896e-01 -8.8359132409095764e-02</leafValues></_>
        <_>
          <internalNodes>
            0 -1 124 1.9472513347864151e-02</internalNodes>
          <leafValues>
            -3.0791950225830078e-01 1.9586870074272156e-01</leafValues></_>
        <_>
          <internalNodes>
            0 -1 80 4.9919240176677704e-02</internalNodes>
          <leafValues>
            6.6654883325099945e-02 -7.6593786478042603e-01</leafValues></_>
        <_>
          <internalNodes>
            0 -1 70 1.7627440392971039e-02</internalNodes>
          <leafValues>
            1.3889281451702118e-01 -3.4741801023483276e-01</leafValues></_>
        <_>
          <internalNodes>
            0 -1 85 5.5069357156753540e-02</internalNodes>
          <leafValues>
            1.1002895981073380e-01 -5.0025147199630737e-01</leafValues></_>
        <_>
          <internalNodes>
            0 -1 56 2.2654481232166290e-02</internalNodes>
          <leafValues>
            1.3637201488018036e-01 -2.9569429159164429e-01</leafValues></_>
        <_>
          <internalNodes>
            0 -1 92 4.4939082115888596e-02</internalNodes>
          <leafValues>
            -1.1487075686454773e-01 4.4484415650367737e-01</leafValues></_>
        <_>
          <internalNodes>
            0 -1 130 3.4727074205875397e-02</internalNodes>
          <leafValues>
            -2.7181628346443176e-01 1.8446817994117737e-01</leafValues></_>
        <_>
          <internalNodes>
            0 -1 100 3.6406610161066055e-02</internalNodes>
          <leafValues>
            -1.1604723334312439e-01 4.2352730035781860e-01</leafValues></_>
        <_>
          <internalNodes>
            0 -1 102 1.1103212833404541e-02</internalNodes>
          <leafValues>
            -8.1266844272613525e-01 6.2025994062423706e-02</leafValues></_>
        <_>
          <internalNodes>
            0 -1 34 1.7830794677138329e-02</internalNodes>
          <leafValues>
            -2.1650747954845428e-01 1.8860076367855072e-01</leafValues></_>
        <_>
          <internalNodes>
            0 -1 140 1.1676233261823654e-02</internalNodes>
          <leafValues>
            3.1769055128097534e-01 -1.5196938812732697e-01</leafValues></_>
        <_>
          <internalNodes>
            0 -1 112 4.0680304169654846e-02</internalNodes>
          <leafValues>
            -2.5316679477691650e-01 2.0803688466548920e-01</leafValues></_>
        <_>
          <internalNodes>
            0 -1 35 6.6088475286960602e-03</internalNodes>
          <leafValues>
            -4.7139039635658264e-01 7.3191978037357330e-02</leafValues></_>
        <_>
          <internalNodes>
            0 -1 63 4.3131701648235321e-02</internalNodes>
          <leafValues>
            4.1251271963119507e-02 -8.4625488519668579e-01</leafValues></_>
        <_>
          <internalNodes>
            0 -1 133 9.0215317904949188e-03</internalNodes>
          <leafValues>
            2.6580524444580078e-01 -1.3591375946998596e-01</leafValues></_>
        <_>
          <internalNodes>
            0 -1 0 4.0983691811561584e-02</internalNodes>
          <leafValues>
            7.1010999381542206e-02 -5.1319825649261475e-01</leafValues></_>
        <_>
          <internalNodes>
            0 -1 43 1.3075891882181168e-02</internalNodes>
          <leafValues>
            -3.4548476338386536e-01 1.2298708409070969e-01</leafValues></_>
        <_>
          <internalNodes>
            0 -1 37 3.2157987356185913e-02</internalNodes>
          <leafValues>
            -1.4464612305164337e-01 2.7041190862655640e-01</leafValues></_>
        <_>
          <internalNodes>
            0 -1 140 6.4167238771915436e-02</internalNodes>
          <leafValues>
            3.6118827760219574e-02 -9.4261389970779419e-01</leafValues></_>
        <_>
          <internalNodes>
            0 -1 23 2.0774923264980316e-02</internalNodes>
          <leafValues>
            -2.7715271711349487e-01 1.3078406453132629e-01</leafValues></_></weakClassifiers></_>
    <!-- stage 5 -->
    <_>
      <maxWeakCount>52</maxWeakCount>
      <stageThreshold>-1.4284454584121704e+00</stageThreshold>
      <weakClassifiers>
        <_>
          <internalNodes>
            0 -1 51 2.0229237154126167e-02</internalNodes>
          <leafValues>
            -1.8653576076030731e-01 2.7583107352256775e-01</leafValues></_>
        <_>
          <internalNodes>
            0 -1 48 3.3908940851688385e-02</internalNodes>
          <leafValues>
            -3.0225080251693726e-01 1.9795283675193787e-01</leafValues></_>
        <_>
          <internalNodes>
            0 -1 69 2.0324273500591516e-03</internalNodes>
          <leafValues>
            5.5828660726547241e-01 -8.8745474815368652e-02</leafValues></_>
        <_>
          <internalNodes>
            0 -1 44 1.2581231072545052e-02</internalNodes>
          <leafValues>
            -4.7546800971031189e-01 1.0755202174186707e-01</leafValues></_>
        <_>
          <internalNodes>
            0 -1 127 4.9094315618276596e-03</internalNodes>
          <leafValues>
            4.2525234818458557e-01 -1.4875663816928864e-01</leafValues></_>
        <_>
          <internalNodes>
            0 -1 66 1.6656417399644852e-02</internalNodes>
          <leafValues>
            -5.2593612670898438e-01 1.2524671852588654e-01</leafValues></_>
        <_>
          <internalNodes>
            0 -1 124 7.4952743016183376e-03</internalNodes>
          <leafValues>
            -6.9965547323226929e-01 7.6035447418689728e-02</leafValues></_>
        <_>
          <internalNodes>
            0 -1 70 6.2989089637994766e-03</internalNodes>
          <leafValues>
            2.7336087822914124e-01 -1.7319573462009430e-01</leafValues></_>
        <_>
          <internalNodes>
            0 -1 126 1.1739505454897881e-02</internalNodes>
          <leafValues>
            2.0247833430767059e-01 -2.2376674413681030e-01</leafValues></_>
        <_>
          <internalNodes>
            0 -1 37 2.2218804806470871e-02</internalNodes>
          <leafValues>
            -3.0862420797348022e-01 1.7972296476364136e-01</leafValues></_>
        <_>
          <internalNodes>
            0 -1 84 5.5769588798284531e-02</internalNodes>
          <leafValues>
            7.5742803514003754e-02 -6.3597917556762695e-01</leafValues></_>
        <_>
          <internalNodes>
            0 -1 75 9.9274814128875732e-03</internalNodes>
          <leafValues>
            -7.3068940639495850e-01 6.2586538493633270e-02</leafValues></_>
        <_>
          <internalNodes>
            0 -1 57 7.5739780440926552e-03</internalNodes>
          <leafValues>
            -6.6410624980926514e-01 5.4959379136562347e-02</leafValues></_>
        <_>
          <internalNodes>
            0 -1 31 5.4524362087249756e-02</internalNodes>
          <leafValues>
            -1.7958015203475952e-01 2.4495778977870941e-01</leafValues></_>
        <_>
          <internalNodes>
            0 -1 125 2.0959272980690002e-02</internalNodes>
          <leafValues>
            -2.5770342350006104e-01 1.6579593718051910e-01</leafValues></_>
        <_>
          <internalNodes>
            0 -1 24 1.7739560455083847e-02</internalNodes>
          <leafValues>
            -2.7512073516845703e-01 1.3678963482379913e-01</leafValues></_>
        <_>
          <internalNodes>
            0 -1 140 1.5516201965510845e-02</internalNodes>
          <leafValues>
            2.1405465900897980e-01 -1.8629249930381775e-01</leafValues></_>
        <_>
          <internalNodes>
            0 -1 55 2.2547297179698944e-02</internalNodes>
          <leafValues>
            1.1589243263006210e-01 -3.4401175379753113e-01</leafValues></_>
        <_>
          <internalNodes>
            0 -1 39 1.1429971083998680e-02</internalNodes>
          <leafValues>
            -7.0591455698013306e-01 4.5078929513692856e-02</leafValues></_>
        <_>
          <internalNodes>
            0 -1 28 3.9153024554252625e-02</internalNodes>
          <leafValues>
            -1.1903319507837296e-01 3.2640564441680908e-01</leafValues></_>
        <_>
          <internalNodes>
            0 -1 50 1.4436418190598488e-02</internalNodes>
          <leafValues>
            -4.0068143606185913e-01 9.7921416163444519e-02</leafValues></_>
        <_>
          <internalNodes>
            0 -1 54 2.9996992088854313e-03</internalNodes>
          <leafValues>
            4.3357616662979126e-01 -7.4311658740043640e-02</leafValues></_>
        <_>
          <internalNodes>
            0 -1 44 4.0409239009022713e-03</internalNodes>
          <leafValues>
            -8.1489044427871704e-01 4.8525627702474594e-02</leafValues></_>
        <_>
          <internalNodes>
            0 -1 135 2.4607073515653610e-02</internalNodes>
          <leafValues>
            1.0657329112291336e-01 -3.1680497527122498e-01</leafValues></_>
        <_>
          <internalNodes>
            0 -1 139 9.9680505692958832e-02</internalNodes>
          <leafValues>
            2.8778897598385811e-02 -9.0949761867523193e-01</leafValues></_>
        <_>
          <internalNodes>
            0 -1 130 4.1475940495729446e-02</internalNodes>
          <leafValues>
            -1.8583536148071289e-01 1.5637345612049103e-01</leafValues></_>
        <_>
          <internalNodes>
            0 -1 141 3.6904197186231613e-03</internalNodes>
          <leafValues>
            4.0859097242355347e-01 -8.7560348212718964e-02</leafValues></_>
        <_>
          <internalNodes>
            0 -1 121 7.2039149701595306e-02</internalNodes>
          <leafValues>
            6.1507858335971832e-02 -6.0711401700973511e-01</leafValues></_>
        <_>
          <internalNodes>
            0 -1 81 1.8892932683229446e-02</internalNodes>
          <leafValues>
            1.6733473539352417e-01 -2.0529915392398834e-01</leafValues></_>
        <_>
          <internalNodes>
            0 -1 117 8.5159409791231155e-03</internalNodes>
          <leafValues>
            -5.0342351198196411e-01 8.9365296065807343e-02</leafValues></_>
        <_>
          <internalNodes>
            0 -1 49 3.3205498009920120e-02</internalNodes>
          <leafValues>
            -2.7399444580078125e-01 1.2162069976329803e-01</leafValues></_>
        <_>
          <internalNodes>
            0 -1 26 3.3686250448226929e-02</internalNodes>
          <leafValues>
            -9.4855420291423798e-02 3.2764568924903870e-01</leafValues></_>
        <_>
          <internalNodes>
            0 -1 122 5.1803267560899258e-03</internalNodes>
          <leafValues>
            -8.0874568223953247e-01 3.7408918142318726e-02</leafValues></_>
        <_>
          <internalNodes>
            0 -1 120 1.2757466174662113e-02</internalNodes>
          <leafValues>
            -5.3708010911941528e-01 4.4927541166543961e-02</leafValues></_>
        <_>
          <internalNodes>
            0 -1 93 3.5667032003402710e-02</internalNodes>
          <leafValues>
            -1.9907781481742859e-01 1.3799445331096649e-01</leafValues></_>
        <_>
          <internalNodes>
            0 -1 55 1.9634563941508532e-03</internalNodes>
          <leafValues>
            5.3317952156066895e-01 -6.8064302206039429e-02</leafValues></_>
        <_>
          <internalNodes>
            0 -1 100 6.4618489705026150e-03</internalNodes>
          <leafValues>
            -6.4725005626678467e-01 5.5993095040321350e-02</leafValues></_>
        <_>
          <internalNodes>
            0 -1 36 1.9488703459501266e-02</internalNodes>
          <leafValues>
            -2.2890363633632660e-01 1.4200772345066071e-01</leafValues></_>
        <_>
          <internalNodes>
            0 -1 52 5.3152046166360378e-03</internalNodes>
          <leafValues>
            -6.2238597869873047e-01 4.6561729162931442e-02</leafValues></_>
        <_>
          <internalNodes>
            0 -1 142 1.1826701462268829e-02</internalNodes>
          <leafValues>
            1.8914407491683960e-01 -1.7741318047046661e-01</leafValues></_>
        <_>
          <internalNodes>
            0 -1 65 2.3427166044712067e-02</internalNodes>
          <leafValues>
            1.7834183573722839e-01 -1.8979573249816895e-01</leafValues></_>
        <_>
          <internalNodes>
            0 -1 66 3.6009095609188080e-02</internalNodes>
          <leafValues>
            -1.4947685599327087e-01 1.7589859664440155e-01</leafValues></_>
        <_>
          <internalNodes>
            0 -1 139 6.0453370213508606e-02</internalNodes>
          <leafValues>
            6.6729277372360229e-02 -4.2439708113670349e-01</leafValues></_>
        <_>
          <internalNodes>
            0 -1 96 3.6256350576877594e-02</internalNodes>
          <leafValues>
            -8.3725996315479279e-02 3.2374089956283569e-01</leafValues></_>
        <_>
          <internalNodes>
            0 -1 69 1.7587173730134964e-02</internalNodes>
          <leafValues>
            1.4567419886589050e-01 -2.0008674263954163e-01</leafValues></_>
        <_>
          <internalNodes>
            0 -1 126 4.1602179408073425e-03</internalNodes>
          <leafValues>
            3.2372868061065674e-01 -8.0874048173427582e-02</leafValues></_>
        <_>
          <internalNodes>
            0 -1 125 9.2925336211919785e-03</internalNodes>
          <leafValues>
            -4.9184098839759827e-01 5.9726655483245850e-02</leafValues></_>
        <_>
          <internalNodes>
            0 -1 12 1.6498768702149391e-02</internalNodes>
          <leafValues>
            -3.5092267394065857e-01 7.5996316969394684e-02</leafValues></_>
        <_>
          <internalNodes>
            0 -1 12 5.7883404195308685e-02</internalNodes>
          <leafValues>
            5.4355908185243607e-02 -5.1939076185226440e-01</leafValues></_>
        <_>
          <internalNodes>
            0 -1 70 3.4847732633352280e-02</internalNodes>
          <leafValues>
            4.4870506972074509e-02 -6.4378327131271362e-01</leafValues></_>
        <_>
          <internalNodes>
            0 -1 3 1.0883849114179611e-02</internalNodes>
          <leafValues>
            -5.3781938552856445e-01 4.3097723275423050e-02</leafValues></_>
        <_>
          <internalNodes>
            0 -1 57 4.8953564837574959e-03</internalNodes>
          <leafValues>
            -6.6259789466857910e-01 3.4063223749399185e-02</leafValues></_></weakClassifiers></_>
    <!-- stage 6 -->
    <_>
      <maxWeakCount>68</maxWeakCount>
      <stageThreshold>-1.4007556438446045e+00</stageThreshold>
      <weakClassifiers>
        <_>
          <internalNodes>
            0 -1 70 1.3444362208247185e-02</internalNodes>
          <leafValues>
            3.1261426210403442e-01 -2.2950819134712219e-01</leafValues></_>
        <_>
          <internalNodes>
            0 -1 56 9.1817360371351242e-03</internalNodes>
          <leafValues>
            4.2721211910247803e-01 -1.6561053693294525e-01</leafValues></_>
        <_>
          <internalNodes>
            0 -1 141 5.6536947377026081e-03</internalNodes>
          <leafValues>
            3.4155586361885071e-01 -1.2843456864356995e-01</leafValues></_>
        <_>
          <internalNodes>
            0 -1 123 3.2891705632209778e-02</internalNodes>
          <leafValues>
            -1.8707373738288879e-01 2.9472503066062927e-01</leafValues></_>
        <_>
          <internalNodes>
            0 -1 127 2.4428686592727900e-03</internalNodes>
          <leafValues>
            5.4706192016601562e-01 -9.7233846783638000e-02</leafValues></_>
        <_>
          <internalNodes>
            0 -1 57 7.6164633035659790e-02</internalNodes>
          <leafValues>
            6.8104185163974762e-02 -8.1840443611145020e-01</leafValues></_>
        <_>
          <internalNodes>
            0 -1 59 4.6155802905559540e-02</internalNodes>
          <leafValues>
            7.7402658760547638e-02 -5.8690309524536133e-01</leafValues></_>
        <_>
          <internalNodes>
            0 -1 4 5.5000968277454376e-02</internalNodes>
          <leafValues>
            9.0028569102287292e-02 -5.3150373697280884e-01</leafValues></_>
        <_>
          <internalNodes>
            0 -1 111 4.2046021670103073e-02</internalNodes>
          <leafValues>
            -1.7282982170581818e-01 2.1800652146339417e-01</leafValues></_>
        <_>
          <internalNodes>
            0 -1 34 2.1554835140705109e-02</internalNodes>
          <leafValues>
            -1.6238187253475189e-01 2.1721860766410828e-01</leafValues></_>
        <_>
          <internalNodes>
            0 -1 71 1.8475383520126343e-02</internalNodes>
          <leafValues>
            1.6631497442722321e-01 -2.3251393437385559e-01</leafValues></_>
        <_>
          <internalNodes>
            0 -1 107 2.5068297982215881e-02</internalNodes>
          <leafValues>
            -1.7692460119724274e-01 2.2966790199279785e-01</leafValues></_>
        <_>
          <internalNodes>
            0 -1 140 2.0681755617260933e-02</internalNodes>
          <leafValues>
            1.5444619953632355e-01 -2.4210265278816223e-01</leafValues></_>
        <_>
          <internalNodes>
            0 -1 126 1.4288170263171196e-02</internalNodes>
          <leafValues>
            1.5598203241825104e-01 -2.2462932765483856e-01</leafValues></_>
        <_>
          <internalNodes>
            0 -1 56 5.5886715650558472e-02</internalNodes>
          <leafValues>
            5.1942050457000732e-02 -6.6829609870910645e-01</leafValues></_>
        <_>
          <internalNodes>
            0 -1 129 3.3797111362218857e-02</internalNodes>
          <leafValues>
            -2.0751561224460602e-01 1.7329332232475281e-01</leafValues></_>
        <_>
          <internalNodes>
            0 -1 98 1.1422440409660339e-02</internalNodes>
          <leafValues>
            -3.1665784120559692e-01 1.1846821010112762e-01</leafValues></_>
        <_>
          <internalNodes>
            0 -1 65 5.3177918307483196e-03</internalNodes>
          <leafValues>
            5.9941416978836060e-01 -5.3768850862979889e-02</leafValues></_>
        <_>
          <internalNodes>
            0 -1 29 2.1832700818777084e-02</internalNodes>
          <leafValues>
            -2.4247212707996368e-01 1.3909712433815002e-01</leafValues></_>
        <_>
          <internalNodes>
            0 -1 36 2.4928648024797440e-02</internalNodes>
          <leafValues>
            -1.6401569545269012e-01 1.9276836514472961e-01</leafValues></_>
        <_>
          <internalNodes>
            0 -1 55 1.2889409437775612e-02</internalNodes>
          <leafValues>
            2.1767191588878632e-01 -1.6779759526252747e-01</leafValues></_>
        <_>
          <internalNodes>
            0 -1 136 3.0222538858652115e-02</internalNodes>
          <leafValues>
            -1.3731104135513306e-01 2.7076449990272522e-01</leafValues></_>
        <_>
          <internalNodes>
            0 -1 24 3.1740725040435791e-02</internalNodes>
          <leafValues>
            -1.1108458787202835e-01 2.7045577764511108e-01</leafValues></_>
        <_>
          <internalNodes>
            0 -1 133 2.6859138160943985e-02</internalNodes>
          <leafValues>
            8.3810962736606598e-02 -4.0810918807983398e-01</leafValues></_>
        <_>
          <internalNodes>
            0 -1 31 3.2355166971683502e-02</internalNodes>
          <leafValues>
            -2.9137119650840759e-01 1.0091471672058105e-01</leafValues></_>
        <_>
          <internalNodes>
            0 -1 91 4.0733337402343750e-02</internalNodes>
          <leafValues>
            -1.0145587474107742e-01 3.3735680580139160e-01</leafValues></_>
        <_>
          <internalNodes>
            0 -1 3 1.8110895529389381e-02</internalNodes>
          <leafValues>
            -2.9672348499298096e-01 1.0436166822910309e-01</leafValues></_>
        <_>
          <internalNodes>
            0 -1 102 2.4567920714616776e-02</internalNodes>
          <leafValues>
            -3.2465338706970215e-01 8.4137916564941406e-02</leafValues></_>
        <_>
          <internalNodes>
            0 -1 107 7.2794775478541851e-03</internalNodes>
          <leafValues>
            -4.7046720981597900e-01 7.0286102592945099e-02</leafValues></_>
        <_>
          <internalNodes>
            0 -1 71 3.9134003221988678e-02</internalNodes>
          <leafValues>
            4.3425220996141434e-02 -5.8331733942031860e-01</leafValues></_>
        <_>
          <internalNodes>
            0 -1 113 4.6135999262332916e-02</internalNodes>
          <leafValues>
            -8.2464136183261871e-02 3.4575396776199341e-01</leafValues></_>
        <_>
          <internalNodes>
            0 -1 140 8.7941316887736320e-03</internalNodes>
          <leafValues>
            2.5766870379447937e-01 -1.0253455489873886e-01</leafValues></_>
        <_>
          <internalNodes>
            0 -1 130 2.9844421893358231e-02</internalNodes>
          <leafValues>
            -2.7248510718345642e-01 1.0955966264009476e-01</leafValues></_>
        <_>
          <internalNodes>
            0 -1 1 8.9204479008913040e-03</internalNodes>
          <leafValues>
            -5.3153145313262939e-01 4.6230282634496689e-02</leafValues></_>
        <_>
          <internalNodes>
            0 -1 12 2.9969427734613419e-02</internalNodes>
          <leafValues>
            -1.5731005370616913e-01 1.6503314673900604e-01</leafValues></_>
        <_>
          <internalNodes>
            0 -1 43 3.1739985570311546e-03</internalNodes>
          <leafValues>
            -8.1371718645095825e-01 3.9236266165971756e-02</leafValues></_>
        <_>
          <internalNodes>
            0 -1 139 1.0181224346160889e-01</internalNodes>
          <leafValues>
            1.9504062831401825e-02 -8.6146336793899536e-01</leafValues></_>
        <_>
          <internalNodes>
            0 -1 124 1.9201349467039108e-02</internalNodes>
          <leafValues>
            -2.1577218174934387e-01 1.0776579380035400e-01</leafValues></_>
        <_>
          <internalNodes>
            0 -1 69 9.3742292374372482e-03</internalNodes>
          <leafValues>
            2.2501260042190552e-01 -1.3591632246971130e-01</leafValues></_>
        <_>
          <internalNodes>
            0 -1 33 5.7585034519433975e-02</internalNodes>
          <leafValues>
            -4.3830934911966324e-02 6.8887305259704590e-01</leafValues></_>
        <_>
          <internalNodes>
            0 -1 44 2.7448020875453949e-02</internalNodes>
          <leafValues>
            -1.2289457768201828e-01 2.0168709754943848e-01</leafValues></_>
        <_>
          <internalNodes>
            0 -1 126 3.6585859488695860e-03</internalNodes>
          <leafValues>
            3.5888504981994629e-01 -7.9082064330577850e-02</leafValues></_>
        <_>
          <internalNodes>
            0 -1 90 1.7508223652839661e-02</internalNodes>
          <leafValues>
            -1.6560031473636627e-01 1.6586296260356903e-01</leafValues></_>
        <_>
          <internalNodes>
            0 -1 111 1.4193467795848846e-02</internalNodes>
          <leafValues>
            -7.5117105245590210e-01 4.1394051164388657e-02</leafValues></_>
        <_>
          <internalNodes>
            0 -1 126 2.4216696619987488e-02</internalNodes>
          <leafValues>
            7.8294910490512848e-02 -3.5326978564262390e-01</leafValues></_>
        <_>
          <internalNodes>
            0 -1 102 1.1854048818349838e-02</internalNodes>
          <leafValues>
            -7.1988779306411743e-01 2.9450280591845512e-02</leafValues></_>
        <_>
          <internalNodes>
            0 -1 89 2.8356797993183136e-02</internalNodes>
          <leafValues>
            -1.1153231561183929e-01 2.1754549443721771e-01</leafValues></_>
        <_>
          <internalNodes>
            0 -1 34 3.0824601650238037e-02</internalNodes>
          <leafValues>
            -7.3588408529758453e-02 3.1852030754089355e-01</leafValues></_>
        <_>
          <internalNodes>
            0 -1 70 2.6144552975893021e-02</internalNodes>
          <leafValues>
            7.3769085109233856e-02 -4.3003246188163757e-01</leafValues></_>
        <_>
          <internalNodes>
            0 -1 57 8.5093855857849121e-02</internalNodes>
          <leafValues>
            2.2444559261202812e-02 -8.5766243934631348e-01</leafValues></_>
        <_>
          <internalNodes>
            0 -1 30 6.5573446452617645e-02</internalNodes>
          <leafValues>
            -8.4472469985485077e-02 3.4970507025718689e-01</leafValues></_>
        <_>
          <internalNodes>
            0 -1 123 2.3488277569413185e-02</internalNodes>
          <leafValues>
            -1.8886451423168182e-01 1.4249552786350250e-01</leafValues></_>
        <_>
          <internalNodes>
            0 -1 46 4.1320241987705231e-02</internalNodes>
          <leafValues>
            -7.8707739710807800e-02 3.3595809340476990e-01</leafValues></_>
        <_>
          <internalNodes>
            0 -1 10 2.4467600509524345e-02</internalNodes>
          <leafValues>
            1.3612981140613556e-01 -2.4193219840526581e-01</leafValues></_>
        <_>
          <internalNodes>
            0 -1 54 1.3200344983488321e-03</internalNodes>
          <leafValues>
            5.5811399221420288e-01 -4.7875795513391495e-02</leafValues></_>
        <_>
          <internalNodes>
            0 -1 37 1.8802657723426819e-02</internalNodes>
          <leafValues>
            -2.6370686292648315e-01 1.2102316319942474e-01</leafValues></_>
        <_>
          <internalNodes>
            0 -1 120 7.6352626085281372e-02</internalNodes>
          <leafValues>
            3.0333939939737320e-02 -7.3519861698150635e-01</leafValues></_>
        <_>
          <internalNodes>
            0 -1 135 1.4003971591591835e-02</internalNodes>
          <leafValues>
            1.8145547807216644e-01 -1.5842548012733459e-01</leafValues></_>
        <_>
          <internalNodes>
            0 -1 138 8.8611587882041931e-02</internalNodes>
          <leafValues>
            3.3411562442779541e-02 -7.0587170124053955e-01</leafValues></_>
        <_>
          <internalNodes>
            0 -1 87 7.0227324962615967e-02</internalNodes>
          <leafValues>
            2.2066658362746239e-02 -8.9185827970504761e-01</leafValues></_>
        <_>
          <internalNodes>
            0 -1 127 1.2384256348013878e-02</internalNodes>
          <leafValues>
            1.9393596053123474e-01 -1.4026637375354767e-01</leafValues></_>
        <_>
          <internalNodes>
            0 -1 141 3.4297470003366470e-02</internalNodes>
          <leafValues>
            5.9116661548614502e-02 -5.2515995502471924e-01</leafValues></_>
        <_>
          <internalNodes>
            0 -1 0 2.5438293814659119e-02</internalNodes>
          <leafValues>
            1.1467284709215164e-01 -2.2831267118453979e-01</leafValues></_>
        <_>
          <internalNodes>
            0 -1 121 7.8614860773086548e-02</internalNodes>
          <leafValues>
            4.3573152273893356e-02 -6.4577704668045044e-01</leafValues></_>
        <_>
          <internalNodes>
            0 -1 133 3.7139263004064560e-03</internalNodes>
          <leafValues>
            4.1488224267959595e-01 -6.2327753752470016e-02</leafValues></_>
        <_>
          <internalNodes>
            0 -1 38 7.0608779788017273e-02</internalNodes>
          <leafValues>
            3.3260159194469452e-02 -7.2566717863082886e-01</leafValues></_>
        <_>
          <internalNodes>
            0 -1 110 1.4468364417552948e-02</internalNodes>
          <leafValues>
            -3.8236215710639954e-01 5.6381452828645706e-02</leafValues></_>
        <_>
          <internalNodes>
            0 -1 56 1.6819417476654053e-02</internalNodes>
          <leafValues>
            1.6357140243053436e-01 -1.6466043889522552e-01</leafValues></_></weakClassifiers></_>
    <!-- stage 7 -->
    <_>
      <maxWeakCount>71</maxWeakCount>
      <stageThreshold>-1.1794339418411255e+00</stageThreshold>
      <weakClassifiers>
        <_>
          <internalNodes>
            0 -1 60 9.9124331027269363e-03</internalNodes>
          <leafValues>
            -2.9687500000000000e-01 1.9972260296344757e-01</leafValues></_>
        <_>
          <internalNodes>
            0 -1 63 1.3922343961894512e-02</internalNodes>
          <leafValues>
            1.9841042160987854e-01 -2.2539144754409790e-01</leafValues></_>
        <_>
          <internalNodes>
            0 -1 123 3.7508953362703323e-02</internalNodes>
          <leafValues>
            -8.9307688176631927e-02 3.3774602413177490e-01</leafValues></_>
        <_>
          <internalNodes>
            0 -1 30 4.1481576859951019e-02</internalNodes>
          <leafValues>
            -3.1511855125427246e-01 9.6461407840251923e-02</leafValues></_>
        <_>
          <internalNodes>
            0 -1 107 1.7392074689269066e-02</internalNodes>
          <leafValues>
            -2.0110727846622467e-01 2.1658372879028320e-01</leafValues></_>
        <_>
          <internalNodes>
            0 -1 140 6.3383560627698898e-03</internalNodes>
          <leafValues>
            3.9455896615982056e-01 -9.0588577091693878e-02</leafValues></_>
        <_>
          <internalNodes>
            0 -1 94 5.1855586469173431e-02</internalNodes>
          <leafValues>
            -2.1250419318675995e-01 1.6986338794231415e-01</leafValues></_>
        <_>
          <internalNodes>
            0 -1 26 1.9997484982013702e-02</internalNodes>
          <leafValues>
            -2.0790031552314758e-01 1.9667723774909973e-01</leafValues></_>
        <_>
          <internalNodes>
            0 -1 51 6.1616025865077972e-02</internalNodes>
          <leafValues>
            -7.1512587368488312e-02 6.9983202219009399e-01</leafValues></_>
        <_>
          <internalNodes>
            0 -1 91 4.2933307588100433e-02</internalNodes>
          <leafValues>
            -6.5074719488620758e-02 4.2939549684524536e-01</leafValues></_>
        <_>
          <internalNodes>
            0 -1 127 4.6911789104342461e-03</internalNodes>
          <leafValues>
            3.5883468389511108e-01 -9.6242398023605347e-02</leafValues></_>
        <_>
          <internalNodes>
            0 -1 22 1.0672557353973389e-01</internalNodes>
          <leafValues>
            3.8104005157947540e-02 -7.4490940570831299e-01</leafValues></_>
        <_>
          <internalNodes>
            0 -1 124 7.3246839456260204e-03</internalNodes>
          <leafValues>
            -6.6320872306823730e-01 3.6518428474664688e-02</leafValues></_>
        <_>
          <internalNodes>
            0 -1 69 2.9859663918614388e-03</internalNodes>
          <leafValues>
            3.7997025251388550e-01 -8.3537958562374115e-02</leafValues></_>
        <_>
          <internalNodes>
            0 -1 23 1.1606607586145401e-02</internalNodes>
          <leafValues>
            -3.9514091610908508e-01 6.3243806362152100e-02</leafValues></_>
        <_>
          <internalNodes>
            0 -1 56 1.6815956681966782e-02</internalNodes>
          <leafValues>
            1.5215133130550385e-01 -1.6444854438304901e-01</leafValues></_>
        <_>
          <internalNodes>
            0 -1 5 4.9193561077117920e-02</internalNodes>
          <leafValues>
            4.1592277586460114e-02 -7.0308500528335571e-01</leafValues></_>
        <_>
          <internalNodes>
            0 -1 66 1.1694954708218575e-02</internalNodes>
          <leafValues>
            -6.6495472192764282e-01 2.8460478410124779e-02</leafValues></_>
        <_>
          <internalNodes>
            0 -1 50 4.1932497173547745e-02</internalNodes>
          <leafValues>
            -9.7067452967166901e-02 2.5536358356475830e-01</leafValues></_>
        <_>
          <internalNodes>
            0 -1 92 5.1825873553752899e-02</internalNodes>
          <leafValues>
            -7.6608978211879730e-02 3.6462023854255676e-01</leafValues></_>
        <_>
          <internalNodes>
            0 -1 44 1.5950381755828857e-02</internalNodes>
          <leafValues>
            -2.5553447008132935e-01 1.0190001875162125e-01</leafValues></_>
        <_>
          <internalNodes>
            0 -1 112 3.7411302328109741e-02</internalNodes>
          <leafValues>
            -1.9838000833988190e-01 1.2388858199119568e-01</leafValues></_>
        <_>
          <internalNodes>
            0 -1 118 2.1073913201689720e-02</internalNodes>
          <leafValues>
            -1.7718653380870819e-01 1.3766247034072876e-01</leafValues></_>
        <_>
          <internalNodes>
            0 -1 24 1.8089050427079201e-02</internalNodes>
          <leafValues>
            -1.9834963977336884e-01 1.2662127614021301e-01</leafValues></_>
        <_>
          <internalNodes>
            0 -1 57 1.9338961690664291e-02</internalNodes>
          <leafValues>
            -2.4650163948535919e-01 9.9201835691928864e-02</leafValues></_>
        <_>
          <internalNodes>
            0 -1 65 1.2849385850131512e-02</internalNodes>
          <leafValues>
            2.5925704836845398e-01 -9.8975941538810730e-02</leafValues></_>
        <_>
          <internalNodes>
            0 -1 12 1.8701301887631416e-02</internalNodes>
          <leafValues>
            -3.0456614494323730e-01 8.5790574550628662e-02</leafValues></_>
        <_>
          <internalNodes>
            0 -1 120 8.6921460926532745e-02</internalNodes>
          <leafValues>
            3.1235573813319206e-02 -7.9376053810119629e-01</leafValues></_>
        <_>
          <internalNodes>
            0 -1 70 5.1248362287878990e-03</internalNodes>
          <leafValues>
            2.5914740562438965e-01 -1.0171152651309967e-01</leafValues></_>
        <_>
          <internalNodes>
            0 -1 27 6.4623355865478516e-03</internalNodes>
          <leafValues>
            -3.8761088252067566e-01 6.3808232545852661e-02</leafValues></_>
        <_>
          <internalNodes>
            0 -1 87 4.2432164773344994e-03</internalNodes>
          <leafValues>
            -6.8322211503982544e-01 3.3792078495025635e-02</leafValues></_>
        <_>
          <internalNodes>
            0 -1 2 5.8126971125602722e-02</internalNodes>
          <leafValues>
            2.3646753281354904e-02 -7.5333052873611450e-01</leafValues></_>
        <_>
          <internalNodes>
            0 -1 16 3.6447681486606598e-02</internalNodes>
          <leafValues>
            4.5521512627601624e-02 -4.5634794235229492e-01</leafValues></_>
        <_>
          <internalNodes>
            0 -1 124 2.7157347649335861e-02</internalNodes>
          <leafValues>
            -1.2844824790954590e-01 1.7223872244358063e-01</leafValues></_>
        <_>
          <internalNodes>
            0 -1 55 1.9142171368002892e-02</internalNodes>
          <leafValues>
            1.0662080347537994e-01 -2.0524461567401886e-01</leafValues></_>
        <_>
          <internalNodes>
            0 -1 68 2.6133349165320396e-03</internalNodes>
          <leafValues>
            5.6031984090805054e-01 -4.3740380555391312e-02</leafValues></_>
        <_>
          <internalNodes>
            0 -1 57 8.3812490105628967e-02</internalNodes>
          <leafValues>
            3.1072312965989113e-02 -7.8092938661575317e-01</leafValues></_>
        <_>
          <internalNodes>
            0 -1 86 4.4636607170104980e-02</internalNodes>
          <leafValues>
            3.7820920348167419e-02 -4.5398253202438354e-01</leafValues></_>
        <_>
          <internalNodes>
            0 -1 83 2.4382270872592926e-02</internalNodes>
          <leafValues>
            1.1359067261219025e-01 -1.9053509831428528e-01</leafValues></_>
        <_>
          <internalNodes>
            0 -1 119 3.4552935510873795e-02</internalNodes>
          <leafValues>
            -1.2404774129390717e-01 2.3558455705642700e-01</leafValues></_>
        <_>
          <internalNodes>
            0 -1 72 2.4398697540163994e-02</internalNodes>
          <leafValues>
            1.1622983217239380e-01 -1.8995657563209534e-01</leafValues></_>
        <_>
          <internalNodes>
            0 -1 62 4.0683452039957047e-02</internalNodes>
          <leafValues>
            -5.0922628492116928e-02 3.8735845685005188e-01</leafValues></_>
        <_>
          <internalNodes>
            0 -1 134 1.5339978039264679e-02</internalNodes>
          <leafValues>
            1.5493793785572052e-01 -1.8459661304950714e-01</leafValues></_>
        <_>
          <internalNodes>
            0 -1 36 2.7653669938445091e-02</internalNodes>
          <leafValues>
            -1.3415938615798950e-01 1.7781279981136322e-01</leafValues></_>
        <_>
          <internalNodes>
            0 -1 33 1.9661483820527792e-03</internalNodes>
          <leafValues>
            -6.3331037759780884e-01 4.0421191602945328e-02</leafValues></_>
        <_>
          <internalNodes>
            0 -1 55 4.0773660875856876e-03</internalNodes>
          <leafValues>
            2.8305444121360779e-01 -6.8857848644256592e-02</leafValues></_>
        <_>
          <internalNodes>
            0 -1 19 2.9438875615596771e-02</internalNodes>
          <leafValues>
            -1.0675544291734695e-01 2.5780746340751648e-01</leafValues></_>
        <_>
          <internalNodes>
            0 -1 123 1.5063041821122169e-02</internalNodes>
          <leafValues>
            -2.5590759515762329e-01 7.8000351786613464e-02</leafValues></_>
        <_>
          <internalNodes>
            0 -1 121 2.8101675212383270e-02</internalNodes>
          <leafValues>
            -2.1381987631320953e-01 8.3518020808696747e-02</leafValues></_>
        <_>
          <internalNodes>
            0 -1 103 1.0462538897991180e-01</internalNodes>
          <leafValues>
            2.3594904690980911e-02 -8.1222635507583618e-01</leafValues></_>
        <_>
          <internalNodes>
            0 -1 130 4.9493640661239624e-02</internalNodes>
          <leafValues>
            -1.1570379137992859e-01 1.5447342395782471e-01</leafValues></_>
        <_>
          <internalNodes>
            0 -1 141 4.1902009397745132e-03</internalNodes>
          <leafValues>
            2.5392410159111023e-01 -7.2992138564586639e-02</leafValues></_>
        <_>
          <internalNodes>
            0 -1 1 1.0066026821732521e-02</internalNodes>
          <leafValues>
            -3.9931485056877136e-01 4.8365939408540726e-02</leafValues></_>
        <_>
          <internalNodes>
            0 -1 115 3.7676967680454254e-02</internalNodes>
          <leafValues>
            -6.2777876853942871e-02 3.1766411662101746e-01</leafValues></_>
        <_>
          <internalNodes>
            0 -1 39 6.4695528708398342e-03</internalNodes>
          <leafValues>
            -1. 2.3428492248058319e-02</leafValues></_>
        <_>
          <internalNodes>
            0 -1 80 6.2988325953483582e-02</internalNodes>
          <leafValues>
            1.4912921935319901e-02 -7.2653800249099731e-01</leafValues></_>
        <_>
          <internalNodes>
            0 -1 107 3.1676284968852997e-02</internalNodes>
          <leafValues>
            -8.3499088883399963e-02 2.1587057411670685e-01</leafValues></_>
        <_>
          <internalNodes>
            0 -1 131 8.3685284480452538e-03</internalNodes>
          <leafValues>
            3.6449825763702393e-01 -5.5947344750165939e-02</leafValues></_>
        <_>
          <internalNodes>
            0 -1 42 3.6733381450176239e-02</internalNodes>
          <leafValues>
            -7.4765734374523163e-02 2.5217062234878540e-01</leafValues></_>
        <_>
          <internalNodes>
            0 -1 6 3.6670006811618805e-02</internalNodes>
          <leafValues>
            5.8844197541475296e-02 -4.3362507224082947e-01</leafValues></_>
        <_>
          <internalNodes>
            0 -1 102 1.3094976544380188e-02</internalNodes>
          <leafValues>
            -6.1385852098464966e-01 3.2179702073335648e-02</leafValues></_>
        <_>
          <internalNodes>
            0 -1 128 2.8964939992874861e-03</internalNodes>
          <leafValues>
            5.2965843677520752e-01 -4.7033131122589111e-02</leafValues></_>
        <_>
          <internalNodes>
            0 -1 70 4.0221191942691803e-02</internalNodes>
          <leafValues>
            2.7912795543670654e-02 -8.3047193288803101e-01</leafValues></_>
        <_>
          <internalNodes>
            0 -1 63 3.2332208007574081e-02</internalNodes>
          <leafValues>
            3.5243757069110870e-02 -3.9443030953407288e-01</leafValues></_>
        <_>
          <internalNodes>
            0 -1 136 8.3290254697203636e-03</internalNodes>
          <leafValues>
            -3.1970712542533875e-01 5.9453424066305161e-02</leafValues></_>
        <_>
          <internalNodes>
            0 -1 83 6.4087919890880585e-02</internalNodes>
          <leafValues>
            1.8174462020397186e-02 -8.6893290281295776e-01</leafValues></_>
        <_>
          <internalNodes>
            0 -1 133 5.3253732621669769e-02</internalNodes>
          <leafValues>
            8.6329327896237373e-03 -1.</leafValues></_>
        <_>
          <internalNodes>
            0 -1 120 6.9853603839874268e-02</internalNodes>
          <leafValues>
            2.7588808909058571e-02 -4.6137848496437073e-01</leafValues></_>
        <_>
          <internalNodes>
            0 -1 142 1.4882304240018129e-03</internalNodes>
          <leafValues>
            4.5487499237060547e-01 -4.6844322234392166e-02</leafValues></_>
        <_>
          <internalNodes>
            0 -1 3 1.4831008389592171e-02</internalNodes>
          <leafValues>
            -3.0926859378814697e-01 5.1089104264974594e-02</leafValues></_>
        <_>
          <internalNodes>
            0 -1 73 3.1194198876619339e-02</internalNodes>
          <leafValues>
            7.7938459813594818e-02 -2.0646929740905762e-01</leafValues></_></weakClassifiers></_>
    <!-- stage 8 -->
    <_>
      <maxWeakCount>100</maxWeakCount>
      <stageThreshold>-1.5065547227859497e+00</stageThreshold>
      <weakClassifiers>
        <_>
          <internalNodes>
            0 -1 31 6.3013121485710144e-02</internalNodes>
          <leafValues>
            -4.1935484856367111e-02 3.8566553592681885e-01</leafValues></_>
        <_>
          <internalNodes>
            0 -1 141 4.9592759460210800e-03</internalNodes>
          <leafValues>
            2.9540243744850159e-01 -1.1138621717691422e-01</leafValues></_>
        <_>
          <internalNodes>
            0 -1 56 8.9197345077991486e-03</internalNodes>
          <leafValues>
            2.6034849882125854e-01 -1.5516342222690582e-01</leafValues></_>
        <_>
          <internalNodes>
            0 -1 129 2.8919043019413948e-02</internalNodes>
          <leafValues>
            -1.9260846078395844e-01 1.4950506389141083e-01</leafValues></_>
        <_>
          <internalNodes>
            0 -1 60 7.9230731353163719e-03</internalNodes>
          <leafValues>
            -4.7138452529907227e-01 4.7028530389070511e-02</leafValues></_>
        <_>
          <internalNodes>
            0 -1 109 4.6515353024005890e-02</internalNodes>
          <leafValues>
            -8.7781190872192383e-02 3.4329888224601746e-01</leafValues></_>
        <_>
          <internalNodes>
            0 -1 63 2.6359330862760544e-02</internalNodes>
          <leafValues>
            1.0988774150609970e-01 -3.6690980195999146e-01</leafValues></_>
        <_>
          <internalNodes>
            0 -1 33 3.9605360478162766e-02</internalNodes>
          <leafValues>
            -7.9648442566394806e-02 3.3996728062629700e-01</leafValues></_>
        <_>
          <internalNodes>
            0 -1 48 3.4095518290996552e-02</internalNodes>
          <leafValues>
            -2.2056436538696289e-01 1.2316613644361496e-01</leafValues></_>
        <_>
          <internalNodes>
            0 -1 52 8.5767759010195732e-03</internalNodes>
          <leafValues>
            -4.3675878643989563e-01 7.2267495095729828e-02</leafValues></_>
        <_>
          <internalNodes>
            0 -1 16 2.8786541894078255e-02</internalNodes>
          <leafValues>
            6.5464250743389130e-02 -3.0363267660140991e-01</leafValues></_>
        <_>
          <internalNodes>
            0 -1 108 1.2287140823900700e-02</internalNodes>
          <leafValues>
            -2.9553195834159851e-01 9.0629249811172485e-02</leafValues></_>
        <_>
          <internalNodes>
            0 -1 39 3.3463776111602783e-02</internalNodes>
          <leafValues>
            -1.7229914665222168e-01 1.4558476209640503e-01</leafValues></_>
        <_>
          <internalNodes>
            0 -1 55 6.5024883951991796e-04</internalNodes>
          <leafValues>
            6.9390618801116943e-01 -2.1081531420350075e-02</leafValues></_>
        <_>
          <internalNodes>
            0 -1 136 1.7820898443460464e-02</internalNodes>
          <leafValues>
            -1.8845805525779724e-01 1.3807708024978638e-01</leafValues></_>
        <_>
          <internalNodes>
            0 -1 49 4.4248487800359726e-02</internalNodes>
          <leafValues>
            -1.7274869978427887e-01 1.6371503472328186e-01</leafValues></_>
        <_>
          <internalNodes>
            0 -1 11 5.4738704115152359e-02</internalNodes>
          <leafValues>
            3.1918156892061234e-02 -7.2875285148620605e-01</leafValues></_>
        <_>
          <internalNodes>
            0 -1 140 2.8370931744575500e-02</internalNodes>
          <leafValues>
            7.7543221414089203e-02 -2.7718549966812134e-01</leafValues></_>
        <_>
          <internalNodes>
            0 -1 32 4.3743833899497986e-02</internalNodes>
          <leafValues>
            -8.7346360087394714e-02 3.0742135643959045e-01</leafValues></_>
        <_>
          <internalNodes>
            0 -1 129 4.7775521874427795e-02</internalNodes>
          <leafValues>
            -1.0468795150518417e-01 2.3953038454055786e-01</leafValues></_>
        <_>
          <internalNodes>
            0 -1 1 2.0058024674654007e-02</internalNodes>
          <leafValues>
            -1.8977285921573639e-01 1.3472779095172882e-01</leafValues></_>
        <_>
          <internalNodes>
            0 -1 67 3.7011124193668365e-02</internalNodes>
          <leafValues>
            -1.6057208180427551e-01 1.3229815661907196e-01</leafValues></_>
        <_>
          <internalNodes>
            0 -1 103 6.0544669628143311e-02</internalNodes>
          <leafValues>
            8.0955944955348969e-02 -3.4913763403892517e-01</leafValues></_>
        <_>
          <internalNodes>
            0 -1 66 1.1876517906785011e-02</internalNodes>
          <leafValues>
            -6.1487466096878052e-01 3.5679545253515244e-02</leafValues></_>
        <_>
          <internalNodes>
            0 -1 54 4.0911128744482994e-03</internalNodes>
          <leafValues>
            2.9897496104240417e-01 -7.6322287321090698e-02</leafValues></_>
        <_>
          <internalNodes>
            0 -1 62 4.1864447295665741e-02</internalNodes>
          <leafValues>
            -7.2328433394432068e-02 4.2700245976448059e-01</leafValues></_>
        <_>
          <internalNodes>
            0 -1 18 4.2789177969098091e-03</internalNodes>
          <leafValues>
            -5.1502531766891479e-01 4.7589406371116638e-02</leafValues></_>
        <_>
          <internalNodes>
            0 -1 42 1.2467129155993462e-02</internalNodes>
          <leafValues>
            -2.8289613127708435e-01 7.4071682989597321e-02</leafValues></_>
        <_>
          <internalNodes>
            0 -1 142 1.2757264077663422e-02</internalNodes>
          <leafValues>
            1.4090280234813690e-01 -1.6778011620044708e-01</leafValues></_>
        <_>
          <internalNodes>
            0 -1 137 6.1027750372886658e-02</internalNodes>
          <leafValues>
            3.7363000214099884e-02 -6.1185932159423828e-01</leafValues></_>
        <_>
          <internalNodes>
            0 -1 134 2.7809921652078629e-02</internalNodes>
          <leafValues>
            6.8561688065528870e-02 -2.8486785292625427e-01</leafValues></_>
        <_>
          <internalNodes>
            0 -1 35 1.0265931487083435e-02</internalNodes>
          <leafValues>
            -2.9681935906410217e-01 8.3692952990531921e-02</leafValues></_>
        <_>
          <internalNodes>
            0 -1 69 1.2048805132508278e-02</internalNodes>
          <leafValues>
            1.4304430782794952e-01 -1.4142306149005890e-01</leafValues></_>
        <_>
          <internalNodes>
            0 -1 129 1.0551795363426208e-01</internalNodes>
          <leafValues>
            2.8374623507261276e-02 -9.0193647146224976e-01</leafValues></_>
        <_>
          <internalNodes>
            0 -1 128 1.6458034515380859e-02</internalNodes>
          <leafValues>
            1.7903319001197815e-01 -1.3697296380996704e-01</leafValues></_>
        <_>
          <internalNodes>
            0 -1 53 5.9131454676389694e-02</internalNodes>
          <leafValues>
            2.9760854318737984e-02 -7.6447165012359619e-01</leafValues></_>
        <_>
          <internalNodes>
            0 -1 72 4.3986607342958450e-02</internalNodes>
          <leafValues>
            2.5179484859108925e-02 -5.3179430961608887e-01</leafValues></_>
        <_>
          <internalNodes>
            0 -1 38 6.1361319385468960e-03</internalNodes>
          <leafValues>
            -6.9089406728744507e-01 2.4269800633192062e-02</leafValues></_>
        <_>
          <internalNodes>
            0 -1 76 6.9924414157867432e-02</internalNodes>
          <leafValues>
            2.8731863945722580e-02 -4.9764475226402283e-01</leafValues></_>
        <_>
          <internalNodes>
            0 -1 82 8.7045971304178238e-03</internalNodes>
          <leafValues>
            2.8550902009010315e-01 -6.6754296422004700e-02</leafValues></_>
        <_>
          <internalNodes>
            0 -1 104 6.2371820211410522e-02</internalNodes>
          <leafValues>
            3.0196784064173698e-02 -6.9857573509216309e-01</leafValues></_>
        <_>
          <internalNodes>
            0 -1 126 1.0308399796485901e-02</internalNodes>
          <leafValues>
            1.3117319345474243e-01 -1.2175651639699936e-01</leafValues></_>
        <_>
          <internalNodes>
            0 -1 110 4.6778913587331772e-02</internalNodes>
          <leafValues>
            -7.3767758905887604e-02 2.4916623532772064e-01</leafValues></_>
        <_>
          <internalNodes>
            0 -1 124 2.3316560313105583e-02</internalNodes>
          <leafValues>
            -1.4611192047595978e-01 1.3126260042190552e-01</leafValues></_>
        <_>
          <internalNodes>
            0 -1 75 8.5253566503524780e-02</internalNodes>
          <leafValues>
            1.8501972779631615e-02 -8.5798406600952148e-01</leafValues></_>
        <_>
          <internalNodes>
            0 -1 3 1.0505545884370804e-02</internalNodes>
          <leafValues>
            -4.5166870951652527e-01 3.0528416857123375e-02</leafValues></_>
        <_>
          <internalNodes>
            0 -1 6 1.2861220166087151e-02</internalNodes>
          <leafValues>
            1.8389125168323517e-01 -9.0433448553085327e-02</leafValues></_>
        <_>
          <internalNodes>
            0 -1 60 2.4017848074436188e-02</internalNodes>
          <leafValues>
            -1.1520937830209732e-01 1.4065755903720856e-01</leafValues></_>
        <_>
          <internalNodes>
            0 -1 129 6.8746395409107208e-03</internalNodes>
          <leafValues>
            -6.2095946073532104e-01 2.8744645416736603e-02</leafValues></_>
        <_>
          <internalNodes>
            0 -1 84 6.6512967459857464e-03</internalNodes>
          <leafValues>
            -6.2181812524795532e-01 1.7070066183805466e-02</leafValues></_>
        <_>
          <internalNodes>
            0 -1 50 4.3483007699251175e-02</internalNodes>
          <leafValues>
            -7.3077619075775146e-02 2.2359442710876465e-01</leafValues></_>
        <_>
          <internalNodes>
            0 -1 14 4.8294857144355774e-02</internalNodes>
          <leafValues>
            4.7838691622018814e-02 -4.5384636521339417e-01</leafValues></_>
        <_>
          <internalNodes>
            0 -1 83 1.0895268060266972e-02</internalNodes>
          <leafValues>
            2.6553833484649658e-01 -6.2189597636461258e-02</leafValues></_>
        <_>
          <internalNodes>
            0 -1 58 1.2104738503694534e-01</internalNodes>
          <leafValues>
            1.4608517289161682e-02 -9.4388985633850098e-01</leafValues></_>
        <_>
          <internalNodes>
            0 -1 79 4.8283345997333527e-02</internalNodes>
          <leafValues>
            1.9644444808363914e-02 -6.4658492803573608e-01</leafValues></_>
        <_>
          <internalNodes>
            0 -1 133 1.2874901294708252e-02</internalNodes>
          <leafValues>
            1.2866760790348053e-01 -1.3075071573257446e-01</leafValues></_>
        <_>
          <internalNodes>
            0 -1 97 1.7928298562765121e-02</internalNodes>
          <leafValues>
            -1.3420650362968445e-01 1.3035506010055542e-01</leafValues></_>
        <_>
          <internalNodes>
            0 -1 141 2.8343599289655685e-02</internalNodes>
          <leafValues>
            5.6195750832557678e-02 -3.1408828496932983e-01</leafValues></_>
        <_>
          <internalNodes>
            0 -1 87 2.0189357921481133e-02</internalNodes>
          <leafValues>
            -1.5619871020317078e-01 9.9982358515262604e-02</leafValues></_>
        <_>
          <internalNodes>
            0 -1 40 1.1409031227231026e-02</internalNodes>
          <leafValues>
            -5.4785108566284180e-01 2.6472942903637886e-02</leafValues></_>
        <_>
          <internalNodes>
            0 -1 55 4.9102157354354858e-03</internalNodes>
          <leafValues>
            2.4941635131835938e-01 -6.7137919366359711e-02</leafValues></_>
        <_>
          <internalNodes>
            0 -1 59 3.7144094705581665e-02</internalNodes>
          <leafValues>
            7.0035696029663086e-02 -2.7506813406944275e-01</leafValues></_>
        <_>
          <internalNodes>
            0 -1 2 3.9043609052896500e-02</internalNodes>
          <leafValues>
            5.3556527942419052e-02 -2.6692155003547668e-01</leafValues></_>
        <_>
          <internalNodes>
            0 -1 62 3.0146338976919651e-03</internalNodes>
          <leafValues>
            -4.4586521387100220e-01 3.3686313778162003e-02</leafValues></_>
        <_>
          <internalNodes>
            0 -1 71 1.8689829856157303e-02</internalNodes>
          <leafValues>
            9.2781171202659607e-02 -1.6623394191265106e-01</leafValues></_>
        <_>
          <internalNodes>
            0 -1 35 3.5265393555164337e-02</internalNodes>
          <leafValues>
            -6.7318983376026154e-02 2.4832482635974884e-01</leafValues></_>
        <_>
          <internalNodes>
            0 -1 53 2.2373342886567116e-02</internalNodes>
          <leafValues>
            1.6873872280120850e-01 -1.4478597044944763e-01</leafValues></_>
        <_>
          <internalNodes>
            0 -1 125 7.7949278056621552e-03</internalNodes>
          <leafValues>
            -5.6437921524047852e-01 2.6060713455080986e-02</leafValues></_>
        <_>
          <internalNodes>
            0 -1 42 3.6899402737617493e-02</internalNodes>
          <leafValues>
            -7.1387998759746552e-02 2.3964335024356842e-01</leafValues></_>
        <_>
          <internalNodes>
            0 -1 21 1.8040632829070091e-02</internalNodes>
          <leafValues>
            -2.5073137879371643e-01 7.5632788240909576e-02</leafValues></_>
        <_>
          <internalNodes>
            0 -1 44 2.7401018887758255e-02</internalNodes>
          <leafValues>
            -1.2292411923408508e-01 1.3248625397682190e-01</leafValues></_>
        <_>
          <internalNodes>
            0 -1 29 5.6818060576915741e-02</internalNodes>
          <leafValues>
            -4.6826671808958054e-02 3.3557841181755066e-01</leafValues></_>
        <_>
          <internalNodes>
            0 -1 130 3.4742761403322220e-02</internalNodes>
          <leafValues>
            -1.8130005896091461e-01 9.7424171864986420e-02</leafValues></_>
        <_>
          <internalNodes>
            0 -1 33 5.0879798829555511e-02</internalNodes>
          <leafValues>
            -3.2936587929725647e-02 4.4083386659622192e-01</leafValues></_>
        <_>
          <internalNodes>
            0 -1 118 1.9143223762512207e-02</internalNodes>
          <leafValues>
            -1.6789074242115021e-01 1.0227420926094055e-01</leafValues></_>
        <_>
          <internalNodes>
            0 -1 82 1.5981120988726616e-02</internalNodes>
          <leafValues>
            1.5378537774085999e-01 -1.0611634701490402e-01</leafValues></_>
        <_>
          <internalNodes>
            0 -1 69 2.4763219989836216e-03</internalNodes>
          <leafValues>
            2.9713281989097595e-01 -5.6333106011152267e-02</leafValues></_>
        <_>
          <internalNodes>
            0 -1 57 6.7075945436954498e-02</internalNodes>
          <leafValues>
            3.2345149666070938e-02 -5.0589579343795776e-01</leafValues></_>
        <_>
          <internalNodes>
            0 -1 55 2.3763887584209442e-02</internalNodes>
          <leafValues>
            6.9232448935508728e-02 -2.1698787808418274e-01</leafValues></_>
        <_>
          <internalNodes>
            0 -1 28 4.3431438505649567e-02</internalNodes>
          <leafValues>
            -6.7617855966091156e-02 2.6765316724777222e-01</leafValues></_>
        <_>
          <internalNodes>
            0 -1 39 6.6997399553656578e-03</internalNodes>
          <leafValues>
            -9.6481376886367798e-01 1.6970030963420868e-02</leafValues></_>
        <_>
          <internalNodes>
            0 -1 12 1.5112244524061680e-02</internalNodes>
          <leafValues>
            -3.2680964469909668e-01 3.7761647254228592e-02</leafValues></_>
        <_>
          <internalNodes>
            0 -1 56 3.0884036095812917e-04</internalNodes>
          <leafValues>
            8.4014827013015747e-01 -1.7984855920076370e-02</leafValues></_>
        <_>
          <internalNodes>
            0 -1 138 4.4635929167270660e-02</internalNodes>
          <leafValues>
            -6.4426533877849579e-02 2.0369671285152435e-01</leafValues></_>
        <_>
          <internalNodes>
            0 -1 143 2.8069090098142624e-02</internalNodes>
          <leafValues>
            -7.4378006160259247e-02 2.1489588916301727e-01</leafValues></_>
        <_>
          <internalNodes>
            0 -1 110 1.5111715532839298e-02</internalNodes>
          <leafValues>
            -2.8487122058868408e-01 4.7388311475515366e-02</leafValues></_>
        <_>
          <internalNodes>
            0 -1 102 7.2084710001945496e-02</internalNodes>
          <leafValues>
            3.4236531704664230e-02 -4.0624099969863892e-01</leafValues></_>
        <_>
          <internalNodes>
            0 -1 142 3.4842314198613167e-03</internalNodes>
          <leafValues>
            2.8288090229034424e-01 -5.5671427398920059e-02</leafValues></_>
        <_>
          <internalNodes>
            0 -1 81 2.2615712136030197e-02</internalNodes>
          <leafValues>
            9.2109926044940948e-02 -1.6900733113288879e-01</leafValues></_>
        <_>
          <internalNodes>
            0 -1 125 3.2436668872833252e-02</internalNodes>
          <leafValues>
            -8.7592765688896179e-02 1.7037034034729004e-01</leafValues></_>
        <_>
          <internalNodes>
            0 -1 138 3.8605902809649706e-03</internalNodes>
          <leafValues>
            -7.8442293405532837e-01 1.9477467983961105e-02</leafValues></_>
        <_>
          <internalNodes>
            0 -1 126 7.7109173871576786e-03</internalNodes>
          <leafValues>
            1.5939158201217651e-01 -9.1371476650238037e-02</leafValues></_>
        <_>
          <internalNodes>
            0 -1 90 3.5503283143043518e-02</internalNodes>
          <leafValues>
            -6.4127571880817413e-02 3.1301891803741455e-01</leafValues></_>
        <_>
          <internalNodes>
            0 -1 31 5.0425212830305099e-02</internalNodes>
          <leafValues>
            -9.7527340054512024e-02 1.4065594971179962e-01</leafValues></_>
        <_>
          <internalNodes>
            0 -1 136 2.7212996035814285e-02</internalNodes>
          <leafValues>
            -1.0027623921632767e-01 1.7151252925395966e-01</leafValues></_>
        <_>
          <internalNodes>
            0 -1 64 1.4598170295357704e-02</internalNodes>
          <leafValues>
            1.6076950728893280e-01 -9.9329940974712372e-02</leafValues></_>
        <_>
          <internalNodes>
            0 -1 40 8.3764106035232544e-02</internalNodes>
          <leafValues>
            3.7742443382740021e-02 -5.4820990562438965e-01</leafValues></_>
        <_>
          <internalNodes>
            0 -1 68 1.0277955792844296e-02</internalNodes>
          <leafValues>
            1.8241369724273682e-01 -8.4077201783657074e-02</leafValues></_>
        <_>
          <internalNodes>
            0 -1 23 2.0808555185794830e-02</internalNodes>
          <leafValues>
            -1.7559966444969177e-01 9.3827873468399048e-02</leafValues></_>
        <_>
          <internalNodes>
            0 -1 44 1.2164842337369919e-02</internalNodes>
          <leafValues>
            -3.3133226633071899e-01 4.6774532645940781e-02</leafValues></_></weakClassifiers></_>
    <!-- stage 9 -->
    <_>
      <maxWeakCount>100</maxWeakCount>
      <stageThreshold>-1.3287317752838135e+00</stageThreshold>
      <weakClassifiers>
        <_>
          <internalNodes>
            0 -1 69 5.2930405363440514e-03</internalNodes>
          <leafValues>
            4.1035857796669006e-01 -2.4169184267520905e-02</leafValues></_>
        <_>
          <internalNodes>
            0 -1 51 4.7153830528259277e-02</internalNodes>
          <leafValues>
            -8.0152995884418488e-02 4.1110765933990479e-01</leafValues></_>
        <_>
          <internalNodes>
            0 -1 66 3.3045321702957153e-02</internalNodes>
          <leafValues>
            -2.0942015945911407e-01 1.5137471258640289e-01</leafValues></_>
        <_>
          <internalNodes>
            0 -1 126 4.0786280296742916e-03</internalNodes>
          <leafValues>
            2.6792171597480774e-01 -1.1831840127706528e-01</leafValues></_>
        <_>
          <internalNodes>
            0 -1 37 2.4157209321856499e-02</internalNodes>
          <leafValues>
            -2.0476499199867249e-01 1.4585952460765839e-01</leafValues></_>
        <_>
          <internalNodes>
            0 -1 2 5.6704260408878326e-02</internalNodes>
          <leafValues>
            4.7060757875442505e-02 -6.9650453329086304e-01</leafValues></_>
        <_>
          <internalNodes>
            0 -1 75 2.7906971052289009e-02</internalNodes>
          <leafValues>
            -2.1158069372177124e-01 1.3972391188144684e-01</leafValues></_>
        <_>
          <internalNodes>
            0 -1 85 6.4186923205852509e-02</internalNodes>
          <leafValues>
            7.1473516523838043e-02 -5.1504987478256226e-01</leafValues></_>
        <_>
          <internalNodes>
            0 -1 31 5.5662229657173157e-02</internalNodes>
          <leafValues>
            -1.6202332079410553e-01 1.6441859304904938e-01</leafValues></_>
        <_>
          <internalNodes>
            0 -1 84 1.7011733725667000e-02</internalNodes>
          <leafValues>
            -2.4079747498035431e-01 1.0754371434450150e-01</leafValues></_>
        <_>
          <internalNodes>
            0 -1 125 1.8640294671058655e-02</internalNodes>
          <leafValues>
            -2.3136173188686371e-01 9.2781618237495422e-02</leafValues></_>
        <_>
          <internalNodes>
            0 -1 70 1.7462953925132751e-02</internalNodes>
          <leafValues>
            7.9057499766349792e-02 -2.6391801238059998e-01</leafValues></_>
        <_>
          <internalNodes>
            0 -1 60 1.1903071776032448e-02</internalNodes>
          <leafValues>
            -2.8180000185966492e-01 9.6960298717021942e-02</leafValues></_>
        <_>
          <internalNodes>
            0 -1 65 1.8819134682416916e-02</internalNodes>
          <leafValues>
            1.6703920066356659e-01 -1.6541066765785217e-01</leafValues></_>
        <_>
          <internalNodes>
            0 -1 57 5.4724561050534248e-03</internalNodes>
          <leafValues>
            -7.4624681472778320e-01 5.4799303412437439e-02</leafValues></_>
        <_>
          <internalNodes>
            0 -1 122 2.6761952787637711e-02</internalNodes>
          <leafValues>
            -1.5950883924961090e-01 1.2208892405033112e-01</leafValues></_>
        <_>
          <internalNodes>
            0 -1 119 3.7692241370677948e-02</internalNodes>
          <leafValues>
            -1.0106648504734039e-01 2.3417933285236359e-01</leafValues></_>
        <_>
          <internalNodes>
            0 -1 39 7.7561646699905396e-02</internalNodes>
          <leafValues>
            4.1582025587558746e-02 -5.7562470436096191e-01</leafValues></_>
        <_>
          <internalNodes>
            0 -1 56 1.2545697391033173e-02</internalNodes>
          <leafValues>
            1.5625919401645660e-01 -1.2532125413417816e-01</leafValues></_>
        <_>
          <internalNodes>
            0 -1 129 4.0931887924671173e-02</internalNodes>
          <leafValues>
            -1.2209939956665039e-01 1.6943928599357605e-01</leafValues></_>
        <_>
          <internalNodes>
            0 -1 118 4.9216896295547485e-02</internalNodes>
          <leafValues>
            -2.6554629206657410e-02 4.7963997721672058e-01</leafValues></_>
        <_>
          <internalNodes>
            0 -1 11 2.9378764331340790e-02</internalNodes>
          <leafValues>
            9.3262210488319397e-02 -2.1521364152431488e-01</leafValues></_>
        <_>
          <internalNodes>
            0 -1 62 4.5824408531188965e-02</internalNodes>
          <leafValues>
            -5.3431637585163116e-02 3.6200144886970520e-01</leafValues></_>
        <_>
          <internalNodes>
            0 -1 134 4.5541130006313324e-02</internalNodes>
          <leafValues>
            4.1294220834970474e-02 -6.4362740516662598e-01</leafValues></_>
        <_>
          <internalNodes>
            0 -1 123 3.3012509346008301e-02</internalNodes>
          <leafValues>
            -1.1491047590970993e-01 1.6427150368690491e-01</leafValues></_>
        <_>
          <internalNodes>
            0 -1 86 3.7915736436843872e-02</internalNodes>
          <leafValues>
            7.0609703660011292e-02 -2.9048663377761841e-01</leafValues></_>
        <_>
          <internalNodes>
            0 -1 54 2.0183410961180925e-03</internalNodes>
          <leafValues>
            3.5874792933464050e-01 -4.6716284006834030e-02</leafValues></_>
        <_>
          <internalNodes>
            0 -1 140 1.4044125564396381e-02</internalNodes>
          <leafValues>
            1.4447952806949615e-01 -1.3057775795459747e-01</leafValues></_>
        <_>
          <internalNodes>
            0 -1 93 1.2836346030235291e-01</internalNodes>
          <leafValues>
            2.3301063105463982e-02 -7.9454314708709717e-01</leafValues></_>
        <_>
          <internalNodes>
            0 -1 126 3.7886220961809158e-02</internalNodes>
          <leafValues>
            2.7004621922969818e-02 -5.9005719423294067e-01</leafValues></_>
        <_>
          <internalNodes>
            0 -1 17 4.7084510326385498e-02</internalNodes>
          <leafValues>
            2.9090400785207748e-02 -6.0076332092285156e-01</leafValues></_>
        <_>
          <internalNodes>
            0 -1 133 2.7517657727003098e-02</internalNodes>
          <leafValues>
            5.0933405756950378e-02 -3.7014675140380859e-01</leafValues></_>
        <_>
          <internalNodes>
            0 -1 106 1.6168016940355301e-02</internalNodes>
          <leafValues>
            -1.6734653711318970e-01 1.1515471339225769e-01</leafValues></_>
        <_>
          <internalNodes>
            0 -1 13 1.0042959451675415e-01</internalNodes>
          <leafValues>
            2.3525809869170189e-02 -9.3158447742462158e-01</leafValues></_>
        <_>
          <internalNodes>
            0 -1 70 1.4887773431837559e-03</internalNodes>
          <leafValues>
            3.7634360790252686e-01 -5.0476893782615662e-02</leafValues></_>
        <_>
          <internalNodes>
            0 -1 120 1.0122470557689667e-02</internalNodes>
          <leafValues>
            -6.3413077592849731e-01 2.8287455439567566e-02</leafValues></_>
        <_>
          <internalNodes>
            0 -1 88 1.4923334121704102e-02</internalNodes>
          <leafValues>
            -1.8444922566413879e-01 8.6450174450874329e-02</leafValues></_>
        <_>
          <internalNodes>
            0 -1 34 2.0593209192156792e-03</internalNodes>
          <leafValues>
            -5.4559779167175293e-01 2.4683477357029915e-02</leafValues></_>
        <_>
          <internalNodes>
            0 -1 42 3.2037653028964996e-02</internalNodes>
          <leafValues>
            -8.2734502851963043e-02 1.9438202679157257e-01</leafValues></_>
        <_>
          <internalNodes>
            0 -1 141 1.4948298223316669e-02</internalNodes>
          <leafValues>
            1.1903873085975647e-01 -1.6170024871826172e-01</leafValues></_>
        <_>
          <internalNodes>
            0 -1 39 1.1618070304393768e-02</internalNodes>
          <leafValues>
            -5.9081423282623291e-01 2.9226373881101608e-02</leafValues></_>
        <_>
          <internalNodes>
            0 -1 63 8.2507129991427064e-04</internalNodes>
          <leafValues>
            6.7812418937683105e-01 -2.7781389653682709e-02</leafValues></_>
        <_>
          <internalNodes>
            0 -1 36 1.6821008175611496e-02</internalNodes>
          <leafValues>
            -1.9100444018840790e-01 8.4779843688011169e-02</leafValues></_>
        <_>
          <internalNodes>
            0 -1 55 2.0255804993212223e-03</internalNodes>
          <leafValues>
            3.3925452828407288e-01 -5.1032770425081253e-02</leafValues></_>
        <_>
          <internalNodes>
            0 -1 78 1.8549121916294098e-02</internalNodes>
          <leafValues>
            1.2569989264011383e-01 -1.1959423124790192e-01</leafValues></_>
        <_>
          <internalNodes>
            0 -1 22 1.1876513063907623e-01</internalNodes>
          <leafValues>
            1.7083551734685898e-02 -8.8732200860977173e-01</leafValues></_>
        <_>
          <internalNodes>
            0 -1 82 3.7705250084400177e-02</internalNodes>
          <leafValues>
            3.4090053290128708e-02 -3.6025455594062805e-01</leafValues></_>
        <_>
          <internalNodes>
            0 -1 53 5.7524994015693665e-02</internalNodes>
          <leafValues>
            2.0258301869034767e-02 -6.4521038532257080e-01</leafValues></_>
        <_>
          <internalNodes>
            0 -1 57 6.1893999576568604e-02</internalNodes>
          <leafValues>
            3.4178234636783600e-02 -4.4698774814605713e-01</leafValues></_>
        <_>
          <internalNodes>
            0 -1 134 7.2865467518568039e-03</internalNodes>
          <leafValues>
            2.0582027733325958e-01 -7.3988005518913269e-02</leafValues></_>
        <_>
          <internalNodes>
            0 -1 98 1.4820725657045841e-02</internalNodes>
          <leafValues>
            -2.0767904818058014e-01 8.8413007557392120e-02</leafValues></_>
        <_>
          <internalNodes>
            0 -1 7 1.3411305844783783e-02</internalNodes>
          <leafValues>
            1.7126005887985229e-01 -8.2085557281970978e-02</leafValues></_>
        <_>
          <internalNodes>
            0 -1 8 2.7791913598775864e-02</internalNodes>
          <leafValues>
            -9.5746040344238281e-02 1.6086885333061218e-01</leafValues></_>
        <_>
          <internalNodes>
            0 -1 33 5.6269358843564987e-02</internalNodes>
          <leafValues>
            -3.1500007957220078e-02 4.3226879835128784e-01</leafValues></_>
        <_>
          <internalNodes>
            0 -1 68 3.8541194517165422e-03</internalNodes>
          <leafValues>
            3.3698439598083496e-01 -4.0898054838180542e-02</leafValues></_>
        <_>
          <internalNodes>
            0 -1 102 9.1263025999069214e-02</internalNodes>
          <leafValues>
            2.6343550533056259e-02 -6.0556632280349731e-01</leafValues></_>
        <_>
          <internalNodes>
            0 -1 138 3.5066012293100357e-02</internalNodes>
          <leafValues>
            -1.1268006265163422e-01 1.6519458591938019e-01</leafValues></_>
        <_>
          <internalNodes>
            0 -1 130 5.6723155081272125e-02</internalNodes>
          <leafValues>
            -7.6872669160366058e-02 1.7636628448963165e-01</leafValues></_>
        <_>
          <internalNodes>
            0 -1 118 3.2210454344749451e-02</internalNodes>
          <leafValues>
            -7.7620871365070343e-02 2.1457307040691376e-01</leafValues></_>
        <_>
          <internalNodes>
            0 -1 42 7.6655941084027290e-03</internalNodes>
          <leafValues>
            -3.5103675723075867e-01 4.2147930711507797e-02</leafValues></_>
        <_>
          <internalNodes>
            0 -1 139 7.6773740351200104e-02</internalNodes>
          <leafValues>
            2.8446802869439125e-02 -4.8215872049331665e-01</leafValues></_>
        <_>
          <internalNodes>
            0 -1 117 5.7832203805446625e-02</internalNodes>
          <leafValues>
            1.3258374296128750e-02 -8.5263931751251221e-01</leafValues></_>
        <_>
          <internalNodes>
            0 -1 9 5.9141376987099648e-03</internalNodes>
          <leafValues>
            3.2983055710792542e-01 -4.1988100856542587e-02</leafValues></_>
        <_>
          <internalNodes>
            0 -1 17 4.2376797646284103e-03</internalNodes>
          <leafValues>
            -5.5630844831466675e-01 2.7511002495884895e-02</leafValues></_>
        <_>
          <internalNodes>
            0 -1 27 2.4530526250600815e-02</internalNodes>
          <leafValues>
            -8.8119260966777802e-02 1.6355732083320618e-01</leafValues></_>
        <_>
          <internalNodes>
            0 -1 49 4.4834844768047333e-02</internalNodes>
          <leafValues>
            -1.2288814038038254e-01 1.2903611361980438e-01</leafValues></_>
        <_>
          <internalNodes>
            0 -1 49 1.1838641762733459e-01</internalNodes>
          <leafValues>
            1.7420411109924316e-02 -7.8813022375106812e-01</leafValues></_>
        <_>
          <internalNodes>
            0 -1 141 3.6876313388347626e-03</internalNodes>
          <leafValues>
            2.7216154336929321e-01 -6.0301721096038818e-02</leafValues></_>
        <_>
          <internalNodes>
            0 -1 95 5.4077565670013428e-02</internalNodes>
          <leafValues>
            -5.4713826626539230e-02 2.8449308872222900e-01</leafValues></_>
        <_>
          <internalNodes>
            0 -1 21 2.8227469883859158e-03</internalNodes>
          <leafValues>
            -9.2397475242614746e-01 2.1709529682993889e-02</leafValues></_>
        <_>
          <internalNodes>
            0 -1 91 4.7808788716793060e-02</internalNodes>
          <leafValues>
            -5.9160254895687103e-02 2.6585364341735840e-01</leafValues></_>
        <_>
          <internalNodes>
            0 -1 20 4.3984942138195038e-02</internalNodes>
          <leafValues>
            6.0839593410491943e-02 -2.9548355937004089e-01</leafValues></_>
        <_>
          <internalNodes>
            0 -1 134 1.6131371259689331e-02</internalNodes>
          <leafValues>
            1.0768146812915802e-01 -1.3404238224029541e-01</leafValues></_>
        <_>
          <internalNodes>
            0 -1 98 3.3674001693725586e-02</internalNodes>
          <leafValues>
            -6.9179281592369080e-02 2.5150850415229797e-01</leafValues></_>
        <_>
          <internalNodes>
            0 -1 138 1.0286023840308189e-02</internalNodes>
          <leafValues>
            -4.2131927609443665e-01 3.5716570913791656e-02</leafValues></_>
        <_>
          <internalNodes>
            0 -1 59 4.8944812268018723e-02</internalNodes>
          <leafValues>
            3.3224746584892273e-02 -4.1689562797546387e-01</leafValues></_>
        <_>
          <internalNodes>
            0 -1 127 4.9574254080653191e-03</internalNodes>
          <leafValues>
            2.2227849066257477e-01 -6.1297938227653503e-02</leafValues></_>
        <_>
          <internalNodes>
            0 -1 48 1.1357582360506058e-01</internalNodes>
          <leafValues>
            1.3579602353274822e-02 -9.1802799701690674e-01</leafValues></_>
        <_>
          <internalNodes>
            0 -1 75 1.5698801726102829e-02</internalNodes>
          <leafValues>
            -2.9067397117614746e-01 4.6284876763820648e-02</leafValues></_>
        <_>
          <internalNodes>
            0 -1 120 3.7438184022903442e-02</internalNodes>
          <leafValues>
            -1.0424234718084335e-01 1.4060157537460327e-01</leafValues></_>
        <_>
          <internalNodes>
            0 -1 143 5.7237991131842136e-03</internalNodes>
          <leafValues>
            -2.8875243663787842e-01 5.6589402258396149e-02</leafValues></_>
        <_>
          <internalNodes>
            0 -1 46 3.9551693946123123e-02</internalNodes>
          <leafValues>
            -6.5303996205329895e-02 2.3084613680839539e-01</leafValues></_>
        <_>
          <internalNodes>
            0 -1 10 1.3259309343993664e-02</internalNodes>
          <leafValues>
            1.7745758593082428e-01 -8.9300625026226044e-02</leafValues></_>
        <_>
          <internalNodes>
            0 -1 69 1.0713608935475349e-03</internalNodes>
          <leafValues>
            4.9079310894012451e-01 -2.7268497273325920e-02</leafValues></_>
        <_>
          <internalNodes>
            0 -1 43 5.4443746805191040e-02</internalNodes>
          <leafValues>
            2.0935932174324989e-02 -6.4195686578750610e-01</leafValues></_>
        <_>
          <internalNodes>
            0 -1 121 9.4426751136779785e-02</internalNodes>
          <leafValues>
            1.6275782138109207e-02 -7.3988211154937744e-01</leafValues></_>
        <_>
          <internalNodes>
            0 -1 65 5.8900089934468269e-03</internalNodes>
          <leafValues>
            3.5520687699317932e-01 -4.2782194912433624e-02</leafValues></_>
        <_>
          <internalNodes>
            0 -1 99 5.3320948034524918e-02</internalNodes>
          <leafValues>
            1.7563475295901299e-02 -8.5872822999954224e-01</leafValues></_>
        <_>
          <internalNodes>
            0 -1 62 3.5217269323766232e-03</internalNodes>
          <leafValues>
            -4.0926975011825562e-01 3.0427103862166405e-02</leafValues></_>
        <_>
          <internalNodes>
            0 -1 64 5.7355157332494855e-04</internalNodes>
          <leafValues>
            7.4589431285858154e-01 -2.1851588040590286e-02</leafValues></_>
        <_>
          <internalNodes>
            0 -1 71 1.5495961531996727e-02</internalNodes>
          <leafValues>
            1.1420229077339172e-01 -1.2142908573150635e-01</leafValues></_>
        <_>
          <internalNodes>
            0 -1 60 3.0040372163057327e-02</internalNodes>
          <leafValues>
            -8.6782865226268768e-02 1.7401407659053802e-01</leafValues></_>
        <_>
          <internalNodes>
            0 -1 89 3.2854095101356506e-02</internalNodes>
          <leafValues>
            -6.3747830688953400e-02 2.1525420248508453e-01</leafValues></_>
        <_>
          <internalNodes>
            0 -1 137 8.7376415729522705e-02</internalNodes>
          <leafValues>
            1.7484111711382866e-02 -8.2993495464324951e-01</leafValues></_>
        <_>
          <internalNodes>
            0 -1 89 8.8164716958999634e-02</internalNodes>
          <leafValues>
            8.1809703260660172e-03 -9.5560592412948608e-01</leafValues></_>
        <_>
          <internalNodes>
            0 -1 74 7.4293389916419983e-02</internalNodes>
          <leafValues>
            1.0121106170117855e-02 -9.5345324277877808e-01</leafValues></_>
        <_>
          <internalNodes>
            0 -1 104 1.3287367764860392e-03</internalNodes>
          <leafValues>
            6.7692655324935913e-01 -2.2847741842269897e-02</leafValues></_>
        <_>
          <internalNodes>
            0 -1 54 4.5976504683494568e-02</internalNodes>
          <leafValues>
            2.2304166108369827e-02 -7.5701868534088135e-01</leafValues></_>
        <_>
          <internalNodes>
            0 -1 131 2.3345846682786942e-02</internalNodes>
          <leafValues>
            1.1333823949098587e-01 -1.1296733468770981e-01</leafValues></_>
        <_>
          <internalNodes>
            0 -1 105 1.8343711271882057e-02</internalNodes>
          <leafValues>
            -1.3930794596672058e-01 9.6869572997093201e-02</leafValues></_></weakClassifiers></_>
    <!-- stage 10 -->
    <_>
      <maxWeakCount>100</maxWeakCount>
      <stageThreshold>-1.4319062232971191e+00</stageThreshold>
      <weakClassifiers>
        <_>
          <internalNodes>
            0 -1 70 6.4799766987562180e-03</internalNodes>
          <leafValues>
            3.5407406091690063e-01 -5.6472633033990860e-02</leafValues></_>
        <_>
          <internalNodes>
            0 -1 127 1.9920067861676216e-03</internalNodes>
          <leafValues>
            4.4622528553009033e-01 -5.8892473578453064e-02</leafValues></_>
        <_>
          <internalNodes>
            0 -1 37 2.7060180902481079e-02</internalNodes>
          <leafValues>
            -1.8249079585075378e-01 1.6003829240798950e-01</leafValues></_>
        <_>
          <internalNodes>
            0 -1 141 1.8618658650666475e-03</internalNodes>
          <leafValues>
            3.6796203255653381e-01 -7.8289039433002472e-02</leafValues></_>
        <_>
          <internalNodes>
            0 -1 34 9.5258541405200958e-03</internalNodes>
          <leafValues>
