<?xml version="1.0"?>
<opencv_storage>
<cascade>
  <stageType>BOOST</stageType>
  <featureType>LBP</featureType>
  <height>24</height>
  <width>24</width>
  <stageParams>
    <boostType>GAB</boostType>
    <minHitRate>9.9900001287460327e-01</minHitRate>
    <maxFalseAlarm>5.0000000000000000e-01</maxFalseAlarm>
    <weightTrimRate>9.4999999999999996e-01</weightTrimRate>
    <maxDepth>1</maxDepth>
    <maxWeakCount>100</maxWeakCount></stageParams>
  <featureParams>
    <maxCatCount>256</maxCatCount>
    <featSize>1</featSize></featureParams>
  <stageNum>15</stageNum>
  <stages>
    <!-- stage 0 -->
    <_>
      <maxWeakCount>5</maxWeakCount>
      <stageThreshold>-1.6131778955459595e+00</stageThreshold>
      <weakClassifiers>
        <_>
          <internalNodes>
            0 -1 55 -784270852 -8562275 889281021 -15077411 -70386689
            -4675077 -376455685 -4202501</internalNodes>
          <leafValues>
            -8.7559807300567627e-01 4.6355685591697693e-01</leafValues></_>
        <_>
          <internalNodes>
            0 -1 46 -2228225 -853577 -1785212417 1608455199 -593761281
            -73421144 998882303 1059005098</internalNodes>
          <leafValues>
            -8.3818131685256958e-01 5.4433447122573853e-01</leafValues></_>
        <_>
          <internalNodes>
            0 -1 9 -50528257 -67907235 -977215489 924075807 -842237697
            -148936398 -923768001 2063628055</internalNodes>
          <leafValues>
            -8.7683892250061035e-01 4.4574123620986938e-01</leafValues></_>
        <_>
          <internalNodes>
            0 -1 64 -167904771 -786574891 -1072377379 -48375969
            -1601647619 -1095008098 144305117 218094303</internalNodes>
          <leafValues>
            -7.6684391498565674e-01 4.7552207112312317e-01</leafValues></_>
        <_>
          <internalNodes>
            0 -1 40 -52978221 -9088675 294510030 -1109946152 -318112005
            1966448779 1890312190 1462717371</internalNodes>
          <leafValues>
            -7.7261137962341309e-01 5.0191831588745117e-01</leafValues></_></weakClassifiers></_>
    <!-- stage 1 -->
    <_>
      <maxWeakCount>5</maxWeakCount>
      <stageThreshold>-2.5189361572265625e+00</stageThreshold>
      <weakClassifiers>
        <_>
          <internalNodes>
            0 -1 32 -722435 -539019811 2010240511 -10505891 -1142359045
            -6508358 -103968769 -1537</internalNodes>
          <leafValues>
            -8.2560652494430542e-01 5.2210277318954468e-01</leafValues></_>
        <_>
          <internalNodes>
            0 -1 37 1439488989 -77851756 -720833059 -8522759 -568795204
            -8351664 -67502081 -78840892</internalNodes>
          <leafValues>
            -7.4308913946151733e-01 4.8144203424453735e-01</leafValues></_>
        <_>
          <internalNodes>
            0 -1 60 428457209 496743701 -1748158977 1040129535
            -1416631297 -1078228567 -68576263 1006538461</internalNodes>
          <leafValues>
            -8.1351500749588013e-01 4.4964310526847839e-01</leafValues></_>
        <_>
          <internalNodes>
            0 -1 77 -1023417682 -86597083 1502606095 -545336481
            1087238119 -526678385 -2136802887 1430241455</internalNodes>
          <leafValues>
            -7.6982820034027100e-01 4.6202325820922852e-01</leafValues></_>
        <_>
          <internalNodes>
            0 -1 14 -2301955 -1613737611 -384091275 -648736300
            1095255448 2052592297 -24049255 -1048897</internalNodes>
          <leafValues>
            -6.3005542755126953e-01 6.1617875099182129e-01</leafValues></_></weakClassifiers></_>
    <!-- stage 2 -->
    <_>
      <maxWeakCount>6</maxWeakCount>
      <stageThreshold>-2.1609199047088623e+00</stageThreshold>
      <weakClassifiers>
        <_>
          <internalNodes>
            0 -1 41 -537332228 -700931 -79964673 -173603 -6358017
            -1343045 -71778305 -136193</internalNodes>
          <leafValues>
            -8.7472647428512573e-01 1.4732143282890320e-01</leafValues></_>
        <_>
          <internalNodes>
            0 -1 4 -69929992 -170535595 -796905259 1467470815 1905130473
            -8130920 1934622703 1941960191</internalNodes>
          <leafValues>
            -8.0836474895477295e-01 3.0056339502334595e-01</leafValues></_>
        <_>
          <internalNodes>
            0 -1 57 -687548423 -573244452 -114256385 -132099 -638779394
            -561464258 -71767041 -1083393592</internalNodes>
          <leafValues>
            -6.5130919218063354e-01 4.9474242329597473e-01</leafValues></_>
        <_>
          <internalNodes>
            0 -1 25 -134226467 -375686288 8409177 693964808 1798662549
            -1203691472 294601212 -43651</internalNodes>
          <leafValues>
            -6.4823734760284424e-01 5.2039647102355957e-01</leafValues></_>
        <_>
          <internalNodes>
            0 -1 74 -85007618 -587804584 671226602 1073717087
            -1333485376 -568209336 165297087 -1881146889</internalNodes>
          <leafValues>
            -6.1844742298126221e-01 5.8792889118194580e-01</leafValues></_>
        <_>
          <internalNodes>
            0 -1 83 -2097156 2005620667 1124235419 1801311183
            -1547443478 -1384144229 5171874 543161971</internalNodes>
          <leafValues>
            -7.9443830251693726e-01 4.1811728477478027e-01</leafValues></_></weakClassifiers></_>
    <!-- stage 3 -->
    <_>
      <maxWeakCount>5</maxWeakCount>
      <stageThreshold>-1.5224653482437134e+00</stageThreshold>
      <weakClassifiers>
        <_>
          <internalNodes>
            0 -1 27 -13042180 -8792579 -1081475617 -2105443 -19070977
            -4617841 -71712769 -1025</internalNodes>
          <leafValues>
            -8.5929918289184570e-01 1.4573644101619720e-01</leafValues></_>
        <_>
          <internalNodes>
            0 -1 86 -135728129 958428108 -485173313 -1081286177
            -1144418817 859318510 -1143226689 -67109953</internalNodes>
          <leafValues>
            -6.5347349643707275e-01 4.6995300054550171e-01</leafValues></_>
        <_>
          <internalNodes>
            0 -1 3 -582968428 -208287297 -552548355 -136971443 -36841489
            -71316581 -485691909 -34085909</internalNodes>
          <leafValues>
            -6.6904401779174805e-01 4.7045311331748962e-01</leafValues></_>
        <_>
          <internalNodes>
            0 -1 8 -1034 -231648 -804005388 2136683616 1330375871
            -636495817 2055959487 2002220915</internalNodes>
          <leafValues>
            -7.4072498083114624e-01 4.3106660246849060e-01</leafValues></_>
        <_>
          <internalNodes>
            0 -1 18 2135973115 -7089185 352395454 1942434974 531773947
            -544044911 2114010111 2134782774</internalNodes>
          <leafValues>
            -7.4445641040802002e-01 4.4165760278701782e-01</leafValues></_></weakClassifiers></_>
    <!-- stage 4 -->
    <_>
      <maxWeakCount>6</maxWeakCount>
      <stageThreshold>-1.9744640588760376e+00</stageThreshold>
      <weakClassifiers>
        <_>
          <internalNodes>
            0 -1 68 -2293761 -6490113 2079453663 -2633 -7606785
            -1126373234 -40911873 -1048577</internalNodes>
          <leafValues>
            -7.6776021718978882e-01 3.3158585429191589e-01</leafValues></_>
        <_>
          <internalNodes>
            0 -1 6 -204407809 2135151475 83920247 1998607743 -1047138820
            -14063467 -745145409 2005368703</internalNodes>
          <leafValues>
            -7.3102873563766479e-01 3.0884757637977600e-01</leafValues></_>
        <_>
          <internalNodes>
            0 -1 47 -1033900278 863232544 -1781283483 -9178081 593743782
            1086824839 5630461 1429718510</internalNodes>
          <leafValues>
            -7.7357012033462524e-01 3.4368571639060974e-01</leafValues></_>
        <_>
          <internalNodes>
            0 -1 70 1359281404 -664708 822989055 903699837 -1141122051
            -625827681 -138548241 -1145267972</internalNodes>
          <leafValues>
            -6.6392111778259277e-01 4.2295795679092407e-01</leafValues></_>
        <_>
          <internalNodes>
            0 -1 5 -115178798 -1679126029 -1072047020 -2506286
            -1163872346 -364145494 -1045185537 -526369</internalNodes>
          <leafValues>
            -5.6690984964370728e-01 5.4085546731948853e-01</leafValues></_>
        <_>
          <internalNodes>
            0 -1 26 -251661392 -218985870 2073638450 450504590 -61869519
            -232783840 -87479366 -68847933</internalNodes>
          <leafValues>
            -6.6591840982437134e-01 4.9304229021072388e-01</leafValues></_></weakClassifiers></_>
    <!-- stage 5 -->
    <_>
      <maxWeakCount>6</maxWeakCount>
      <stageThreshold>-2.1711168289184570e+00</stageThreshold>
      <weakClassifiers>
        <_>
          <internalNodes>
            0 -1 84 -18874369 -1143491233 1201041663 865860439 -20185122
            -1162106709 -389485874 -1694760961</internalNodes>
          <leafValues>
            -8.1202811002731323e-01 1.0267472267150879e-01</leafValues></_>
        <_>
          <internalNodes>
            0 -1 19 -581116716 2075927487 -1290249217 -139542071
            -7542275 -6340359 1603070975 -180225</internalNodes>
          <leafValues>
            -7.5928986072540283e-01 2.9396146535873413e-01</leafValues></_>
        <_>
          <internalNodes>
            0 -1 6 -204407873 1472270965 117495061 1998603615 -742340130
            -3323765 -1203634193 2139586359</internalNodes>
          <leafValues>
            -7.1295738220214844e-01 3.7572184205055237e-01</leafValues></_>
        <_>
          <internalNodes>
            0 -1 51 -807473376 -2130398 -246423158 1718667131
            -2134725904 -235453177 -840963585 1379131787</internalNodes>
          <leafValues>
            -7.6157724857330322e-01 3.4013018012046814e-01</leafValues></_>
        <_>
          <internalNodes>
            0 -1 76 488502233 303722968 9441302 1037827014 -1174410757
            989580235 -17831811 989854719</internalNodes>
          <leafValues>
            -7.2823399305343628e-01 3.8851234316825867e-01</leafValues></_>
        <_>
          <internalNodes>
            0 -1 28 -1189505357 1065354129 1367872953 -1090379848
            -1710548739 -1182787432 634585560 530386335</internalNodes>
          <leafValues>
            -5.8288592100143433e-01 5.1429069042205811e-01</leafValues></_></weakClassifiers></_>
    <!-- stage 6 -->
    <_>
      <maxWeakCount>6</maxWeakCount>
      <stageThreshold>-1.9718326330184937e+00</stageThreshold>
      <weakClassifiers>
        <_>
          <internalNodes>
            0 -1 69 -196611 -547389954 1548732565 -4353955 -340935734
            -72372036 -554980465 -4195845</internalNodes>
          <leafValues>
            -8.0465853214263916e-01 3.2733224332332611e-02</leafValues></_>
        <_>
          <internalNodes>
            0 -1 59 -79167497 -1090006137 1427234141 -305792171 -7602241
            -271593255 628226941 -1930043939</internalNodes>
          <leafValues>
            -6.7172878980636597e-01 3.4255090355873108e-01</leafValues></_>
        <_>
          <internalNodes>
            0 -1 10 -562036749 -105979150 -648883403 -4099454 2079322615
            -280853004 1922036131 -680004750</internalNodes>
          <leafValues>
            -5.6668108701705933e-01 4.8658213019371033e-01</leafValues></_>
        <_>
          <internalNodes>
            0 -1 33 -58927664 -140575269 -1741106211 -678421516
            -1162282049 -69307476 -1433875461 -1074247172</internalNodes>
          <leafValues>
            -6.9477367401123047e-01 4.0315687656402588e-01</leafValues></_>
        <_>
          <internalNodes>
            0 -1 66 -547644408 -1184919420 -557147927 -1122608691
            -1571941701 -1701673843 1019988027 -51826505</internalNodes>
          <leafValues>
            -5.9795957803726196e-01 4.6587502956390381e-01</leafValues></_>
        <_>
          <internalNodes>
            0 -1 53 -797576458 -790707717 1912719310 -241462798
            -506756420 -176060273 1422113486 1912464044</internalNodes>
          <leafValues>
            -7.8722470998764038e-01 3.5023012757301331e-01</leafValues></_></weakClassifiers></_>
    <!-- stage 7 -->
    <_>
      <maxWeakCount>7</maxWeakCount>
      <stageThreshold>-1.5494172573089600e+00</stageThreshold>
      <weakClassifiers>
        <_>
          <internalNodes>
            0 -1 15 -33685507 -642264831 -763246441 -4206265 -36347651
            -70413656 -91259905 -1793</internalNodes>
          <leafValues>
            -7.9349219799041748e-01 8.8422968983650208e-02</leafValues></_>
        <_>
          <internalNodes>
            0 -1 45 -235195393 -146818817 1565577727 -145002006
            -1549813057 -74540998 -1620317442 -68517240</internalNodes>
          <leafValues>
            -6.0390323400497437e-01 3.9009791612625122e-01</leafValues></_>
        <_>
          <internalNodes>
            0 -1 29 101624968 -136348853 424915831 1594869535
            -1412445701 -272432133 170563806 -1892742650</internalNodes>
          <leafValues>
            -6.0886090993881226e-01 4.1569182276725769e-01</leafValues></_>
        <_>
          <internalNodes>
            0 -1 21 -1275378409 1823152195 408109243 -1082424801
            591243519 -1080406735 -1353904197 5440003</internalNodes>
          <leafValues>
            -6.9992440938949585e-01 3.7243342399597168e-01</leafValues></_>
        <_>
          <internalNodes>
            0 -1 48 -225531934 1577226355 1275147408 -1174138358
            -225725530 546863809 65606332 -590348385</internalNodes>
          <leafValues>
            -5.7742142677307129e-01 5.0433540344238281e-01</leafValues></_>
        <_>
          <internalNodes>
            0 -1 79 -516168186 -1053679594 1108623402 1936831769
            -1610316894 -129300319 -712769809 1899997611</internalNodes>
          <leafValues>
            -6.5881288051605225e-01 4.2529991269111633e-01</leafValues></_>
        <_>
          <internalNodes>
            0 -1 24 -258825816 -1080946592 -745782951 -671624959
            -1190458898 -601215864 -342488837 -538445101</internalNodes>
          <leafValues>
            -5.6467545032501221e-01 4.9246835708618164e-01</leafValues></_></weakClassifiers></_>
    <!-- stage 8 -->
    <_>
      <maxWeakCount>6</maxWeakCount>
      <stageThreshold>-1.5278885364532471e+00</stageThreshold>
      <weakClassifiers>
        <_>
          <internalNodes>
            0 -1 85 -134217737 -1162306950 -166267429 -1613432481
            -718351361 -97983605 -213779553 -67112017</internalNodes>
          <leafValues>
            -7.6388555765151978e-01 2.1046373248100281e-01</leafValues></_>
        <_>
          <internalNodes>
            0 -1 17 -555787811 -19260337 -1794286242 -81308177
            -909173835 -109434609 -1424355361 -299025</internalNodes>
          <leafValues>
            -6.0762083530426025e-01 4.0538582205772400e-01</leafValues></_>
        <_>
          <internalNodes>
            0 -1 80 -2750 -25166617 -542200912 1069202427 1960134133
            -1510516809 1610594303 -83886609</internalNodes>
          <leafValues>
            -4.8136919736862183e-01 5.5369520187377930e-01</leafValues></_>
        <_>
          <internalNodes>
            0 -1 78 -659770664 -355687 172052989 -68127861 958444541
            -1098022231 -606660386 -1073955088</internalNodes>
          <leafValues>
            -6.4413887262344360e-01 4.1643834114074707e-01</leafValues></_>
        <_>
          <internalNodes>
            0 -1 63 1944038142 -1248811979 36951 1032618931 -1475860262
            993040536 105019807 -1346011697</internalNodes>
          <leafValues>
            -5.3102970123291016e-01 5.3088462352752686e-01</leafValues></_>
        <_>
          <internalNodes>
            0 -1 56 -581252992 1499019777 1360265755 1304660099
            -1769981961 1099747887 -8169334 -884999961</internalNodes>
          <leafValues>
            -5.0925803184509277e-01 5.4426962137222290e-01</leafValues></_></weakClassifiers></_>
    <!-- stage 9 -->
    <_>
      <maxWeakCount>7</maxWeakCount>
      <stageThreshold>-1.8973944187164307e+00</stageThreshold>
      <weakClassifiers>
        <_>
          <internalNodes>
            0 -1 84 -2886657 -76060525 -633136659 863721183 -592192514
            -1173395301 -368379220 -83886081</internalNodes>
          <leafValues>
            -7.7303922176361084e-01 1.6739130020141602e-01</leafValues></_>
        <_>
          <internalNodes>
            0 -1 75 -118035721 182353991 -1742491305 342223901
            -621546253 -2138511126 -41878797 -1933582177</internalNodes>
          <leafValues>
            -6.4014101028442383e-01 3.2571625709533691e-01</leafValues></_>
        <_>
          <internalNodes>
            0 -1 34 -1487432873 -738488277 -1861160449 -338194025
            -1593054737 -1155049269 -82059537 183443970</internalNodes>
          <leafValues>
            -6.2164491415023804e-01 4.1491934657096863e-01</leafValues></_>
        <_>
          <internalNodes>
            0 -1 81 -656147364 -146611309 -1744338853 -37423742
            -1998601512 -108326246 -1730680594 821296807</internalNodes>
          <leafValues>
            -6.5940874814987183e-01 3.6897790431976318e-01</leafValues></_>
        <_>
          <internalNodes>
            0 -1 2 -1061121072 -1211561904 -1841102507 -820410140
            1757135753 -142245846 -920194886 -435029689</internalNodes>
          <leafValues>
            -7.6222282648086548e-01 3.6102896928787231e-01</leafValues></_>
        <_>
          <internalNodes>
            0 -1 7 -799418960 -602401726 -1056358309 1361252494
            -329273161 -762787818 1134494602 1945825496</internalNodes>
          <leafValues>
            -8.0599868297576904e-01 3.0714350938796997e-01</leafValues></_>
        <_>
          <internalNodes>
            0 -1 20 -1156567688 -13627223 -2130177831 932806681
            -1433914664 -71759445 -1962300757 1831725227</internalNodes>
          <leafValues>
            -7.5050270557403564e-01 3.3354651927947998e-01</leafValues></_></weakClassifiers></_>
    <!-- stage 10 -->
    <_>
      <maxWeakCount>6</maxWeakCount>
      <stageThreshold>-1.4835273027420044e+00</stageThreshold>
      <weakClassifiers>
        <_>
          <internalNodes>
            0 -1 52 -711734785 335762487 -1608941549 310410241
            -1605808053 -1736343487 109683080 -560737477</internalNodes>
          <leafValues>
            -7.7686136960983276e-01 6.1574804782867432e-01</leafValues></_>
        <_>
          <internalNodes>
            0 -1 39 -977006699 -149562275 -134333445 -1074176001
            -1623793665 2145386492 -1073741825 -16794789</internalNodes>
          <leafValues>
            -5.8517253398895264e-01 6.8893587589263916e-01</leafValues></_>
        <_>
          <internalNodes>
            0 -1 43 1631780915 -428012549 2113904567 2012155530
            -239652254 -235816961 2112314567 -54202388</internalNodes>
          <leafValues>
            -5.5389529466629028e-01 6.4352917671203613e-01</leafValues></_>
        <_>
          <internalNodes>
            0 -1 12 -1717843315 -616153086 1081604 -863417337 201884565
            50888705 -1475843941 1169656335</internalNodes>
          <leafValues>
            -6.2930035591125488e-01 5.9379166364669800e-01</leafValues></_>
        <_>
          <internalNodes>
            0 -1 58 -670513004 -385679286 33685652 1174470658
            -2138958820 -2046820317 1122556043 446415443</internalNodes>
          <leafValues>
            -7.3747062683105469e-01 5.4632824659347534e-01</leafValues></_>
        <_>
          <internalNodes>
            0 -1 62 -803745651 -771751936 34160902 1922105475
            -2139092986 -1734328320 4401402 1779392536</internalNodes>
          <leafValues>
            -6.2134367227554321e-01 6.4679539203643799e-01</leafValues></_></weakClassifiers></_>
    <!-- stage 11 -->
    <_>
      <maxWeakCount>7</maxWeakCount>
      <stageThreshold>-1.5782945156097412e+00</stageThreshold>
      <weakClassifiers>
        <_>
          <internalNodes>
            0 -1 54 -677381121 -250371825 1363681306 1909818783
            -1458849092 -612126719 2140094175 -1025</internalNodes>
          <leafValues>
            -7.3271888494491577e-01 2.7272728085517883e-01</leafValues></_>
        <_>
          <internalNodes>
            0 -1 67 -210109505 1877147718 1461004107 1302312075
            -1600156673 -1430546304 -965093711 1078450943</internalNodes>
          <leafValues>
            -6.9995409250259399e-01 2.6447793841362000e-01</leafValues></_>
        <_>
          <internalNodes>
            0 -1 13 -33560844 -678309422 -1006415564 -228593264
            1641482321 691208234 861221477 1901554231</internalNodes>
          <leafValues>
            -8.1561678647994995e-01 2.4997347593307495e-01</leafValues></_>
        <_>
          <internalNodes>
            0 -1 71 -450833348 -37678846 -1019117311 -7745249 -799410134
            -932601566 -998114526 -2007514177</internalNodes>
          <leafValues>
            -6.3563966751098633e-01 4.0544593334197998e-01</leafValues></_>
        <_>
          <internalNodes>
            0 -1 88 -1711107881 -1902604252 -1853791341 -1559862832
            -2119454065 -2138593279 -2113167139 -1431847997</internalNodes>
          <leafValues>
            -5.9759736061096191e-01 4.3338963389396667e-01</leafValues></_>
        <_>
          <internalNodes>
            0 -1 31 -869609501 -1207960031 -144638157 1038463704
            1862124542 -1216645201 -815667201 -833632741</internalNodes>
          <leafValues>
            -4.6457439661026001e-01 5.8887779712677002e-01</leafValues></_>
        <_>
          <internalNodes>
            0 -1 73 -924914450 -38697969 834703385 2131838466 -871673592
            1921550336 160348313 1578616899</internalNodes>
          <leafValues>
            -6.9116318225860596e-01 3.8120305538177490e-01</leafValues></_></weakClassifiers></_>
    <!-- stage 12 -->
    <_>
      <maxWeakCount>7</maxWeakCount>
      <stageThreshold>-1.3239133358001709e+00</stageThreshold>
      <weakClassifiers>
        <_>
          <internalNodes>
            0 -1 30 1351213279 -14839593 -2129599265 -15514159
            1217036479 -610615007 -721118545 -286553974</internalNodes>
          <leafValues>
            -7.2590625286102295e-01 5.9663867950439453e-01</leafValues></_>
        <_>
          <internalNodes>
            0 -1 61 85153199 1603749169 1074868533 -104775357 185245863
            -1880620904 240320859 708772354</internalNodes>
          <leafValues>
            -7.0644158124923706e-01 3.5688024759292603e-01</leafValues></_>
        <_>
          <internalNodes>
            0 -1 23 -803019278 -511115200 1074023702 -1768488504
            415942795 -2104786739 -1610497379 1416044775</internalNodes>
          <leafValues>
            -6.4975869655609131e-01 3.9463168382644653e-01</leafValues></_>
        <_>
          <internalNodes>
            0 -1 87 -1567452673 639901954 -1602125818 311697931
            -930959222 17154050 -2008924128 -1364411666</internalNodes>
          <leafValues>
            -6.8342787027359009e-01 4.2160207033157349e-01</leafValues></_>
        <_>
          <internalNodes>
            0 -1 1 1103749768 -754450425 1078023239 860045509
            -2138406693 -1845458943 1376989423 -1366580981</internalNodes>
          <leafValues>
            -5.4314011335372925e-01 5.8441603183746338e-01</leafValues></_>
        <_>
          <internalNodes>
            0 -1 11 -448732181 1344521747 1090535563 -794226295 34342395
            -794647411 -2146794868 2055995517</internalNodes>
          <leafValues>
            -6.6597986221313477e-01 4.4311341643333435e-01</leafValues></_>
        <_>
          <internalNodes>
            0 -1 16 -783547438 -536805375 22052883 1393758351
            -1977483056 -264208382 42471950 -169932661</internalNodes>
          <leafValues>
            -5.6200110912322998e-01 5.5451303720474243e-01</leafValues></_></weakClassifiers></_>
    <!-- stage 13 -->
    <_>
      <maxWeakCount>7</maxWeakCount>
      <stageThreshold>-2.0587868690490723e+00</stageThreshold>
      <weakClassifiers>
        <_>
          <internalNodes>
            0 -1 50 -921972545 -778878975 67211349 1560613120
            -1056841703 -2012086272 604014735 -544505689</internalNodes>
          <leafValues>
            -7.5183129310607910e-01 7.8181821107864380e-01</leafValues></_>
        <_>
          <internalNodes>
            0 -1 42 -1161914113 -1141096651 805182967 822107307
            335286777 -332023873 -58119 -1913633377</internalNodes>
          <leafValues>
            -5.7825094461441040e-01 6.3039952516555786e-01</leafValues></_>
        <_>
          <internalNodes>
            0 -1 22 -37750503 -1155453297 771706220 233922466 -839475381
            -38945580 -8953921 -309338190</internalNodes>
          <leafValues>
            -4.4874572753906250e-01 8.2393866777420044e-01</leafValues></_>
        <_>
          <internalNodes>
            0 -1 82 974327880 1392509058 -1878982639 285409280
            -2147311464 1779566593 98312 -1729389926</internalNodes>
          <leafValues>
            -5.9539300203323364e-01 5.9076339006423950e-01</leafValues></_>
        <_>
          <internalNodes>
            0 -1 49 134239506 -918507264 1091313984 1426161670
            -1073741183 1145569410 -519847511 1889632399</internalNodes>
          <leafValues>
            -7.7331346273422241e-01 5.1301127672195435e-01</leafValues></_>
        <_>
          <internalNodes>
            0 -1 79 -1992243706 826478855 16777216 1090519040
            -2122301310 1216381954 1073778826 1930404483</internalNodes>
          <leafValues>
            -7.2937107086181641e-01 5.1850873231887817e-01</leafValues></_>
        <_>
          <internalNodes>
            0 -1 0 85131315 1208074323 1090535504 1360203777 537035146
            -1073708928 1082687566 -939489064</internalNodes>
          <leafValues>
            -6.6321629285812378e-01 6.5421444177627563e-01</leafValues></_></weakClassifiers></_>
    <!-- stage 14 -->
    <_>
      <maxWeakCount>6</maxWeakCount>
      <stageThreshold>-1.2763855457305908e+00</stageThreshold>
      <weakClassifiers>
        <_>
          <internalNodes>
            0 -1 35 -486287998 -805306366 -2147483504 -1325006848
            -939392894 32 -1073741824 -1146912565</internalNodes>
          <leafValues>
            -7.9051029682159424e-01 1.</leafValues></_>
        <_>
          <internalNodes>
            0 -1 38 -1056847696 16386 294912 1343225861 -2147319167
            167772298 -2147450469 -765819960</internalNodes>
          <leafValues>
            -6.7467379570007324e-01 7.1587818861007690e-01</leafValues></_>
        <_>
          <internalNodes>
            0 -1 36 1088858967 -843108432 783597425 1845444592
            1056898732 267288570 -1501565636 -1362114666</internalNodes>
          <leafValues>
            -6.0087639093399048e-01 8.3762609958648682e-01</leafValues></_>
        <_>
          <internalNodes>
            0 -1 44 -1073691482 -1006632704 67129411 -2130640895
            1073776680 -2113929088 -2013233077 1140867115</internalNodes>
          <leafValues>
            -6.7427116632461548e-01 7.2737097740173340e-01</leafValues></_>
        <_>
          <internalNodes>
            0 -1 65 -769615864 -784203773 20481 268435586 -2147483606
            524288 622609 1805845010</internalNodes>
          <leafValues>
            -6.0722792148590088e-01 7.4982374906539917e-01</leafValues></_>
        <_>
          <internalNodes>
            0 -1 72 -613219828 25198616 16777480 293736705 34 41975810
            -2147416053 839876747</internalNodes>
          <leafValues>
            -6.6062623262405396e-01 7.1412229537963867e-01</leafValues></_></weakClassifiers></_></stages>
  <features>
    <_>
      <rect>
        0 3 7 2</rect></_>
    <_>
      <rect>
        0 4 8 2</rect></_>
    <_>
      <rect>
        0 5 4 4</rect></_>
    <_>
      <rect>
        0 5 8 4</rect></_>
    <_>
      <rect>
        0 7 8 4</rect></_>
    <_>
      <rect>
        0 9 3 2</rect></_>
    <_>
      <rect>
        0 9 4 3</rect></_>
    <_>
      <rect>
        0 9 8 3</rect></_>
    <_>
      <rect>
        0 11 2 2</rect></_>
    <_>
      <rect>
        0 11 5 2</rect></_>
    <_>
      <rect>
        0 12 2 1</rect></_>
    <_>
      <rect>
        0 13 6 2</rect></_>
    <_>
      <rect>
        0 13 8 1</rect></_>
    <_>
      <rect>
        0 14 2 1</rect></_>
    <_>
      <rect>
        0 14 2 2</rect></_>
    <_>
      <rect>
        0 14 3 2</rect></_>
    <_>
      <rect>
        0 15 1 1</rect></_>
    <_>
      <rect>
        0 15 2 1</rect></_>
    <_>
      <rect>
        0 15 5 1</rect></_>
    <_>
      <rect>
        0 16 6 1</rect></_>
    <_>
      <rect>
        0 16 8 1</rect></_>
    <_>
      <rect>
        0 17 8 1</rect></_>
    <_>
      <rect>
        1 9 4 1</rect></_>
    <_>
      <rect>
        1 10 2 2</rect></_>
    <_>
      <rect>
        1 10 3 1</rect></_>
    <_>
      <rect>
        1 12 1 3</rect></_>
    <_>
      <rect>
        1 14 3 1</rect></_>
    <_>
      <rect>
        1 16 6 1</rect></_>
    <_>
      <rect>
        2 4 6 1</rect></_>
    <_>
      <rect>
        2 4 6 2</rect></_>
    <_>
      <rect>
        2 5 6 1</rect></_>
    <_>
      <rect>
        2 8 4 1</rect></_>
    <_>
      <rect>
        2 16 3 1</rect></_>
    <_>
      <rect>
        2 16 4 1</rect></_>
    <_>
      <rect>
        2 17 5 1</rect></_>
    <_>
      <rect>
        3 7 1 1</rect></_>
    <_>
      <rect>
        3 8 3 1</rect></_>
    <_>
      <rect>
        3 11 6 1</rect></_>
    <_>
      <rect>
        3 14 2 1</rect></_>
    <_>
      <rect>
        3 14 3 2</rect></_>
    <_>
      <rect>
        3 14 6 1</rect></_>
    <_>
      <rect>
        3 16 6 1</rect></_>
    <_>
      <rect>
        4 4 6 1</rect></_>
    <_>
      <rect>
        4 6 6 2</rect></_>
    <_>
      <rect>
        4 8 6 1</rect></_>
    <_>
      <rect>
        4 12 5 1</rect></_>
    <_>
      <rect>
        4 12 6 2</rect></_>
    <_>
      <rect>
        4 13 1 1</rect></_>
    <_>
      <rect>
        4 14 1 1</rect></_>
    <_>
      <rect>
        4 14 6 1</rect></_>
    <_>
      <rect>
        5 8 3 1</rect></_>
    <_>
      <rect>
        5 13 1 1</rect></_>
    <_>
      <rect>
        5 13 2 1</rect></_>
    <_>
      <rect>
        5 13 5 1</rect></_>
    <_>
      <rect>
        5 15 1 1</rect></_>
    <_>
      <rect>
        5 16 6 1</rect></_>
    <_>
      <rect>
        7 7 1 1</rect></_>
    <_>
      <rect>
        7 11 4 1</rect></_>
    <_>
      <rect>
        9 4 5 5</rect></_>
    <_>
      <rect>
        9 11 5 2</rect></_>
    <_>
      <rect>
        9 15 5 1</rect></_>
    <_>
      <rect>
        11 17 4 1</rect></_>
    <_>
      <rect>
        12 8 3 1</rect></_>
    <_>
      <rect>
        12 9 2 1</rect></_>
    <_>
      <rect>
        12 9 4 3</rect></_>
    <_>
      <rect>
        12 10 1 1</rect></_>
    <_>
      <rect>
        12 10 4 1</rect></_>
    <_>
      <rect>
        12 12 4 1</rect></_>
    <_>
      <rect>
        12 14 4 2</rect></_>
    <_>
      <rect>
        14 16 2 1</rect></_>
    <_>
      <rect>
        14 16 3 1</rect></_>
    <_>
      <rect>
        15 8 3 3</rect></_>
    <_>
      <rect>
        15 10 3 1</rect></_>
    <_>
      <rect>
        15 13 2 1</rect></_>
    <_>
      <rect>
        15 14 2 1</rect></_>
    <_>
      <rect>
        15 14 3 1</rect></_>
    <_>
      <rect>
        15 15 3 1</rect></_>
    <_>
      <rect>
        16 13 1 1</rect></_>
    <_>
      <rect>
        16 16 2 1</rect></_>
    <_>
      <rect>
        17 13 1 1</rect></_>
    <_>
      <rect>
        17 14 1 1</rect></_>
    <_>
      <rect>
        18 10 2 2</rect></_>
    <_>
      <rect>
        18 11 2 1</rect></_>
    <_>
      <rect>
        18 11 2 2</rect></_>
    <_>
      <rect>
        18 12 2 1</rect></_>
    <_>
      <rect>
        18 13 2 3</rect></_>
    <_>
      <rect>
        18 14 2 2</rect></_>
    <_>
      <rect>
        20 13 1 2</rect></_>
    <_>
      <rect>
        21 15 1 1</rect></_></features></cascade>
</opencv_storage>
