<?xml version="1.0"?>
<opencv_storage>
<cascade>
  <stageType>BOOST</stageType>
  <featureType>HAAR</featureType>
  <height>24</height>
  <width>24</width>
  <stageParams>
    <boostType>GAB</boostType>
    <minHitRate>9.9900001287460327e-01</minHitRate>
    <maxFalseAlarm>5.0000000000000000e-01</maxFalseAlarm>
    <weightTrimRate>9.4999999999999996e-01</weightTrimRate>
    <maxDepth>1</maxDepth>
    <maxWeakCount>100</maxWeakCount></stageParams>
  <featureParams>
    <maxCatCount>0</maxCatCount>
    <featSize>1</featSize>
    <mode>ALL</mode></featureParams>
  <stageNum>19</stageNum>
  <stages>
    <!-- stage 0 -->
    <_>
      <maxWeakCount>7</maxWeakCount>
      <stageThreshold>-2.3137197494506836e+00</stageThreshold>
      <weakClassifiers>
        <_>
          <internalNodes>
            0 -1 184 -1.0619831085205078e-01</internalNodes>
          <leafValues>
            6.2095236778259277e-01 -8.4717947244644165e-01</leafValues></_>
        <_>
          <internalNodes>
            0 -1 53 -1.3202548027038574e-01</internalNodes>
          <leafValues>
            3.8129392266273499e-01 -7.7163827419281006e-01</leafValues></_>
        <_>
          <internalNodes>
            0 -1 499 -2.7423212304711342e-02</internalNodes>
          <leafValues>
            6.4613014459609985e-01 -4.2848026752471924e-01</leafValues></_>
        <_>
          <internalNodes>
            0 -1 162 -8.6054895073175430e-03</internalNodes>
          <leafValues>
            4.1676309704780579e-01 -5.3679537773132324e-01</leafValues></_>
        <_>
          <internalNodes>
            0 -1 10 1.0775649920105934e-02</internalNodes>
          <leafValues>
            -5.1467245817184448e-01 3.6298185586929321e-01</leafValues></_>
        <_>
          <internalNodes>
            0 -1 134 -2.8407687786966562e-03</internalNodes>
          <leafValues>
            5.6921035051345825e-01 -3.0022832751274109e-01</leafValues></_>
        <_>
          <internalNodes>
            0 -1 226 1.0859456378966570e-03</internalNodes>
          <leafValues>
            -8.7496548891067505e-01 2.1583585441112518e-01</leafValues></_></weakClassifiers></_>
    <!-- stage 1 -->
    <_>
      <maxWeakCount>12</maxWeakCount>
      <stageThreshold>-2.0100357532501221e+00</stageThreshold>
      <weakClassifiers>
        <_>
          <internalNodes>
            0 -1 185 -9.7081899642944336e-02</internalNodes>
          <leafValues>
            5.6795132160186768e-01 -7.7457797527313232e-01</leafValues></_>
        <_>
          <internalNodes>
            0 -1 33 -1.6370944678783417e-02</internalNodes>
          <leafValues>
            2.2195011377334595e-01 -7.5807541608810425e-01</leafValues></_>
        <_>
          <internalNodes>
            0 -1 143 2.6679178699851036e-02</internalNodes>
          <leafValues>
            -6.6021251678466797e-01 2.7332171797752380e-01</leafValues></_>
        <_>
          <internalNodes>
            0 -1 272 7.1828081272542477e-03</internalNodes>
          <leafValues>
            -3.4765428304672241e-01 5.5683577060699463e-01</leafValues></_>
        <_>
          <internalNodes>
            0 -1 503 -3.2310017850250006e-03</internalNodes>
          <leafValues>
            4.7643724083900452e-01 -3.0177834630012512e-01</leafValues></_>
        <_>
          <internalNodes>
            0 -1 325 6.3949860632419586e-03</internalNodes>
          <leafValues>
            -1.9760334491729736e-01 7.3621231317520142e-01</leafValues></_>
        <_>
          <internalNodes>
            0 -1 406 -7.4921571649610996e-04</internalNodes>
          <leafValues>
            -7.3441982269287109e-01 2.4030831456184387e-01</leafValues></_>
        <_>
          <internalNodes>
            0 -1 112 5.2019841969013214e-03</internalNodes>
          <leafValues>
            -3.5784378647804260e-01 3.8452875614166260e-01</leafValues></_>
        <_>
          <internalNodes>
            0 -1 403 8.7642483413219452e-04</internalNodes>
          <leafValues>
            1.7589284479618073e-01 -7.1258306503295898e-01</leafValues></_>
        <_>
          <internalNodes>
            0 -1 418 -4.0688492357730865e-02</internalNodes>
          <leafValues>
            4.8708912730216980e-01 -2.6201504468917847e-01</leafValues></_>
        <_>
          <internalNodes>
            0 -1 373 1.4352475991472602e-03</internalNodes>
          <leafValues>
            1.8350446224212646e-01 -7.2509968280792236e-01</leafValues></_>
        <_>
          <internalNodes>
            0 -1 443 -8.3012804388999939e-03</internalNodes>
          <leafValues>
            2.7180382609367371e-01 -4.1577079892158508e-01</leafValues></_></weakClassifiers></_>
    <!-- stage 2 -->
    <_>
      <maxWeakCount>15</maxWeakCount>
      <stageThreshold>-2.1200938224792480e+00</stageThreshold>
      <weakClassifiers>
        <_>
          <internalNodes>
            0 -1 184 -1.2864410877227783e-01</internalNodes>
          <leafValues>
            1.9135802984237671e-01 -7.3239433765411377e-01</leafValues></_>
        <_>
          <internalNodes>
            0 -1 29 1.7577139660716057e-02</internalNodes>
          <leafValues>
            -5.6610125303268433e-01 2.5720497965812683e-01</leafValues></_>
        <_>
          <internalNodes>
            0 -1 120 2.2919435054063797e-02</internalNodes>
          <leafValues>
            -4.6814888715744019e-01 3.2515677809715271e-01</leafValues></_>
        <_>
          <internalNodes>
            0 -1 283 1.0586945340037346e-02</internalNodes>
          <leafValues>
            -1.4598542451858521e-01 7.6182198524475098e-01</leafValues></_>
        <_>
          <internalNodes>
            0 -1 85 -9.6172630786895752e-02</internalNodes>
          <leafValues>
            3.8471701741218567e-01 -3.8324230909347534e-01</leafValues></_>
        <_>
          <internalNodes>
            0 -1 506 -2.2554437164217234e-03</internalNodes>
          <leafValues>
            4.5761445164680481e-01 -2.8354272246360779e-01</leafValues></_>
        <_>
          <internalNodes>
            0 -1 18 -1.8818017840385437e-01</internalNodes>
          <leafValues>
            -8.6161029338836670e-01 1.7315553128719330e-01</leafValues></_>
        <_>
          <internalNodes>
            0 -1 486 8.2638233900070190e-02</internalNodes>
          <leafValues>
            1.7574863135814667e-01 -6.3201195001602173e-01</leafValues></_>
        <_>
          <internalNodes>
            0 -1 89 4.5210830867290497e-03</internalNodes>
          <leafValues>
            1.8340297043323517e-01 -5.7028621435165405e-01</leafValues></_>
        <_>
          <internalNodes>
            0 -1 200 -1.0321676731109619e-02</internalNodes>
          <leafValues>
            -9.0219128131866455e-01 1.2093295156955719e-01</leafValues></_>
        <_>
          <internalNodes>
            0 -1 96 -3.7223631516098976e-03</internalNodes>
          <leafValues>
            3.7692210078239441e-01 -3.2988485693931580e-01</leafValues></_>
        <_>
          <internalNodes>
            0 -1 305 -1.4527615159749985e-02</internalNodes>
          <leafValues>
            -8.8731789588928223e-01 1.4091037213802338e-01</leafValues></_>
        <_>
          <internalNodes>
            0 -1 152 -5.8566075749695301e-03</internalNodes>
          <leafValues>
            6.3332509994506836e-01 -1.8598133325576782e-01</leafValues></_>
        <_>
          <internalNodes>
            0 -1 358 3.9906473830342293e-03</internalNodes>
          <leafValues>
            -1.6859829425811768e-01 6.6375160217285156e-01</leafValues></_>
        <_>
          <internalNodes>
            0 -1 234 5.2046694327145815e-04</internalNodes>
          <leafValues>
            2.0076192915439606e-01 -6.2378954887390137e-01</leafValues></_></weakClassifiers></_>
    <!-- stage 3 -->
    <_>
      <maxWeakCount>16</maxWeakCount>
      <stageThreshold>-2.0258445739746094e+00</stageThreshold>
      <weakClassifiers>
        <_>
          <internalNodes>
            0 -1 183 -3.6943379789590836e-02</internalNodes>
          <leafValues>
            2.5315004587173462e-01 -5.7404798269271851e-01</leafValues></_>
        <_>
          <internalNodes>
            0 -1 494 -2.8835382312536240e-02</internalNodes>
          <leafValues>
            4.8535349965095520e-01 -3.7370041012763977e-01</leafValues></_>
        <_>
          <internalNodes>
            0 -1 398 -6.1598876491189003e-03</internalNodes>
          <leafValues>
            2.1639572083950043e-01 -7.2519880533218384e-01</leafValues></_>
        <_>
          <internalNodes>
            0 -1 320 -3.9731464348733425e-03</internalNodes>
          <leafValues>
            6.2254607677459717e-01 -1.9758358597755432e-01</leafValues></_>
        <_>
          <internalNodes>
            0 -1 197 -1.5990287065505981e-02</internalNodes>
          <leafValues>
            -8.7370461225509644e-01 1.3474114239215851e-01</leafValues></_>
        <_>
          <internalNodes>
            0 -1 25 3.0479438602924347e-02</internalNodes>
          <leafValues>
            -3.1095406413078308e-01 3.6521399021148682e-01</leafValues></_>
        <_>
          <internalNodes>
            0 -1 300 -4.2985342442989349e-03</internalNodes>
          <leafValues>
            -6.0438746213912964e-01 1.9722811877727509e-01</leafValues></_>
        <_>
          <internalNodes>
            0 -1 521 -4.5878011733293533e-03</internalNodes>
          <leafValues>
            3.3910167217254639e-01 -3.2031470537185669e-01</leafValues></_>
        <_>
          <internalNodes>
            0 -1 344 4.4048050767742097e-04</internalNodes>
          <leafValues>
            1.7203627526760101e-01 -5.8977401256561279e-01</leafValues></_>
        <_>
          <internalNodes>
            0 -1 149 1.8074516206979752e-02</internalNodes>
          <leafValues>
            -3.7137076258659363e-01 2.9297980666160583e-01</leafValues></_>
        <_>
          <internalNodes>
            0 -1 389 3.7155998870730400e-03</internalNodes>
          <leafValues>
            -1.5247532725334167e-01 6.8973618745803833e-01</leafValues></_>
        <_>
          <internalNodes>
            0 -1 302 7.1278866380453110e-04</internalNodes>
          <leafValues>
            1.8440072238445282e-01 -5.4367375373840332e-01</leafValues></_>
        <_>
          <internalNodes>
            0 -1 133 -4.1426904499530792e-03</internalNodes>
          <leafValues>
            5.1090121269226074e-01 -2.0582632720470428e-01</leafValues></_>
        <_>
          <internalNodes>
            0 -1 247 -3.4039072692394257e-02</internalNodes>
          <leafValues>
            1.9514094293117523e-01 -5.6073325872421265e-01</leafValues></_>
        <_>
          <internalNodes>
            0 -1 124 7.8830365091562271e-03</internalNodes>
          <leafValues>
            -1.4648137986660004e-01 6.9614577293395996e-01</leafValues></_>
        <_>
          <internalNodes>
            0 -1 456 -3.7144674570299685e-04</internalNodes>
          <leafValues>
            -5.8758556842803955e-01 1.8130739033222198e-01</leafValues></_></weakClassifiers></_>
    <!-- stage 4 -->
    <_>
      <maxWeakCount>18</maxWeakCount>
      <stageThreshold>-1.7804819345474243e+00</stageThreshold>
      <weakClassifiers>
        <_>
          <internalNodes>
            0 -1 222 5.4893475025892258e-03</internalNodes>
          <leafValues>
            -6.6518706083297729e-01 3.4434292465448380e-02</leafValues></_>
        <_>
          <internalNodes>
            0 -1 416 3.5370618104934692e-02</internalNodes>
          <leafValues>
            -3.3643457293510437e-01 4.5740374922752380e-01</leafValues></_>
        <_>
          <internalNodes>
            0 -1 224 2.2903893142938614e-02</internalNodes>
          <leafValues>
            -6.0599625110626221e-01 2.0478796958923340e-01</leafValues></_>
        <_>
          <internalNodes>
            0 -1 460 -4.5888838358223438e-03</internalNodes>
          <leafValues>
            4.6648919582366943e-01 -2.9050722718238831e-01</leafValues></_>
        <_>
          <internalNodes>
            0 -1 283 1.0752086527645588e-02</internalNodes>
          <leafValues>
            -1.6369961202144623e-01 6.8423366546630859e-01</leafValues></_>
        <_>
          <internalNodes>
            0 -1 307 6.3779728952795267e-04</internalNodes>
          <leafValues>
            1.5397821366786957e-01 -6.8479132652282715e-01</leafValues></_>
        <_>
          <internalNodes>
            0 -1 303 -1.7651596572250128e-03</internalNodes>
          <leafValues>
            -7.2396314144134521e-01 1.1943130940198898e-01</leafValues></_>
        <_>
          <internalNodes>
            0 -1 414 -2.8693312779068947e-03</internalNodes>
          <leafValues>
            5.9498625993728638e-01 -1.8923334777355194e-01</leafValues></_>
        <_>
          <internalNodes>
            0 -1 33 -1.7026979476213455e-02</internalNodes>
          <leafValues>
            2.0226833224296570e-01 -5.3433054685592651e-01</leafValues></_>
        <_>
          <internalNodes>
            0 -1 316 3.8503729738295078e-03</internalNodes>
          <leafValues>
            -1.9583198428153992e-01 5.9553557634353638e-01</leafValues></_>
        <_>
          <internalNodes>
            0 -1 314 -1.3942420482635498e-03</internalNodes>
          <leafValues>
            5.3361964225769043e-01 -1.8145287036895752e-01</leafValues></_>
        <_>
          <internalNodes>
            0 -1 171 2.4101051967591047e-03</internalNodes>
          <leafValues>
            1.2153767794370651e-01 -7.4983799457550049e-01</leafValues></_>
        <_>
          <internalNodes>
            0 -1 43 2.1142929792404175e-02</internalNodes>
          <leafValues>
            -2.0750012993812561e-01 5.4701238870620728e-01</leafValues></_>
        <_>
          <internalNodes>
            0 -1 513 -3.5740423481911421e-04</internalNodes>
          <leafValues>
            -5.0416064262390137e-01 1.6500948369503021e-01</leafValues></_>
        <_>
          <internalNodes>
            0 -1 26 -1.9908329844474792e-01</internalNodes>
          <leafValues>
            -9.5520138740539551e-01 8.1163637340068817e-02</leafValues></_>
        <_>
          <internalNodes>
            0 -1 67 -9.9265230819582939e-03</internalNodes>
          <leafValues>
            3.0922678112983704e-01 -2.8183969855308533e-01</leafValues></_>
        <_>
          <internalNodes>
            0 -1 451 -2.8961515054106712e-03</internalNodes>
          <leafValues>
            -7.4194079637527466e-01 1.1647316813468933e-01</leafValues></_>
        <_>
          <internalNodes>
            0 -1 249 -4.0474715642631054e-03</internalNodes>
          <leafValues>
            4.8017320036888123e-01 -1.8561467528343201e-01</leafValues></_></weakClassifiers></_>
    <!-- stage 5 -->
    <_>
      <maxWeakCount>22</maxWeakCount>
      <stageThreshold>-1.7742633819580078e+00</stageThreshold>
      <weakClassifiers>
        <_>
          <internalNodes>
            0 -1 38 -4.4881086796522141e-03</internalNodes>
          <leafValues>
            1.7135024070739746e-02 -6.6515249013900757e-01</leafValues></_>
        <_>
          <internalNodes>
            0 -1 66 -2.0247636735439301e-01</internalNodes>
          <leafValues>
            2.3480160534381866e-01 -4.2371904850006104e-01</leafValues></_>
        <_>
          <internalNodes>
            0 -1 361 4.7445078380405903e-03</internalNodes>
          <leafValues>
            -1.5536914765834808e-01 7.4339723587036133e-01</leafValues></_>
        <_>
          <internalNodes>
            0 -1 5 3.2558843493461609e-02</internalNodes>
          <leafValues>
            -3.1139004230499268e-01 3.0827522277832031e-01</leafValues></_>
        <_>
          <internalNodes>
            0 -1 189 -9.7960308194160461e-03</internalNodes>
          <leafValues>
            1.9426311552524567e-01 -5.9398180246353149e-01</leafValues></_>
        <_>
          <internalNodes>
            0 -1 503 -2.5783281307667494e-03</internalNodes>
          <leafValues>
            3.3412456512451172e-01 -3.2485872507095337e-01</leafValues></_>
        <_>
          <internalNodes>
            0 -1 231 3.5768689122051001e-04</internalNodes>
          <leafValues>
            1.7863108217716217e-01 -5.7549518346786499e-01</leafValues></_>
        <_>
          <internalNodes>
            0 -1 54 1.4989295601844788e-01</internalNodes>
          <leafValues>
            1.1401812732219696e-01 -7.0946019887924194e-01</leafValues></_>
        <_>
          <internalNodes>
            0 -1 84 -3.4828325733542442e-03</internalNodes>
          <leafValues>
            2.8855255246162415e-01 -2.9797104001045227e-01</leafValues></_>
        <_>
          <internalNodes>
            0 -1 430 -1.3226242735981941e-03</internalNodes>
          <leafValues>
            -7.5106507539749146e-01 1.1422584950923920e-01</leafValues></_>
        <_>
          <internalNodes>
            0 -1 328 1.4213589020073414e-02</internalNodes>
          <leafValues>
            -1.5711557865142822e-01 5.8898258209228516e-01</leafValues></_>
        <_>
          <internalNodes>
            0 -1 220 -1.8592450767755508e-02</internalNodes>
          <leafValues>
            3.2447710633277893e-01 -2.7685847878456116e-01</leafValues></_>
        <_>
          <internalNodes>
            0 -1 250 -2.5212367996573448e-02</internalNodes>
          <leafValues>
            -8.1395089626312256e-01 8.4081172943115234e-02</leafValues></_>
        <_>
          <internalNodes>
            0 -1 401 2.6520332321524620e-03</internalNodes>
          <leafValues>
            1.2676356732845306e-01 -5.5420649051666260e-01</leafValues></_>
        <_>
          <internalNodes>
            0 -1 131 -3.8826682139188051e-03</internalNodes>
          <leafValues>
            6.7222106456756592e-01 -1.3114328682422638e-01</leafValues></_>
        <_>
          <internalNodes>
            0 -1 150 -1.9632361829280853e-01</internalNodes>
          <leafValues>
            -6.6698879003524780e-01 1.2890946865081787e-01</leafValues></_>
        <_>
          <internalNodes>
            0 -1 0 -1.5089601278305054e-02</internalNodes>
          <leafValues>
            4.5323139429092407e-01 -1.7757996916770935e-01</leafValues></_>
        <_>
          <internalNodes>
            0 -1 378 7.9898501280695200e-04</internalNodes>
          <leafValues>
            1.2112202495336533e-01 -7.0030027627944946e-01</leafValues></_>
        <_>
          <internalNodes>
            0 -1 158 1.2371735647320747e-03</internalNodes>
          <leafValues>
            -1.6179995238780975e-01 5.1535564661026001e-01</leafValues></_>
        <_>
          <internalNodes>
            0 -1 380 -1.5116382855921984e-03</internalNodes>
          <leafValues>
            -7.4395871162414551e-01 1.1760412156581879e-01</leafValues></_>
        <_>
          <internalNodes>
            0 -1 548 7.6897237449884415e-03</internalNodes>
          <leafValues>
            -1.5360793471336365e-01 6.6698569059371948e-01</leafValues></_>
        <_>
          <internalNodes>
            0 -1 466 -4.5397435314953327e-03</internalNodes>
          <leafValues>
            5.2992099523544312e-01 -1.4540372788906097e-01</leafValues></_></weakClassifiers></_>
    <!-- stage 6 -->
    <_>
      <maxWeakCount>29</maxWeakCount>
      <stageThreshold>-1.8819453716278076e+00</stageThreshold>
      <weakClassifiers>
        <_>
          <internalNodes>
            0 -1 435 -9.5555037260055542e-03</internalNodes>
          <leafValues>
            2.6331362128257751e-01 -5.0688469409942627e-01</leafValues></_>
        <_>
          <internalNodes>
            0 -1 43 9.6093825995922089e-03</internalNodes>
          <leafValues>
            -3.3866831660270691e-01 3.4034648537635803e-01</leafValues></_>
        <_>
          <internalNodes>
            0 -1 100 -1.7394894734025002e-02</internalNodes>
          <leafValues>
            5.4419618844985962e-01 -1.9069364666938782e-01</leafValues></_>
        <_>
          <internalNodes>
            0 -1 446 -5.5108144879341125e-03</internalNodes>
          <leafValues>
            1.4471729099750519e-01 -5.7918274402618408e-01</leafValues></_>
        <_>
          <internalNodes>
            0 -1 30 1.4453875832259655e-02</internalNodes>
          <leafValues>
            1.2517125904560089e-01 -7.1889269351959229e-01</leafValues></_>
        <_>
          <internalNodes>
            0 -1 360 -4.2982231825590134e-03</internalNodes>
          <leafValues>
            5.3133511543273926e-01 -1.4223501086235046e-01</leafValues></_>
        <_>
          <internalNodes>
            0 -1 390 -4.4338218867778778e-03</internalNodes>
          <leafValues>
            5.5282765626907349e-01 -1.6661579906940460e-01</leafValues></_>
        <_>
          <internalNodes>
            0 -1 309 5.0257676048204303e-04</internalNodes>
          <leafValues>
            1.3398405909538269e-01 -6.5827929973602295e-01</leafValues></_>
        <_>
          <internalNodes>
            0 -1 304 -1.6591132152825594e-03</internalNodes>
          <leafValues>
            -6.2718003988265991e-01 1.0590165853500366e-01</leafValues></_>
        <_>
          <internalNodes>
            0 -1 128 -2.6887138374149799e-03</internalNodes>
          <leafValues>
            3.3476594090461731e-01 -2.3676413297653198e-01</leafValues></_>
        <_>
          <internalNodes>
            0 -1 104 -3.3679127227514982e-03</internalNodes>
          <leafValues>
            4.1060423851013184e-01 -1.9648404419422150e-01</leafValues></_>
        <_>
          <internalNodes>
            0 -1 6 1.2353660538792610e-02</internalNodes>
          <leafValues>
            -3.5323956608772278e-01 2.0518372952938080e-01</leafValues></_>
        <_>
          <internalNodes>
            0 -1 445 1.0369205847382545e-02</internalNodes>
          <leafValues>
            -2.0350234210491180e-01 3.6968573927879333e-01</leafValues></_>
        <_>
          <internalNodes>
            0 -1 355 -4.0846280753612518e-03</internalNodes>
          <leafValues>
            5.5362665653228760e-01 -1.4595949649810791e-01</leafValues></_>
        <_>
          <internalNodes>
            0 -1 71 9.5554385334253311e-03</internalNodes>
          <leafValues>
            -6.1792731285095215e-01 1.4643041789531708e-01</leafValues></_>
        <_>
          <internalNodes>
            0 -1 355 4.5157726854085922e-03</internalNodes>
          <leafValues>
            -1.6937117278575897e-01 5.6639713048934937e-01</leafValues></_>
        <_>
          <internalNodes>
            0 -1 345 1.8950171070173383e-03</internalNodes>
          <leafValues>
            1.3631130754947662e-01 -6.6907030344009399e-01</leafValues></_>
        <_>
          <internalNodes>
            0 -1 299 -5.7557374238967896e-03</internalNodes>
          <leafValues>
            -6.4274078607559204e-01 9.3005068600177765e-02</leafValues></_>
        <_>
          <internalNodes>
            0 -1 502 3.9251926355063915e-03</internalNodes>
          <leafValues>
            -1.7825868725776672e-01 5.1019817590713501e-01</leafValues></_>
        <_>
          <internalNodes>
            0 -1 497 -2.4579288437962532e-03</internalNodes>
          <leafValues>
            4.7477898001670837e-01 -1.2650525569915771e-01</leafValues></_>
        <_>
          <internalNodes>
            0 -1 130 -1.8630613340064883e-03</internalNodes>
          <leafValues>
            5.8929407596588135e-01 -1.2000639736652374e-01</leafValues></_>
        <_>
          <internalNodes>
            0 -1 203 -1.6807946376502514e-03</internalNodes>
          <leafValues>
            -5.2253913879394531e-01 1.4316266775131226e-01</leafValues></_>
        <_>
          <internalNodes>
            0 -1 158 -6.4561946783214808e-04</internalNodes>
          <leafValues>
            4.1314294934272766e-01 -1.6776837408542633e-01</leafValues></_>
        <_>
          <internalNodes>
            0 -1 39 2.1227723918855190e-03</internalNodes>
          <leafValues>
            -2.0511551201343536e-01 3.3923733234405518e-01</leafValues></_>
        <_>
          <internalNodes>
            0 -1 107 -1.2736723292618990e-03</internalNodes>
          <leafValues>
            2.1380260586738586e-01 -3.0238032341003418e-01</leafValues></_>
        <_>
          <internalNodes>
            0 -1 516 -1.2451797723770142e-02</internalNodes>
          <leafValues>
            2.3660457134246826e-01 -2.7196693420410156e-01</leafValues></_>
        <_>
          <internalNodes>
            0 -1 338 -3.9547315100207925e-04</internalNodes>
          <leafValues>
            1.4846695959568024e-01 -4.5782861113548279e-01</leafValues></_>
        <_>
          <internalNodes>
            0 -1 229 4.3827094486914575e-04</internalNodes>
          <leafValues>
            1.2129449844360352e-01 -5.1755738258361816e-01</leafValues></_>
        <_>
          <internalNodes>
            0 -1 178 -3.6935457028448582e-03</internalNodes>
          <leafValues>
            3.2538756728172302e-01 -1.9507956504821777e-01</leafValues></_></weakClassifiers></_>
    <!-- stage 7 -->
    <_>
      <maxWeakCount>28</maxWeakCount>
      <stageThreshold>-1.8761265277862549e+00</stageThreshold>
      <weakClassifiers>
        <_>
          <internalNodes>
            0 -1 126 5.1359094679355621e-02</internalNodes>
          <leafValues>
            -5.0854140520095825e-01 2.2454671561717987e-01</leafValues></_>
        <_>
          <internalNodes>
            0 -1 73 6.1133326962590218e-03</internalNodes>
          <leafValues>
            -2.6895642280578613e-01 4.1388520598411560e-01</leafValues></_>
        <_>
          <internalNodes>
            0 -1 463 -1.7190480139106512e-03</internalNodes>
          <leafValues>
            5.9530770778656006e-01 -1.2030718475580215e-01</leafValues></_>
        <_>
          <internalNodes>
            0 -1 215 -2.3584881797432899e-02</internalNodes>
          <leafValues>
            1.6721884906291962e-01 -4.4603419303894043e-01</leafValues></_>
        <_>
          <internalNodes>
            0 -1 4 1.1000899598002434e-02</internalNodes>
          <leafValues>
            -3.1742966175079346e-01 2.5580134987831116e-01</leafValues></_>
        <_>
          <internalNodes>
            0 -1 533 4.2265858501195908e-03</internalNodes>
          <leafValues>
            -2.9646053910255432e-01 2.6525786519050598e-01</leafValues></_>
        <_>
          <internalNodes>
            0 -1 284 -7.4934586882591248e-03</internalNodes>
          <leafValues>
            6.2278538942337036e-01 -1.0375000536441803e-01</leafValues></_>
        <_>
          <internalNodes>
            0 -1 138 -9.0927891433238983e-03</internalNodes>
          <leafValues>
            1.6223523020744324e-01 -4.0353465080261230e-01</leafValues></_>
        <_>
          <internalNodes>
            0 -1 228 -8.4267824422568083e-04</internalNodes>
          <leafValues>
            -6.3140314817428589e-01 1.0099584609270096e-01</leafValues></_>
        <_>
          <internalNodes>
            0 -1 16 3.7055327557027340e-03</internalNodes>
          <leafValues>
            -1.2950696051120758e-01 5.9686845541000366e-01</leafValues></_>
        <_>
          <internalNodes>
            0 -1 442 -4.3876543641090393e-03</internalNodes>
          <leafValues>
            2.7953028678894043e-01 -2.4304540455341339e-01</leafValues></_>
        <_>
          <internalNodes>
            0 -1 467 -1.1954223737120628e-02</internalNodes>
          <leafValues>
            5.1067489385604858e-01 -1.2011937797069550e-01</leafValues></_>
        <_>
          <internalNodes>
            0 -1 233 4.1622732533141971e-04</internalNodes>
          <leafValues>
            1.2062044441699982e-01 -5.7613718509674072e-01</leafValues></_>
        <_>
          <internalNodes>
            0 -1 440 -2.9984377324581146e-03</internalNodes>
          <leafValues>
            3.0669343471527100e-01 -2.0314751565456390e-01</leafValues></_>
        <_>
          <internalNodes>
            0 -1 246 4.2189098894596100e-02</internalNodes>
          <leafValues>
            7.9293608665466309e-02 -8.6076736450195312e-01</leafValues></_>
        <_>
          <internalNodes>
            0 -1 155 -3.3924691379070282e-03</internalNodes>
          <leafValues>
            5.2883011102676392e-01 -1.3488528132438660e-01</leafValues></_>
        <_>
          <internalNodes>
            0 -1 523 -3.0682436190545559e-03</internalNodes>
          <leafValues>
            -6.2766939401626587e-01 1.0134144872426987e-01</leafValues></_>
        <_>
          <internalNodes>
            0 -1 553 1.7489424208179116e-03</internalNodes>
          <leafValues>
            1.3898511230945587e-01 -4.1691836714744568e-01</leafValues></_>
        <_>
          <internalNodes>
            0 -1 294 6.6312371927779168e-05</internalNodes>
          <leafValues>
            1.5642857551574707e-01 -3.8559752702713013e-01</leafValues></_>
        <_>
          <internalNodes>
            0 -1 448 -9.4436159997712821e-05</internalNodes>
          <leafValues>
            8.8376596570014954e-02 -6.8663871288299561e-01</leafValues></_>
        <_>
          <internalNodes>
            0 -1 310 2.2176407277584076e-02</internalNodes>
          <leafValues>
            5.9961766004562378e-02 -7.4979758262634277e-01</leafValues></_>
        <_>
          <internalNodes>
            0 -1 290 -8.0021796748042107e-05</internalNodes>
          <leafValues>
            -3.7209081649780273e-01 1.4272217452526093e-01</leafValues></_>
        <_>
          <internalNodes>
            0 -1 141 -3.5759855061769485e-02</internalNodes>
          <leafValues>
            2.2681879997253418e-01 -2.7068823575973511e-01</leafValues></_>
        <_>
          <internalNodes>
            0 -1 173 -5.6501815561205149e-04</internalNodes>
          <leafValues>
            2.1062976121902466e-01 -2.6776102185249329e-01</leafValues></_>
        <_>
          <internalNodes>
            0 -1 478 -5.2668276475742459e-04</internalNodes>
          <leafValues>
            -4.8694673180580139e-01 1.2901604175567627e-01</leafValues></_>
        <_>
          <internalNodes>
            0 -1 22 -2.4865190684795380e-01</internalNodes>
          <leafValues>
            -8.4873056411743164e-01 6.3937194645404816e-02</leafValues></_>
        <_>
          <internalNodes>
            0 -1 429 -3.2655196264386177e-03</internalNodes>
          <leafValues>
            -8.4480422735214233e-01 4.8507682979106903e-02</leafValues></_>
        <_>
          <internalNodes>
            0 -1 236 -2.0287923689465970e-05</internalNodes>
          <leafValues>
            1.7886899411678314e-01 -3.0686020851135254e-01</leafValues></_></weakClassifiers></_>
    <!-- stage 8 -->
    <_>
      <maxWeakCount>32</maxWeakCount>
      <stageThreshold>-1.7206643819808960e+00</stageThreshold>
      <weakClassifiers>
        <_>
          <internalNodes>
            0 -1 363 -4.0014376863837242e-03</internalNodes>
          <leafValues>
            4.3065693974494934e-01 -4.5461568236351013e-01</leafValues></_>
        <_>
          <internalNodes>
            0 -1 112 2.7553562540560961e-03</internalNodes>
          <leafValues>
            -3.8083618879318237e-01 2.2712315618991852e-01</leafValues></_>
        <_>
          <internalNodes>
            0 -1 362 -4.3714828789234161e-03</internalNodes>
          <leafValues>
            5.6264132261276245e-01 -1.3338831067085266e-01</leafValues></_>
        <_>
          <internalNodes>
            0 -1 520 -3.8421214558184147e-03</internalNodes>
          <leafValues>
            2.8320547938346863e-01 -2.5100144743919373e-01</leafValues></_>
        <_>
          <internalNodes>
            0 -1 21 -2.1821789443492889e-02</internalNodes>
          <leafValues>
            4.0760052204132080e-01 -1.6119770705699921e-01</leafValues></_>
        <_>
          <internalNodes>
            0 -1 103 4.4261589646339417e-03</internalNodes>
          <leafValues>
            -1.1793766915798187e-01 5.8948284387588501e-01</leafValues></_>
        <_>
          <internalNodes>
            0 -1 376 -3.0886619351804256e-03</internalNodes>
          <leafValues>
            -6.4650923013687134e-01 1.7256519198417664e-01</leafValues></_>
        <_>
          <internalNodes>
            0 -1 447 -2.9677350074052811e-02</internalNodes>
          <leafValues>
            1.6381581127643585e-01 -3.4164506196975708e-01</leafValues></_>
        <_>
          <internalNodes>
            0 -1 384 -3.5044457763433456e-03</internalNodes>
          <leafValues>
            3.6617660522460938e-01 -1.6834735870361328e-01</leafValues></_>
        <_>
          <internalNodes>
            0 -1 32 -4.4723524479195476e-04</internalNodes>
          <leafValues>
            1.0950987040996552e-01 -5.4045355319976807e-01</leafValues></_>
        <_>
          <internalNodes>
            0 -1 267 5.2905967459082603e-04</internalNodes>
          <leafValues>
            1.1584407836198807e-01 -5.6921434402465820e-01</leafValues></_>
        <_>
          <internalNodes>
            0 -1 232 -5.4429154843091965e-03</internalNodes>
          <leafValues>
            -7.0992493629455566e-01 7.8244149684906006e-02</leafValues></_>
        <_>
          <internalNodes>
            0 -1 285 9.4453394412994385e-03</internalNodes>
          <leafValues>
            -1.0997292399406433e-01 6.9579124450683594e-01</leafValues></_>
        <_>
          <internalNodes>
            0 -1 43 2.9964748769998550e-02</internalNodes>
          <leafValues>
            -1.0644430667161942e-01 5.4970771074295044e-01</leafValues></_>
        <_>
          <internalNodes>
            0 -1 459 1.4937657397240400e-03</internalNodes>
          <leafValues>
            -1.0270842909812927e-01 5.3084766864776611e-01</leafValues></_>
        <_>
          <internalNodes>
            0 -1 462 -1.6077023465186357e-03</internalNodes>
          <leafValues>
            4.3601924180984497e-01 -1.4226073026657104e-01</leafValues></_>
        <_>
          <internalNodes>
            0 -1 168 -2.5459672324359417e-03</internalNodes>
          <leafValues>
            -6.8263167142868042e-01 9.5773495733737946e-02</leafValues></_>
        <_>
          <internalNodes>
            0 -1 50 -1.0382144153118134e-01</internalNodes>
          <leafValues>
            2.5927269458770752e-01 -2.2650605440139771e-01</leafValues></_>
        <_>
          <internalNodes>
            0 -1 94 1.3763594441115856e-02</internalNodes>
          <leafValues>
            -1.3081043958663940e-01 4.4477006793022156e-01</leafValues></_>
        <_>
          <internalNodes>
            0 -1 404 -1.2232684530317783e-03</internalNodes>
          <leafValues>
            -7.4291962385177612e-01 8.0373764038085938e-02</leafValues></_>
        <_>
          <internalNodes>
            0 -1 431 -2.5200196541845798e-03</internalNodes>
          <leafValues>
            5.2456396818161011e-01 -1.2736637890338898e-01</leafValues></_>
        <_>
          <internalNodes>
            0 -1 306 -7.8679351136088371e-03</internalNodes>
          <leafValues>
            -8.6613702774047852e-01 7.4529960751533508e-02</leafValues></_>
        <_>
          <internalNodes>
            0 -1 489 -6.0126436874270439e-03</internalNodes>
          <leafValues>
            4.3795198202133179e-01 -1.4604632556438446e-01</leafValues></_>
        <_>
          <internalNodes>
            0 -1 287 -8.6921332404017448e-03</internalNodes>
          <leafValues>
            2.9454398155212402e-01 -1.9424641132354736e-01</leafValues></_>
        <_>
          <internalNodes>
            0 -1 441 8.0633964389562607e-03</internalNodes>
          <leafValues>
            -9.1491580009460449e-02 6.5761733055114746e-01</leafValues></_>
        <_>
          <internalNodes>
            0 -1 77 -3.1473640352487564e-02</internalNodes>
          <leafValues>
            5.8678239583969116e-01 -8.7960176169872284e-02</leafValues></_>
        <_>
          <internalNodes>
            0 -1 369 -4.0019760490395129e-05</internalNodes>
          <leafValues>
            9.5148406922817230e-02 -6.7682993412017822e-01</leafValues></_>
        <_>
          <internalNodes>
            0 -1 543 -5.4010124877095222e-03</internalNodes>
          <leafValues>
            3.4124475717544556e-01 -1.7404036223888397e-01</leafValues></_>
        <_>
          <internalNodes>
            0 -1 244 2.4970918893814087e-02</internalNodes>
          <leafValues>
            9.2618182301521301e-02 -6.6759151220321655e-01</leafValues></_>
        <_>
          <internalNodes>
            0 -1 103 -1.5466611366719007e-03</internalNodes>
          <leafValues>
            2.8051304817199707e-01 -2.1020023524761200e-01</leafValues></_>
        <_>
          <internalNodes>
            0 -1 160 -6.0700915753841400e-02</internalNodes>
          <leafValues>
            -7.3504930734634399e-01 8.5827231407165527e-02</leafValues></_>
        <_>
          <internalNodes>
            0 -1 239 -1.2689197435975075e-02</internalNodes>
          <leafValues>
            4.6027576923370361e-01 -1.3476005196571350e-01</leafValues></_></weakClassifiers></_>
    <!-- stage 9 -->
    <_>
      <maxWeakCount>37</maxWeakCount>
      <stageThreshold>-1.8846416473388672e+00</stageThreshold>
      <weakClassifiers>
        <_>
          <internalNodes>
            0 -1 330 -9.1369403526186943e-03</internalNodes>
          <leafValues>
            3.7868481874465942e-01 -4.5603752136230469e-01</leafValues></_>
        <_>
          <internalNodes>
            0 -1 535 3.5999938845634460e-03</internalNodes>
          <leafValues>
            -2.7217143774032593e-01 3.4398117661476135e-01</leafValues></_>
        <_>
          <internalNodes>
            0 -1 140 -1.4317402929009404e-05</internalNodes>
          <leafValues>
            1.8436820805072784e-01 -3.5665023326873779e-01</leafValues></_>
        <_>
          <internalNodes>
            0 -1 237 5.6158620864152908e-02</internalNodes>
          <leafValues>
            -2.9703629016876221e-01 2.3063854873180389e-01</leafValues></_>
        <_>
          <internalNodes>
            0 -1 337 -3.6982763558626175e-03</internalNodes>
          <leafValues>
            1.5118478238582611e-01 -4.7247773408889771e-01</leafValues></_>
        <_>
          <internalNodes>
            0 -1 12 4.7505274415016174e-03</internalNodes>
          <leafValues>
            -1.9350968301296234e-01 3.1137076020240784e-01</leafValues></_>
        <_>
          <internalNodes>
            0 -1 480 2.6668079663068056e-03</internalNodes>
          <leafValues>
            1.2990352511405945e-01 -5.6191390752792358e-01</leafValues></_>
        <_>
          <internalNodes>
            0 -1 275 -4.1163088753819466e-03</internalNodes>
          <leafValues>
            6.0608243942260742e-01 -1.0923124104738235e-01</leafValues></_>
        <_>
          <internalNodes>
            0 -1 484 -2.9271017410792410e-04</internalNodes>
          <leafValues>
            -4.4123461842536926e-01 1.1926534771919250e-01</leafValues></_>
        <_>
          <internalNodes>
            0 -1 356 1.3248743489384651e-03</internalNodes>
          <leafValues>
            -2.2864970564842224e-01 2.3967799544334412e-01</leafValues></_>
        <_>
          <internalNodes>
            0 -1 293 -2.3638323909835890e-05</internalNodes>
          <leafValues>
            8.9675880968570709e-02 -6.3205367326736450e-01</leafValues></_>
        <_>
          <internalNodes>
            0 -1 413 -5.2515882998704910e-03</internalNodes>
          <leafValues>
            3.1602379679679871e-01 -1.7460647225379944e-01</leafValues></_>
        <_>
          <internalNodes>
            0 -1 230 -4.1375617729499936e-04</internalNodes>
          <leafValues>
            -4.7711336612701416e-01 1.0994159430265427e-01</leafValues></_>
        <_>
          <internalNodes>
            0 -1 508 -2.3456853814423084e-03</internalNodes>
          <leafValues>
            2.6175239682197571e-01 -1.9574926793575287e-01</leafValues></_>
        <_>
          <internalNodes>
            0 -1 476 -6.4313877373933792e-04</internalNodes>
          <leafValues>
            -4.1861325502395630e-01 1.1755919456481934e-01</leafValues></_>
        <_>
          <internalNodes>
            0 -1 417 -5.6362804025411606e-03</internalNodes>
          <leafValues>
            8.0809283256530762e-01 -6.9220416247844696e-02</leafValues></_>
        <_>
          <internalNodes>
            0 -1 463 -1.1460054665803909e-03</internalNodes>
          <leafValues>
            4.0635013580322266e-01 -1.1389627307653427e-01</leafValues></_>
        <_>
          <internalNodes>
            0 -1 253 -2.6251082308590412e-03</internalNodes>
          <leafValues>
            3.7575036287307739e-01 -1.2664867937564850e-01</leafValues></_>
        <_>
          <internalNodes>
            0 -1 412 7.5475990772247314e-02</internalNodes>
          <leafValues>
            1.2201178818941116e-01 -4.0644654631614685e-01</leafValues></_>
        <_>
          <internalNodes>
            0 -1 14 -1.5123791992664337e-01</internalNodes>
          <leafValues>
            -6.0101163387298584e-01 9.5144219696521759e-02</leafValues></_>
        <_>
          <internalNodes>
            0 -1 153 -2.5265086442232132e-03</internalNodes>
          <leafValues>
            6.2020999193191528e-01 -9.2461526393890381e-02</leafValues></_>
        <_>
          <internalNodes>
            0 -1 511 -5.2092183614149690e-04</internalNodes>
          <leafValues>
            2.3179490864276886e-01 -2.1350038051605225e-01</leafValues></_>
        <_>
          <internalNodes>
            0 -1 282 -4.9858735874295235e-03</internalNodes>
          <leafValues>
            5.0239270925521851e-01 -1.1063792556524277e-01</leafValues></_>
        <_>
          <internalNodes>
            0 -1 214 2.4285979568958282e-02</internalNodes>
          <leafValues>
            8.1088557839393616e-02 -7.2769683599472046e-01</leafValues></_>
        <_>
          <internalNodes>
            0 -1 62 -6.8506568670272827e-02</internalNodes>
          <leafValues>
            3.6270600557327271e-01 -1.4807042479515076e-01</leafValues></_>
        <_>
          <internalNodes>
            0 -1 165 -3.3476585522294044e-03</internalNodes>
          <leafValues>
            2.4164409935474396e-01 -2.1834518015384674e-01</leafValues></_>
        <_>
          <internalNodes>
            0 -1 148 7.8055239282548428e-04</internalNodes>
          <leafValues>
            1.4674107730388641e-01 -3.2917237281799316e-01</leafValues></_>
        <_>
          <internalNodes>
            0 -1 454 -1.7658593133091927e-03</internalNodes>
          <leafValues>
            -6.0055994987487793e-01 7.9690322279930115e-02</leafValues></_>
        <_>
          <internalNodes>
            0 -1 539 -1.0080260224640369e-02</internalNodes>
          <leafValues>
            3.1225213408470154e-01 -1.6365541517734528e-01</leafValues></_>
        <_>
          <internalNodes>
            0 -1 437 -2.3045190609991550e-03</internalNodes>
          <leafValues>
            4.3786841630935669e-01 -1.1651086807250977e-01</leafValues></_>
        <_>
          <internalNodes>
            0 -1 223 -1.3561477884650230e-02</internalNodes>
          <leafValues>
            -8.7242746353149414e-01 6.0883939266204834e-02</leafValues></_>
        <_>
          <internalNodes>
            0 -1 1 1.5544243156909943e-02</internalNodes>
          <leafValues>
            -1.7656327784061432e-01 2.9337349534034729e-01</leafValues></_>
        <_>
          <internalNodes>
            0 -1 13 -1.3806627131998539e-02</internalNodes>
          <leafValues>
            3.6725613474845886e-01 -1.4923699200153351e-01</leafValues></_>
        <_>
          <internalNodes>
            0 -1 221 1.2616725871339440e-04</internalNodes>
          <leafValues>
            1.4722414314746857e-01 -3.3812204003334045e-01</leafValues></_>
        <_>
          <internalNodes>
            0 -1 161 -2.7143185958266258e-02</internalNodes>
          <leafValues>
            -7.6816576719284058e-01 6.0130186378955841e-02</leafValues></_>
        <_>
          <internalNodes>
            0 -1 256 5.3231022320687771e-05</internalNodes>
          <leafValues>
            1.3604736328125000e-01 -3.5042840242385864e-01</leafValues></_>
        <_>
          <internalNodes>
            0 -1 74 -6.4652031287550926e-03</internalNodes>
          <leafValues>
            -5.5119144916534424e-01 8.8604420423507690e-02</leafValues></_></weakClassifiers></_>
    <!-- stage 10 -->
    <_>
      <maxWeakCount>32</maxWeakCount>
      <stageThreshold>-1.5883986949920654e+00</stageThreshold>
      <weakClassifiers>
        <_>
          <internalNodes>
            0 -1 325 8.1890560686588287e-03</internalNodes>
          <leafValues>
            -4.7218737006187439e-01 2.1182265877723694e-01</leafValues></_>
        <_>
          <internalNodes>
            0 -1 432 -6.1647882685065269e-03</internalNodes>
          <leafValues>
            2.9771691560745239e-01 -2.9552704095840454e-01</leafValues></_>
        <_>
          <internalNodes>
            0 -1 385 -3.6613307893276215e-03</internalNodes>
          <leafValues>
            5.9676510095596313e-01 -1.1203763633966446e-01</leafValues></_>
        <_>
          <internalNodes>
            0 -1 385 4.3305498547852039e-03</internalNodes>
          <leafValues>
            -1.0053061693906784e-01 6.4105039834976196e-01</leafValues></_>
        <_>
          <internalNodes>
            0 -1 188 -5.9748739004135132e-03</internalNodes>
          <leafValues>
            3.2367128133773804e-01 -1.9652837514877319e-01</leafValues></_>
        <_>
          <internalNodes>
            0 -1 514 -6.3745758961886168e-04</internalNodes>
          <leafValues>
            -4.6300408244132996e-01 1.2200228124856949e-01</leafValues></_>
        <_>
          <internalNodes>
            0 -1 37 -1.3262780848890543e-03</internalNodes>
          <leafValues>
            1.9848553836345673e-01 -2.9523116350173950e-01</leafValues></_>
        <_>
          <internalNodes>
            0 -1 500 -3.8255475461483002e-02</internalNodes>
          <leafValues>
            -6.9673490524291992e-01 7.0256896317005157e-02</leafValues></_>
        <_>
          <internalNodes>
            0 -1 434 -4.7964788973331451e-02</internalNodes>
          <leafValues>
            -4.4209203124046326e-01 1.2605401873588562e-01</leafValues></_>
        <_>
          <internalNodes>
            0 -1 9 3.8008302450180054e-02</internalNodes>
          <leafValues>
            -1.3574776053428650e-01 4.1145530343055725e-01</leafValues></_>
        <_>
          <internalNodes>
            0 -1 485 -5.1159420982003212e-03</internalNodes>
          <leafValues>
            4.0512764453887939e-01 -1.1952704936265945e-01</leafValues></_>
        <_>
          <internalNodes>
            0 -1 465 -2.7768423315137625e-03</internalNodes>
          <leafValues>
            3.4360235929489136e-01 -1.7167876660823822e-01</leafValues></_>
        <_>
          <internalNodes>
            0 -1 481 5.0117610953748226e-04</internalNodes>
          <leafValues>
            1.2454396486282349e-01 -4.9084940552711487e-01</leafValues></_>
        <_>
          <internalNodes>
            0 -1 180 1.0660347761586308e-03</internalNodes>
          <leafValues>
            -1.4186976850032806e-01 4.1511425375938416e-01</leafValues></_>
        <_>
          <internalNodes>
            0 -1 332 -3.1294794753193855e-03</internalNodes>
          <leafValues>
            9.5711171627044678e-02 -5.3634732961654663e-01</leafValues></_>
        <_>
          <internalNodes>
            0 -1 34 1.5168858226388693e-03</internalNodes>
          <leafValues>
            1.1413257569074631e-01 -4.3950638175010681e-01</leafValues></_>
        <_>
          <internalNodes>
            0 -1 501 2.0845590624958277e-03</internalNodes>
          <leafValues>
            -1.0244989395141602e-01 5.4129546880722046e-01</leafValues></_>
        <_>
          <internalNodes>
            0 -1 428 -8.7925174739211798e-04</internalNodes>
          <leafValues>
            -5.6177175045013428e-01 1.0619870573282242e-01</leafValues></_>
        <_>
          <internalNodes>
            0 -1 180 -8.0318155232816935e-04</internalNodes>
          <leafValues>
            3.2695019245147705e-01 -1.5526144206523895e-01</leafValues></_>
        <_>
          <internalNodes>
            0 -1 3 4.6232184395194054e-03</internalNodes>
          <leafValues>
            -3.2896158099174500e-01 1.3646422326564789e-01</leafValues></_>
        <_>
          <internalNodes>
            0 -1 23 4.3284758925437927e-02</internalNodes>
          <leafValues>
            5.5067937821149826e-02 -8.7922322750091553e-01</leafValues></_>
        <_>
          <internalNodes>
            0 -1 368 -3.3935792744159698e-03</internalNodes>
          <leafValues>
            5.3329300880432129e-01 -9.8234146833419800e-02</leafValues></_>
        <_>
          <internalNodes>
            0 -1 479 -2.8542713262140751e-03</internalNodes>
          <leafValues>
            -6.0093557834625244e-01 7.6825410127639771e-02</leafValues></_>
        <_>
          <internalNodes>
            0 -1 28 -5.8382279239594936e-03</internalNodes>
          <leafValues>
            1.6507314145565033e-01 -2.7944782376289368e-01</leafValues></_>
        <_>
          <internalNodes>
            0 -1 394 5.2019269205629826e-03</internalNodes>
          <leafValues>
            -5.9305861592292786e-02 7.2503483295440674e-01</leafValues></_>
        <_>
          <internalNodes>
            0 -1 367 5.1340130157768726e-03</internalNodes>
          <leafValues>
            -6.5744131803512573e-01 7.5502641499042511e-02</leafValues></_>
        <_>
          <internalNodes>
            0 -1 98 8.8101495057344437e-03</internalNodes>
          <leafValues>
            -1.5736134350299835e-01 3.2536318898200989e-01</leafValues></_>
        <_>
          <internalNodes>
            0 -1 129 -7.2851460427045822e-03</internalNodes>
          <leafValues>
            5.1228165626525879e-01 -1.2694983184337616e-01</leafValues></_>
        <_>
          <internalNodes>
            0 -1 532 -7.3405904695391655e-03</internalNodes>
          <leafValues>
            2.4065214395523071e-01 -1.8311068415641785e-01</leafValues></_>
        <_>
          <internalNodes>
            0 -1 31 -7.6720872893929482e-03</internalNodes>
          <leafValues>
            -6.0531872510910034e-01 7.3466457426548004e-02</leafValues></_>
        <_>
          <internalNodes>
            0 -1 279 1.8336338922381401e-02</internalNodes>
          <leafValues>
            4.3516874313354492e-02 -8.5223037004470825e-01</leafValues></_>
        <_>
          <internalNodes>
            0 -1 241 3.5427617840468884e-03</internalNodes>
          <leafValues>
            -1.4123447239398956e-01 3.4392982721328735e-01</leafValues></_></weakClassifiers></_>
    <!-- stage 11 -->
    <_>
      <maxWeakCount>38</maxWeakCount>
      <stageThreshold>-1.6890877485275269e+00</stageThreshold>
      <weakClassifiers>
        <_>
          <internalNodes>
            0 -1 324 9.6859699115157127e-03</internalNodes>
          <leafValues>
            -4.2923077940940857e-01 2.8999999165534973e-01</leafValues></_>
        <_>
          <internalNodes>
            0 -1 24 1.5938602387905121e-02</internalNodes>
          <leafValues>
            -2.9295617341995239e-01 2.4339234828948975e-01</leafValues></_>
        <_>
          <internalNodes>
            0 -1 498 -3.1177867203950882e-03</internalNodes>
          <leafValues>
            2.7935987710952759e-01 -2.1926176548004150e-01</leafValues></_>
        <_>
          <internalNodes>
            0 -1 273 -2.5825565680861473e-03</internalNodes>
          <leafValues>
            4.6058988571166992e-01 -1.1679902672767639e-01</leafValues></_>
        <_>
          <internalNodes>
            0 -1 176 1.7311391420662403e-03</internalNodes>
          <leafValues>
            -2.1078589558601379e-01 2.5227901339530945e-01</leafValues></_>
        <_>
          <internalNodes>
            0 -1 309 5.8091955725103617e-04</internalNodes>
          <leafValues>
            8.4696069359779358e-02 -6.5022379159927368e-01</leafValues></_>
        <_>
          <internalNodes>
            0 -1 280 -2.3203184828162193e-03</internalNodes>
          <leafValues>
            2.9228791594505310e-01 -1.7635515332221985e-01</leafValues></_>
        <_>
          <internalNodes>
            0 -1 268 1.4046727446839213e-03</internalNodes>
          <leafValues>
            -3.3822274208068848e-01 1.7444263398647308e-01</leafValues></_>
        <_>
          <internalNodes>
            0 -1 365 -5.2479547448456287e-03</internalNodes>
          <leafValues>
            2.5569489598274231e-01 -2.1439349651336670e-01</leafValues></_>
        <_>
          <internalNodes>
            0 -1 298 -5.1852753385901451e-03</internalNodes>
          <leafValues>
            -6.3901883363723755e-01 9.0906061232089996e-02</leafValues></_>
        <_>
          <internalNodes>
            0 -1 70 8.6241839453577995e-03</internalNodes>
          <leafValues>
            1.0643239319324493e-01 -4.3322730064392090e-01</leafValues></_>
        <_>
          <internalNodes>
            0 -1 315 -2.4933116510510445e-03</internalNodes>
          <leafValues>
            6.5328019857406616e-01 -8.5335493087768555e-02</leafValues></_>
        <_>
          <internalNodes>
            0 -1 113 -8.8775642216205597e-03</internalNodes>
          <leafValues>
            -6.9412809610366821e-01 8.4042437374591827e-02</leafValues></_>
        <_>
          <internalNodes>
            0 -1 331 -9.6734166145324707e-03</internalNodes>
          <leafValues>
            9.9091157317161560e-02 -4.4235017895698547e-01</leafValues></_>
        <_>
          <internalNodes>
            0 -1 105 6.6105075180530548e-02</internalNodes>
          <leafValues>
            -1.0181002318859100e-01 5.6434291601181030e-01</leafValues></_>
        <_>
          <internalNodes>
            0 -1 364 -1.7834721802501008e-05</internalNodes>
          <leafValues>
            1.9394113123416901e-01 -2.6495108008384705e-01</leafValues></_>
        <_>
          <internalNodes>
            0 -1 109 -3.8735877722501755e-02</internalNodes>
          <leafValues>
            -5.9210944175720215e-01 8.2188047468662262e-02</leafValues></_>
        <_>
          <internalNodes>
            0 -1 289 -5.5080596357584000e-03</internalNodes>
          <leafValues>
            3.8978454470634460e-01 -1.2764106690883636e-01</leafValues></_>
        <_>
          <internalNodes>
            0 -1 291 -5.0608327001100406e-05</internalNodes>
          <leafValues>
            1.4037859439849854e-01 -3.4015643596649170e-01</leafValues></_>
        <_>
          <internalNodes>
            0 -1 552 2.1139290183782578e-03</internalNodes>
          <leafValues>
            -8.1317327916622162e-02 5.6007206439971924e-01</leafValues></_>
        <_>
          <internalNodes>
            0 -1 166 -1.2420938583090901e-04</internalNodes>
          <leafValues>
            2.1658279001712799e-01 -2.1386131644248962e-01</leafValues></_>
        <_>
          <internalNodes>
            0 -1 308 -9.9018355831503868e-04</internalNodes>
          <leafValues>
            -5.6096023321151733e-01 7.9375937581062317e-02</leafValues></_>
        <_>
          <internalNodes>
            0 -1 154 1.4229310676455498e-02</internalNodes>
          <leafValues>
            -1.0336802899837494e-01 5.3472930192947388e-01</leafValues></_>
        <_>
          <internalNodes>
            0 -1 439 2.0575663074851036e-03</internalNodes>
          <leafValues>
            -8.1119664013385773e-02 5.1918011903762817e-01</leafValues></_>
        <_>
          <internalNodes>
            0 -1 439 -1.7188531346619129e-03</internalNodes>
          <leafValues>
            4.5837843418121338e-01 -1.0423205792903900e-01</leafValues></_>
        <_>
          <internalNodes>
            0 -1 392 3.3662959933280945e-02</internalNodes>
          <leafValues>
            -1.8984369933605194e-01 2.6469424366950989e-01</leafValues></_>
        <_>
          <internalNodes>
            0 -1 251 -3.0314449220895767e-02</internalNodes>
          <leafValues>
            -7.7150839567184448e-01 6.1089195311069489e-02</leafValues></_>
        <_>
          <internalNodes>
            0 -1 136 4.4098505750298500e-03</internalNodes>
          <leafValues>
            -1.0298752784729004e-01 4.8387968540191650e-01</leafValues></_>
        <_>
          <internalNodes>
            0 -1 135 -5.1901699043810368e-04</internalNodes>
          <leafValues>
            2.5535395741462708e-01 -1.7593215405941010e-01</leafValues></_>
        <_>
          <internalNodes>
            0 -1 393 7.6449140906333923e-03</internalNodes>
          <leafValues>
            7.6123148202896118e-02 -6.1105221509933472e-01</leafValues></_>
        <_>
          <internalNodes>
            0 -1 92 -8.4888830315321684e-04</internalNodes>
          <leafValues>
            1.6965815424919128e-01 -2.6351946592330933e-01</leafValues></_>
        <_>
          <internalNodes>
            0 -1 118 -1.2856001034379005e-02</internalNodes>
          <leafValues>
            6.2337958812713623e-01 -8.2833014428615570e-02</leafValues></_>
        <_>
          <internalNodes>
            0 -1 372 -5.7716490700840950e-03</internalNodes>
          <leafValues>
            3.4190928936004639e-01 -1.3065232336521149e-01</leafValues></_>
        <_>
          <internalNodes>
            0 -1 374 -2.0569337066262960e-03</internalNodes>
          <leafValues>
            4.5134389400482178e-01 -1.1518233269453049e-01</leafValues></_>
        <_>
          <internalNodes>
            0 -1 409 7.2612299118191004e-04</internalNodes>
          <leafValues>
            1.7036639153957367e-01 -2.9811680316925049e-01</leafValues></_>
        <_>
          <internalNodes>
            0 -1 238 -6.8136588670313358e-03</internalNodes>
          <leafValues>
            2.2816313803195953e-01 -1.9887030124664307e-01</leafValues></_>
        <_>
          <internalNodes>
            0 -1 540 1.0529258288443089e-03</internalNodes>
          <leafValues>
            1.1739929020404816e-01 -4.0034085512161255e-01</leafValues></_>
        <_>
          <internalNodes>
            0 -1 474 3.9234924770426005e-05</internalNodes>
          <leafValues>
            -1.8595461547374725e-01 2.3197309672832489e-01</leafValues></_></weakClassifiers></_>
    <!-- stage 12 -->
    <_>
      <maxWeakCount>43</maxWeakCount>
      <stageThreshold>-1.6774325370788574e+00</stageThreshold>
      <weakClassifiers>
        <_>
          <internalNodes>
            0 -1 75 1.4519077725708485e-02</internalNodes>
          <leafValues>
            -4.9386212229728699e-01 5.2154194563627243e-02</leafValues></_>
        <_>
          <internalNodes>
            0 -1 80 1.6248622536659241e-01</internalNodes>
          <leafValues>
            -1.7200608551502228e-01 3.6199206113815308e-01</leafValues></_>
        <_>
          <internalNodes>
            0 -1 205 -2.3853381571825594e-04</internalNodes>
          <leafValues>
            1.9174142181873322e-01 -3.0420145392417908e-01</leafValues></_>
        <_>
          <internalNodes>
            0 -1 69 -1.0256994515657425e-02</internalNodes>
          <leafValues>
            1.3123272359371185e-01 -3.6769548058509827e-01</leafValues></_>
        <_>
          <internalNodes>
            0 -1 353 7.0196986198425293e-03</internalNodes>
          <leafValues>
            -1.5129315853118896e-01 2.8539919853210449e-01</leafValues></_>
        <_>
          <internalNodes>
            0 -1 545 -3.1427110079675913e-03</internalNodes>
          <leafValues>
            5.1061242818832397e-01 -1.1909673362970352e-01</leafValues></_>
        <_>
          <internalNodes>
            0 -1 264 4.8859240487217903e-03</internalNodes>
          <leafValues>
            1.2008088827133179e-01 -3.9499586820602417e-01</leafValues></_>
        <_>
          <internalNodes>
            0 -1 132 -2.1661706268787384e-03</internalNodes>
          <leafValues>
            5.1478594541549683e-01 -9.7573541104793549e-02</leafValues></_>
        <_>
          <internalNodes>
            0 -1 144 3.4498209133744240e-03</internalNodes>
          <leafValues>
            -6.2922281026840210e-01 9.1784000396728516e-02</leafValues></_>
        <_>
          <internalNodes>
            0 -1 297 -3.0032447539269924e-03</internalNodes>
          <leafValues>
            4.8486179113388062e-01 -1.0804131627082825e-01</leafValues></_>
        <_>
          <internalNodes>
            0 -1 453 5.0674448721110821e-04</internalNodes>
          <leafValues>
            1.0115333646535873e-01 -4.9857997894287109e-01</leafValues></_>
        <_>
          <internalNodes>
            0 -1 334 3.7716748192906380e-03</internalNodes>
          <leafValues>
            -7.0191927254199982e-02 6.7624151706695557e-01</leafValues></_>
        <_>
          <internalNodes>
            0 -1 326 -3.0248542316257954e-03</internalNodes>
          <leafValues>
            3.4924468398094177e-01 -1.1097490042448044e-01</leafValues></_>
        <_>
          <internalNodes>
            0 -1 521 -6.3979122787714005e-03</internalNodes>
          <leafValues>
            2.2295345366001129e-01 -1.9194389879703522e-01</leafValues></_>
        <_>
          <internalNodes>
            0 -1 452 -2.8165839612483978e-03</internalNodes>
          <leafValues>
            -6.9362229108810425e-01 7.6751954853534698e-02</leafValues></_>
        <_>
          <internalNodes>
            0 -1 140 -1.4317402929009404e-05</internalNodes>
          <leafValues>
            1.2132206559181213e-01 -3.0383628606796265e-01</leafValues></_>
        <_>
          <internalNodes>
            0 -1 333 1.4275888679549098e-04</internalNodes>
          <leafValues>
            1.8128670752048492e-01 -2.2117905318737030e-01</leafValues></_>
        <_>
          <internalNodes>
            0 -1 42 9.6042006043717265e-04</internalNodes>
          <leafValues>
            -2.3540547490119934e-01 1.7469570040702820e-01</leafValues></_>
        <_>
          <internalNodes>
            0 -1 49 9.7626149654388428e-02</internalNodes>
          <leafValues>
            1.1648439615964890e-01 -4.0226483345031738e-01</leafValues></_>
        <_>
          <internalNodes>
            0 -1 301 7.8917527571320534e-04</internalNodes>
          <leafValues>
            6.9352641701698303e-02 -6.0809296369552612e-01</leafValues></_>
        <_>
          <internalNodes>
            0 -1 297 3.2565640285611153e-03</internalNodes>
          <leafValues>
            -9.6419416368007660e-02 4.9700316786766052e-01</leafValues></_>
        <_>
          <internalNodes>
            0 -1 274 -5.2996780723333359e-03</internalNodes>
          <leafValues>
            3.1178089976310730e-01 -1.2940323352813721e-01</leafValues></_>
        <_>
          <internalNodes>
            0 -1 211 1.2906588381156325e-03</internalNodes>
          <leafValues>
            -1.5664407610893250e-01 2.7950385212898254e-01</leafValues></_>
        <_>
          <internalNodes>
            0 -1 260 -3.4040324389934540e-03</internalNodes>
          <leafValues>
            -7.7669090032577515e-01 5.4783452302217484e-02</leafValues></_>
        <_>
          <internalNodes>
            0 -1 322 -3.2416568137705326e-03</internalNodes>
          <leafValues>
            4.5923969149589539e-01 -1.0229196399450302e-01</leafValues></_>
        <_>
          <internalNodes>
            0 -1 519 2.4521827697753906e-02</internalNodes>
          <leafValues>
            -4.8866271972656250e-02 8.2175302505493164e-01</leafValues></_>
        <_>
          <internalNodes>
            0 -1 484 3.1379877327708527e-05</internalNodes>
          <leafValues>
            -1.7536780238151550e-01 2.3456393182277679e-01</leafValues></_>
        <_>
          <internalNodes>
            0 -1 423 8.8143814355134964e-03</internalNodes>
          <leafValues>
            -2.1833026409149170e-01 1.9529677927494049e-01</leafValues></_>
        <_>
          <internalNodes>
            0 -1 395 -5.4529741406440735e-02</internalNodes>
          <leafValues>
            3.9606878161430359e-01 -1.1897641420364380e-01</leafValues></_>
        <_>
          <internalNodes>
            0 -1 207 -3.6000648979097605e-03</internalNodes>
          <leafValues>
            2.4314749240875244e-01 -1.6663563251495361e-01</leafValues></_>
        <_>
          <internalNodes>
            0 -1 44 -1.3405708596110344e-03</internalNodes>
          <leafValues>
            -4.9279490113258362e-01 8.7887972593307495e-02</leafValues></_>
        <_>
          <internalNodes>
            0 -1 121 -2.5321006774902344e-01</internalNodes>
          <leafValues>
            -9.5715647935867310e-01 3.3029552549123764e-02</leafValues></_>
        <_>
          <internalNodes>
            0 -1 242 -3.1447071582078934e-02</internalNodes>
          <leafValues>
            -4.6823665499687195e-01 7.2851188480854034e-02</leafValues></_>
        <_>
          <internalNodes>
            0 -1 194 -1.9230332691222429e-04</internalNodes>
          <leafValues>
            -3.0313056707382202e-01 1.3201430439949036e-01</leafValues></_>
        <_>
          <internalNodes>
            0 -1 164 -4.0404191240668297e-03</internalNodes>
          <leafValues>
            2.0137409865856171e-01 -2.0417386293411255e-01</leafValues></_>
        <_>
          <internalNodes>
            0 -1 213 3.0436322093009949e-02</internalNodes>
          <leafValues>
            4.5126937329769135e-02 -8.2290697097778320e-01</leafValues></_>
        <_>
          <internalNodes>
            0 -1 493 5.1413676701486111e-03</internalNodes>
          <leafValues>
            -1.2914042174816132e-01 3.2955771684646606e-01</leafValues></_>
        <_>
          <internalNodes>
            0 -1 225 6.0921136289834976e-02</internalNodes>
          <leafValues>
            4.5133884996175766e-02 -9.2517447471618652e-01</leafValues></_>
        <_>
          <internalNodes>
            0 -1 477 5.6010362459346652e-04</internalNodes>
          <leafValues>
            8.8346548378467560e-02 -3.9076229929924011e-01</leafValues></_>
        <_>
          <internalNodes>
            0 -1 57 1.1511923745274544e-02</internalNodes>
          <leafValues>
            -6.3690997660160065e-02 6.6367948055267334e-01</leafValues></_>
        <_>
          <internalNodes>
            0 -1 461 1.0595366358757019e-02</internalNodes>
          <leafValues>
            -9.2607550323009491e-02 3.7277394533157349e-01</leafValues></_>
        <_>
          <internalNodes>
            0 -1 491 -2.8908483684062958e-02</internalNodes>
          <leafValues>
            -4.8685213923454285e-01 8.6156487464904785e-02</leafValues></_>
        <_>
          <internalNodes>
            0 -1 186 -1.3923697173595428e-02</internalNodes>
          <leafValues>
            -5.8744215965270996e-01 6.3700728118419647e-02</leafValues></_></weakClassifiers></_>
    <!-- stage 13 -->
    <_>
      <maxWeakCount>45</maxWeakCount>
      <stageThreshold>-1.7266920804977417e+00</stageThreshold>
      <weakClassifiers>
        <_>
          <internalNodes>
            0 -1 73 3.9245747029781342e-03</internalNodes>
          <leafValues>
            -5.5090498924255371e-01 -2.1103896200656891e-02</leafValues></_>
        <_>
          <internalNodes>
            0 -1 125 4.3520011007785797e-02</internalNodes>
          <leafValues>
            -2.2841778397560120e-01 2.7022421360015869e-01</leafValues></_>
        <_>
          <internalNodes>
            0 -1 548 4.9493899568915367e-03</internalNodes>
          <leafValues>
            -1.4352856576442719e-01 3.5162469744682312e-01</leafValues></_>
        <_>
          <internalNodes>
            0 -1 85 -8.2606971263885498e-02</internalNodes>
          <leafValues>
            1.3128705322742462e-01 -3.1884294748306274e-01</leafValues></_>
        <_>
          <internalNodes>
            0 -1 187 8.6097680032253265e-03</internalNodes>
          <leafValues>
            -6.5845608711242676e-02 5.1535034179687500e-01</leafValues></_>
        <_>
          <internalNodes>
            0 -1 217 -7.8848935663700104e-03</internalNodes>
          <leafValues>
            5.2162009477615356e-01 -9.6999108791351318e-02</leafValues></_>
        <_>
          <internalNodes>
            0 -1 531 8.4879552014172077e-04</internalNodes>
          <leafValues>
            9.5742546021938324e-02 -4.1370889544487000e-01</leafValues></_>
        <_>
          <internalNodes>
            0 -1 19 -7.6643942156806588e-04</internalNodes>
          <leafValues>
            3.7491175532341003e-01 -1.1522682011127472e-01</leafValues></_>
        <_>
          <internalNodes>
            0 -1 496 -2.3604058660566807e-03</internalNodes>
          <leafValues>
            4.6672520041465759e-01 -1.0587646812200546e-01</leafValues></_>
        <_>
          <internalNodes>
            0 -1 192 -2.0201059058308601e-02</internalNodes>
          <leafValues>
            -8.8484430313110352e-01 6.8082019686698914e-02</leafValues></_>
        <_>
          <internalNodes>
            0 -1 182 1.5242049470543861e-02</internalNodes>
          <leafValues>
            4.5675769448280334e-02 -6.1941403150558472e-01</leafValues></_>
        <_>
          <internalNodes>
            0 -1 339 -1.3351268135011196e-03</internalNodes>
          <leafValues>
            2.6088118553161621e-01 -1.5333041548728943e-01</leafValues></_>
        <_>
          <internalNodes>
            0 -1 379 1.8938304856419563e-03</internalNodes>
          <leafValues>
            9.3252606689929962e-02 -3.9216172695159912e-01</leafValues></_>
        <_>
          <internalNodes>
            0 -1 506 -1.5854344237595797e-03</internalNodes>
          <leafValues>
            2.2242261469364166e-01 -1.7918720841407776e-01</leafValues></_>
        <_>
          <internalNodes>
            0 -1 420 -1.8555421847850084e-03</internalNodes>
          <leafValues>
            1.7423859238624573e-01 -2.1848610043525696e-01</leafValues></_>
        <_>
          <internalNodes>
            0 -1 518 -2.7149093803018332e-03</internalNodes>
          <leafValues>
            5.8354383707046509e-01 -7.1965821087360382e-02</leafValues></_>
        <_>
          <internalNodes>
            0 -1 139 -5.3272473451215774e-05</internalNodes>
          <leafValues>
            1.6645488142967224e-01 -2.5443208217620850e-01</leafValues></_>
        <_>
          <internalNodes>
            0 -1 309 4.8388243885710835e-04</internalNodes>
          <leafValues>
            5.8597259223461151e-02 -5.5150622129440308e-01</leafValues></_>
        <_>
          <internalNodes>
            0 -1 321 1.0658977553248405e-02</internalNodes>
          <leafValues>
            7.5471289455890656e-02 -4.6069449186325073e-01</leafValues></_>
        <_>
          <internalNodes>
            0 -1 81 -7.4320212006568909e-03</internalNodes>
          <leafValues>
            4.0052211284637451e-01 -1.0876405984163284e-01</leafValues></_>
        <_>
          <internalNodes>
            0 -1 102 4.8109060153365135e-03</internalNodes>
          <leafValues>
            -6.0175359249114990e-02 6.7238026857376099e-01</leafValues></_>
        <_>
          <internalNodes>
            0 -1 408 -4.1253343224525452e-03</internalNodes>
          <leafValues>
            4.0476623177528381e-01 -8.8457748293876648e-02</leafValues></_>
        <_>
          <internalNodes>
            0 -1 405 -7.3662521317601204e-03</internalNodes>
          <leafValues>
            -6.4479988813400269e-01 7.0833966135978699e-02</leafValues></_>
        <_>
          <internalNodes>
            0 -1 175 -8.3606503903865814e-04</internalNodes>
          <leafValues>
            3.4926572442054749e-01 -1.1865457147359848e-01</leafValues></_>
        <_>
          <internalNodes>
            0 -1 145 6.8842098116874695e-03</internalNodes>
          <leafValues>
            6.6883347928524017e-02 -6.6387760639190674e-01</leafValues></_>
        <_>
          <internalNodes>
            0 -1 366 -5.6798895820975304e-03</internalNodes>
          <leafValues>
            2.8904002904891968e-01 -1.3123039901256561e-01</leafValues></_>
        <_>
          <internalNodes>
            0 -1 400 -5.0066644325852394e-04</internalNodes>
          <leafValues>
            8.7968751788139343e-02 -4.2931076884269714e-01</leafValues></_>
        <_>
          <internalNodes>
            0 -1 402 3.7479729508049786e-04</internalNodes>
          <leafValues>
            6.7667528986930847e-02 -5.4746103286743164e-01</leafValues></_>
        <_>
          <internalNodes>
            0 -1 411 -1.9803805276751518e-02</internalNodes>
          <leafValues>
            4.8417103290557861e-01 -8.2408219575881958e-02</leafValues></_>
        <_>
          <internalNodes>
            0 -1 517 -7.0282788947224617e-03</internalNodes>
          <leafValues>
            3.4445858001708984e-01 -1.0792964696884155e-01</leafValues></_>
        <_>
          <internalNodes>
            0 -1 528 -2.1147689039935358e-05</internalNodes>
          <leafValues>
            1.8244737386703491e-01 -2.2277429699897766e-01</leafValues></_>
        <_>
          <internalNodes>
            0 -1 46 4.4384952634572983e-03</internalNodes>
          <leafValues>
            -6.2447316944599152e-02 6.1371785402297974e-01</leafValues></_>
        <_>
          <internalNodes>
            0 -1 549 1.1311030248180032e-03</internalNodes>
          <leafValues>
            8.6557105183601379e-02 -4.9373146891593933e-01</leafValues></_>
        <_>
          <internalNodes>
            0 -1 327 5.3322389721870422e-03</internalNodes>
          <leafValues>
            -9.4043716788291931e-02 4.3832042813301086e-01</leafValues></_>
        <_>
          <internalNodes>
            0 -1 122 2.1116468997206539e-04</internalNodes>
          <leafValues>
            1.4618477225303650e-01 -2.6093438267707825e-01</leafValues></_>
        <_>
          <internalNodes>
            0 -1 507 -6.2017957679927349e-03</internalNodes>
          <leafValues>
            2.0080718398094177e-01 -2.0042714476585388e-01</leafValues></_>
        <_>
          <internalNodes>
            0 -1 240 -2.5978591293096542e-03</internalNodes>
          <leafValues>
            3.4970524907112122e-01 -1.0602378100156784e-01</leafValues></_>
        <_>
          <internalNodes>
            0 -1 354 -1.2705186381936073e-03</internalNodes>
          <leafValues>
            2.9029542207717896e-01 -1.5651810169219971e-01</leafValues></_>
        <_>
          <internalNodes>
            0 -1 270 -1.7073197290301323e-02</internalNodes>
          <leafValues>
            -6.4291602373123169e-01 6.1456564813852310e-02</leafValues></_>
        <_>
          <internalNodes>
            0 -1 243 1.2251686304807663e-02</internalNodes>
          <leafValues>
            5.7010952383279800e-02 -5.7705640792846680e-01</leafValues></_>
        <_>
          <internalNodes>
            0 -1 119 -1.4385113492608070e-02</internalNodes>
          <leafValues>
            4.3874061107635498e-01 -9.2926874756813049e-02</leafValues></_>
        <_>
          <internalNodes>
            0 -1 450 5.8923789765685797e-04</internalNodes>
          <leafValues>
            8.9114286005496979e-02 -4.4934651255607605e-01</leafValues></_>
        <_>
          <internalNodes>
            0 -1 153 1.2290128506720066e-03</internalNodes>
          <leafValues>
            -1.0605923086404800e-01 3.7179383635520935e-01</leafValues></_>
        <_>
          <internalNodes>
            0 -1 153 -2.5395078118890524e-03</internalNodes>
          <leafValues>
            5.2841007709503174e-01 -7.8271441161632538e-02</leafValues></_>
        <_>
          <internalNodes>
            0 -1 350 -2.2178485523909330e-03</internalNodes>
          <leafValues>
            -3.4763234853744507e-01 1.1455770581960678e-01</leafValues></_></weakClassifiers></_>
    <!-- stage 14 -->
    <_>
      <maxWeakCount>45</maxWeakCount>
      <stageThreshold>-1.4549535512924194e+00</stageThreshold>
      <weakClassifiers>
        <_>
          <internalNodes>
            0 -1 535 5.6959032081067562e-03</internalNodes>
          <leafValues>
            -4.8401826620101929e-01 7.4074074625968933e-02</leafValues></_>
        <_>
          <internalNodes>
            0 -1 101 -1.3276867568492889e-02</internalNodes>
          <leafValues>
            2.9039952158927917e-01 -2.0098684728145599e-01</leafValues></_>
        <_>
          <internalNodes>
            0 -1 36 8.8032782077789307e-03</internalNodes>
          <leafValues>
            -2.0503398776054382e-01 2.4231138825416565e-01</leafValues></_>
        <_>
          <internalNodes>
            0 -1 459 -2.9177111573517323e-03</internalNodes>
          <leafValues>
            5.8099359273910522e-01 -8.0734878778457642e-02</leafValues></_>
        <_>
          <internalNodes>
            0 -1 269 -2.6266891509294510e-02</internalNodes>
          <leafValues>
            -6.3447123765945435e-01 6.8702705204486847e-02</leafValues></_>
        <_>
          <internalNodes>
            0 -1 169 -1.4139383565634489e-03</internalNodes>
          <leafValues>
            -5.8108603954315186e-01 8.5898943245410919e-02</leafValues></_>
        <_>
          <internalNodes>
            0 -1 312 2.5560164358466864e-03</internalNodes>
          <leafValues>
            -2.1997216343879700e-01 2.0903922617435455e-01</leafValues></_>
        <_>
          <internalNodes>
            0 -1 91 -7.8748017549514771e-03</internalNodes>
          <leafValues>
            5.2545052766799927e-01 -1.0715996474027634e-01</leafValues></_>
        <_>
          <internalNodes>
            0 -1 27 3.3967767376452684e-03</internalNodes>
          <leafValues>
            -9.2192396521568298e-02 4.2615005373954773e-01</leafValues></_>
        <_>
          <internalNodes>
            0 -1 41 1.1667214566841722e-03</internalNodes>
          <leafValues>
            7.8521780669689178e-02 -4.4931387901306152e-01</leafValues></_>
        <_>
          <internalNodes>
            0 -1 286 8.5239261388778687e-03</internalNodes>
          <leafValues>
            -6.4806088805198669e-02 5.1041853427886963e-01</leafValues></_>
        <_>
          <internalNodes>
            0 -1 258 -3.6013181670568883e-05</internalNodes>
          <leafValues>
            1.2060404568910599e-01 -2.9759913682937622e-01</leafValues></_>
        <_>
          <internalNodes>
            0 -1 52 -9.9423583596944809e-03</internalNodes>
          <leafValues>
            2.2408865392208099e-01 -1.7120030522346497e-01</leafValues></_>
        <_>
          <internalNodes>
            0 -1 60 1.4397922903299332e-02</internalNodes>
          <leafValues>
            -1.2274327129125595e-01 3.8484349846839905e-01</leafValues></_>
        <_>
          <internalNodes>
            0 -1 199 -1.2458621524274349e-02</internalNodes>
          <leafValues>
            -7.4362307786941528e-01 5.6449826806783676e-02</leafValues></_>
        <_>
          <internalNodes>
            0 -1 90 4.5796536142006516e-04</internalNodes>
          <leafValues>
            9.7602270543575287e-02 -3.4829267859458923e-01</leafValues></_>
        <_>
          <internalNodes>
            0 -1 147 -2.4170394681277685e-05</internalNodes>
          <leafValues>
            2.1639509499073029e-01 -1.8384073674678802e-01</leafValues></_>
        <_>
          <internalNodes>
            0 -1 285 1.1158658191561699e-02</internalNodes>
          <leafValues>
            -8.6046732962131500e-02 4.7361415624618530e-01</leafValues></_>
        <_>
          <internalNodes>
            0 -1 296 6.2902579084038734e-03</internalNodes>
          <leafValues>
            -3.2330924272537231e-01 1.2007414549589157e-01</leafValues></_>
        <_>
          <internalNodes>
            0 -1 547 9.7029618918895721e-03</internalNodes>
          <leafValues>
            -7.7815532684326172e-02 6.0903328657150269e-01</leafValues></_>
        <_>
          <internalNodes>
            0 -1 534 -6.4519615843892097e-03</internalNodes>
          <leafValues>
            1.7143385112285614e-01 -2.1974840760231018e-01</leafValues></_>
        <_>
          <internalNodes>
            0 -1 278 -3.1030431855469942e-03</internalNodes>
          <leafValues>
            3.1776973605155945e-01 -1.1277826130390167e-01</leafValues></_>
        <_>
          <internalNodes>
            0 -1 354 -2.6748168747872114e-03</internalNodes>
          <leafValues>
            3.7725996971130371e-01 -1.1877691000699997e-01</leafValues></_>
        <_>
          <internalNodes>
            0 -1 17 -5.3690406493842602e-03</internalNodes>
          <leafValues>
            3.3801713585853577e-01 -1.0510449856519699e-01</leafValues></_>
        <_>
          <internalNodes>
            0 -1 455 -3.6690486012957990e-05</internalNodes>
          <leafValues>
            1.8876716494560242e-01 -1.9091792404651642e-01</leafValues></_>
        <_>
          <internalNodes>
            0 -1 483 4.0100398473441601e-04</internalNodes>
          <leafValues>
            8.4407567977905273e-02 -5.4030078649520874e-01</leafValues></_>
        <_>
          <internalNodes>
            0 -1 475 4.0873713791370392e-02</internalNodes>
          <leafValues>
            3.1805112957954407e-02 -8.7718868255615234e-01</leafValues></_>
        <_>
          <internalNodes>
            0 -1 348 -3.4420132578816265e-05</internalNodes>
          <leafValues>
            2.0515099167823792e-01 -1.8493963778018951e-01</leafValues></_>
        <_>
          <internalNodes>
            0 -1 114 -3.2457176130264997e-03</internalNodes>
          <leafValues>
            2.0219933986663818e-01 -1.8940851092338562e-01</leafValues></_>
        <_>
          <internalNodes>
            0 -1 472 1.5933744725771248e-04</internalNodes>
          <leafValues>
            1.3938239216804504e-01 -2.7022451162338257e-01</leafValues></_>
        <_>
          <internalNodes>
            0 -1 87 -8.3779841661453247e-02</internalNodes>
          <leafValues>
            -8.0015820264816284e-01 4.8122532665729523e-02</leafValues></_>
        <_>
          <internalNodes>
            0 -1 198 -9.2098452150821686e-03</internalNodes>
          <leafValues>
            2.6412463188171387e-01 -1.4350222051143646e-01</leafValues></_>
        <_>
          <internalNodes>
            0 -1 255 -8.5098887211643159e-05</internalNodes>
          <leafValues>
            1.3687522709369659e-01 -2.7871486544609070e-01</leafValues></_>
        <_>
          <internalNodes>
            0 -1 340 -3.8655041716992855e-03</internalNodes>
          <leafValues>
            3.8004854321479797e-01 -9.8496340215206146e-02</leafValues></_>
        <_>
          <internalNodes>
            0 -1 380 -1.4705068897455931e-03</internalNodes>
          <leafValues>
            -6.6764086484909058e-01 6.0945738106966019e-02</leafValues></_>
        <_>
          <internalNodes>
            0 -1 509 -1.6043426003307104e-03</internalNodes>
          <leafValues>
            1.9226361811161041e-01 -1.9602204859256744e-01</leafValues></_>
        <_>
          <internalNodes>
            0 -1 282 1.3824203982949257e-02</internalNodes>
          <leafValues>
            -6.2983721494674683e-02 5.8023315668106079e-01</leafValues></_>
        <_>
          <internalNodes>
            0 -1 190 -2.0677171647548676e-02</internalNodes>
          <leafValues>
            1.6995348036289215e-01 -2.3453980684280396e-01</leafValues></_>
        <_>
          <internalNodes>
            0 -1 295 1.5897245611995459e-04</internalNodes>
          <leafValues>
            1.7835530638694763e-01 -2.2491341829299927e-01</leafValues></_>
        <_>
          <internalNodes>
            0 -1 291 -2.3295111022889614e-03</internalNodes>
          <leafValues>
            1.9872622191905975e-01 -1.9751273095607758e-01</leafValues></_>
        <_>
          <internalNodes>
            0 -1 530 -4.1145537979900837e-03</internalNodes>
          <leafValues>
            -6.9163531064987183e-01 5.6771066039800644e-02</leafValues></_>
        <_>
          <internalNodes>
            0 -1 130 -1.0314905084669590e-03</internalNodes>
          <leafValues>
            3.1211930513381958e-01 -1.2916654348373413e-01</leafValues></_>
        <_>
          <internalNodes>
            0 -1 346 -3.4280943509656936e-05</internalNodes>
          <leafValues>
            1.9792109727859497e-01 -1.8418549001216888e-01</leafValues></_>
        <_>
          <internalNodes>
            0 -1 210 -1.0384915769100189e-01</internalNodes>
          <leafValues>
            -6.7371475696563721e-01 5.6551612913608551e-02</leafValues></_>
        <_>
          <internalNodes>
            0 -1 82 -6.6249154508113861e-02</internalNodes>
          <leafValues>
            3.0079701542854309e-01 -1.5504360198974609e-01</leafValues></_></weakClassifiers></_>
    <!-- stage 15 -->
    <_>
      <maxWeakCount>47</maxWeakCount>
      <stageThreshold>-1.3219399452209473e+00</stageThreshold>
      <weakClassifiers>
        <_>
          <internalNodes>
            0 -1 40 4.0669334121048450e-03</internalNodes>
          <leafValues>
            -5.3881019353866577e-01 -3.9676114916801453e-02</leafValues></_>
        <_>
          <internalNodes>
            0 -1 99 5.8765441179275513e-02</internalNodes>
          <leafValues>
            -1.6608095169067383e-01 4.2272636294364929e-01</leafValues></_>
        <_>
          <internalNodes>
            0 -1 550 2.6962675154209137e-02</internalNodes>
          <leafValues>
            -9.3832068145275116e-02 4.3024075031280518e-01</leafValues></_>
        <_>
          <internalNodes>
            0 -1 191 2.1046824986115098e-04</internalNodes>
          <leafValues>
            1.1754464358091354e-01 -3.3136168122291565e-01</leafValues></_>
        <_>
          <internalNodes>
            0 -1 108 1.4231862500309944e-02</internalNodes>
          <leafValues>
            -1.7887637019157410e-02 6.6160804033279419e-01</leafValues></_>
        <_>
          <internalNodes>
            0 -1 68 -7.4540299829095602e-04</internalNodes>
          <leafValues>
            1.6588053107261658e-01 -2.6899486780166626e-01</leafValues></_>
        <_>
          <internalNodes>
            0 -1 276 -4.5739021152257919e-03</internalNodes>
          <leafValues>
            4.5158532261848450e-01 -1.1593798547983170e-01</leafValues></_>
        <_>
          <internalNodes>
            0 -1 473 -3.3775074407458305e-03</internalNodes>
          <leafValues>
            2.5865897536277771e-01 -1.4392700791358948e-01</leafValues></_>
        <_>
          <internalNodes>
            0 -1 265 -9.2440453590825200e-04</internalNodes>
          <leafValues>
            -5.2827739715576172e-01 8.6300738155841827e-02</leafValues></_>
        <_>
          <internalNodes>
            0 -1 174 -2.6689027436077595e-03</internalNodes>
          <leafValues>
            2.3690889775753021e-01 -2.1373024582862854e-01</leafValues></_>
        <_>
          <internalNodes>
            0 -1 342 4.1325425263494253e-04</internalNodes>
          <leafValues>
            9.6890702843666077e-02 -4.1144090890884399e-01</leafValues></_>
        <_>
          <internalNodes>
            0 -1 314 4.4246329925954342e-03</internalNodes>
          <leafValues>
            -9.2120483517646790e-02 4.7254484891891479e-01</leafValues></_>
        <_>
          <internalNodes>
            0 -1 227 6.1859497800469398e-03</internalNodes>
          <leafValues>
            -5.6536775827407837e-01 7.9387955367565155e-02</leafValues></_>
        <_>
          <internalNodes>
            0 -1 488 -1.1919323354959488e-02</internalNodes>
          <leafValues>
            3.4219178557395935e-01 -1.3425555825233459e-01</leafValues></_>
        <_>
          <internalNodes>
            0 -1 492 1.7269074451178312e-03</internalNodes>
          <leafValues>
            -9.3889571726322174e-02 4.2302322387695312e-01</leafValues></_>
        <_>
          <internalNodes>
            0 -1 540 2.8792780358344316e-03</internalNodes>
          <leafValues>
            7.0224419236183167e-02 -6.1221081018447876e-01</leafValues></_>
        <_>
          <internalNodes>
            0 -1 142 -4.7599710524082184e-03</internalNodes>
          <leafValues>
            4.9362275004386902e-01 -8.6372137069702148e-02</leafValues></_>
        <_>
          <internalNodes>
            0 -1 352 -4.5600220561027527e-02</internalNodes>
          <leafValues>
            -7.3329865932464600e-01 6.1584919691085815e-02</leafValues></_>
        <_>
          <internalNodes>
            0 -1 263 6.1325414571911097e-04</internalNodes>
          <leafValues>
            5.1237665116786957e-02 -5.9321951866149902e-01</leafValues></_>
        <_>
          <internalNodes>
            0 -1 427 -1.5124106539587956e-05</internalNodes>
          <leafValues>
            1.5977708995342255e-01 -2.2320529818534851e-01</leafValues></_>
        <_>
          <internalNodes>
            0 -1 277 -1.6409518197178841e-02</internalNodes>
          <leafValues>
            -7.4502825736999512e-01 4.8194129019975662e-02</leafValues></_>
        <_>
          <internalNodes>
            0 -1 259 -7.7373214298859239e-04</internalNodes>
          <leafValues>
            -4.4257771968841553e-01 7.0828810334205627e-02</leafValues></_>
        <_>
          <internalNodes>
            0 -1 458 -1.3076890259981155e-02</internalNodes>
          <leafValues>
            3.0979081988334656e-01 -1.3437275588512421e-01</leafValues></_>
        <_>
          <internalNodes>
            0 -1 218 -1.6460783779621124e-02</internalNodes>
          <leafValues>
            2.4885468184947968e-01 -1.6727744042873383e-01</leafValues></_>
        <_>
          <internalNodes>
            0 -1 391 -5.7560466229915619e-03</internalNodes>
          <leafValues>
            3.3466970920562744e-01 -1.0527312010526657e-01</leafValues></_>
        <_>
          <internalNodes>
            0 -1 415 -1.3796597719192505e-01</internalNodes>
          <leafValues>
            -8.6865228414535522e-01 3.9885699748992920e-02</leafValues></_>
        <_>
          <internalNodes>
            0 -1 421 2.6411004364490509e-03</internalNodes>
          <leafValues>
            1.5408307313919067e-01 -2.4494923651218414e-01</leafValues></_>
        <_>
          <internalNodes>
            0 -1 323 8.9018687140196562e-04</internalNodes>
          <leafValues>
            -1.6716727614402771e-01 2.0878833532333374e-01</leafValues></_>
        <_>
          <internalNodes>
            0 -1 335 -5.9886388480663300e-03</internalNodes>
          <leafValues>
            3.1065353751182556e-01 -1.1990910768508911e-01</leafValues></_>
        <_>
          <internalNodes>
            0 -1 504 -9.4864368438720703e-03</internalNodes>
          <leafValues>
            1.8170775473117828e-01 -2.3521767556667328e-01</leafValues></_>
        <_>
          <internalNodes>
            0 -1 262 -4.6643465757369995e-03</internalNodes>
          <leafValues>
            -5.1783210039138794e-01 7.2201609611511230e-02</leafValues></_>
        <_>
          <internalNodes>
            0 -1 61 1.9994903355836868e-02</internalNodes>
          <leafValues>
            -7.6061002910137177e-02 4.9578279256820679e-01</leafValues></_>
        <_>
          <internalNodes>
            0 -1 117 -5.4343522060662508e-04</internalNodes>
          <leafValues>
            1.8708573281764984e-01 -2.0580407977104187e-01</leafValues></_>
        <_>
          <internalNodes>
            0 -1 64 1.5570045448839664e-02</internalNodes>
          <leafValues>
            1.0851453244686127e-01 -3.1241953372955322e-01</leafValues></_>
        <_>
          <internalNodes>
            0 -1 209 -1.2540793046355247e-02</internalNodes>
          <leafValues>
            3.7996891140937805e-01 -9.5003180205821991e-02</leafValues></_>
        <_>
          <internalNodes>
            0 -1 341 -6.1005866155028343e-04</internalNodes>
          <leafValues>
            -5.3735029697418213e-01 6.7948259413242340e-02</leafValues></_>
        <_>
          <internalNodes>
            0 -1 444 2.8769148513674736e-02</internalNodes>
          <leafValues>
            -6.8768672645092010e-02 6.1917334794998169e-01</leafValues></_>
        <_>
          <internalNodes>
            0 -1 181 -1.0870494879782200e-02</internalNodes>
          <leafValues>
            -8.4485006332397461e-01 5.1613613963127136e-02</leafValues></_>
        <_>
          <internalNodes>
            0 -1 544 -7.4103493243455887e-03</internalNodes>
          <leafValues>
            3.7884226441383362e-01 -1.0847685486078262e-01</leafValues></_>
        <_>
          <internalNodes>
            0 -1 542 3.8993274793028831e-03</internalNodes>
          <leafValues>
            -1.2694263458251953e-01 3.1675544381141663e-01</leafValues></_>
        <_>
          <internalNodes>
            0 -1 457 -1.7042816616594791e-03</internalNodes>
          <leafValues>
            5.4704922437667847e-01 -6.6080801188945770e-02</leafValues></_>
        <_>
          <internalNodes>
            0 -1 179 1.4472002163529396e-02</internalNodes>
          <leafValues>
            5.3961388766765594e-02 -7.4236744642257690e-01</leafValues></_>
        <_>
          <internalNodes>
            0 -1 383 -3.1193920876830816e-03</internalNodes>
          <leafValues>
            2.2957383096218109e-01 -1.5873640775680542e-01</leafValues></_>
        <_>
          <internalNodes>
            0 -1 366 -1.6045939410105348e-03</internalNodes>
          <leafValues>
            1.9912995398044586e-01 -2.0090648531913757e-01</leafValues></_>
        <_>
          <internalNodes>
            0 -1 93 -3.6949604749679565e-02</internalNodes>
          <leafValues>
            6.1117202043533325e-01 -6.6521629691123962e-02</leafValues></_>
        <_>
          <internalNodes>
            0 -1 202 -8.6940489709377289e-03</internalNodes>
          <leafValues>
            -7.0349895954132080e-01 6.6687308251857758e-02</leafValues></_>
        <_>
          <internalNodes>
            0 -1 292 -1.8936848500743508e-03</internalNodes>
          <leafValues>
            4.2668431997299194e-01 -1.1145541816949844e-01</leafValues></_></weakClassifiers></_>
    <!-- stage 16 -->
    <_>
      <maxWeakCount>48</maxWeakCount>
      <stageThreshold>-1.4838886260986328e+00</stageThreshold>
      <weakClassifiers>
        <_>
          <internalNodes>
            0 -1 536 -3.5628483165055513e-03</internalNodes>
          <leafValues>
            -9.4240838661789894e-03 -4.8459658026695251e-01</leafValues></_>
        <_>
          <internalNodes>
            0 -1 78 9.8543897271156311e-02</internalNodes>
          <leafValues>
            -1.7524391412734985e-01 2.8878363966941833e-01</leafValues></_>
        <_>
          <internalNodes>
            0 -1 8 1.3197349384427071e-02</internalNodes>
          <leafValues>
            -1.5976060926914215e-01 2.7592131495475769e-01</leafValues></_>
        <_>
          <internalNodes>
            0 -1 65 -2.8741063550114632e-02</internalNodes>
          <leafValues>
            3.2958468794822693e-01 -1.1423716694116592e-01</leafValues></_>
        <_>
          <internalNodes>
            0 -1 371 4.3561449274420738e-03</internalNodes>
          <leafValues>
            -5.2770927548408508e-02 6.7774796485900879e-01</leafValues></_>
        <_>
          <internalNodes>
            0 -1 370 -1.5731388702988625e-03</internalNodes>
          <leafValues>
            6.6275618970394135e-02 -6.2426751852035522e-01</leafValues></_>
        <_>
          <internalNodes>
            0 -1 407 -1.1035663774237037e-03</internalNodes>
          <leafValues>
            -5.8110517263412476e-01 7.2388902306556702e-02</leafValues></_>
        <_>
          <internalNodes>
            0 -1 381 -5.2973194979131222e-03</internalNodes>
          <leafValues>
            3.4838527441024780e-01 -1.0007733851671219e-01</leafValues></_>
        <_>
          <internalNodes>
            0 -1 541 1.1428990401327610e-03</internalNodes>
          <leafValues>
            8.6671113967895508e-02 -4.2465215921401978e-01</leafValues></_>
        <_>
          <internalNodes>
            0 -1 525 3.7708250602008775e-05</internalNodes>
          <leafValues>
            -1.3943010568618774e-01 2.6078045368194580e-01</leafValues></_>
        <_>
          <internalNodes>
            0 -1 483 -3.2180026755668223e-04</internalNodes>
          <leafValues>
            -4.2935490608215332e-01 9.1490760445594788e-02</leafValues></_>
        <_>
          <internalNodes>
            0 -1 319 -3.6010442272527143e-05</internalNodes>
          <leafValues>
            1.6773904860019684e-01 -2.2112217545509338e-01</leafValues></_>
        <_>
          <internalNodes>
            0 -1 505 -3.5471236333250999e-03</internalNodes>
          <leafValues>
            2.4335709214210510e-01 -1.5896125137805939e-01</leafValues></_>
        <_>
          <internalNodes>
            0 -1 410 3.7537515163421631e-03</internalNodes>
          <leafValues>
            1.1507895588874817e-01 -3.1529077887535095e-01</leafValues></_>
        <_>
          <internalNodes>
            0 -1 59 -1.3035213947296143e-01</internalNodes>
          <leafValues>
            -8.3391493558883667e-01 3.6292750388383865e-02</leafValues></_>
        <_>
          <internalNodes>
            0 -1 35 4.2114290408790112e-03</internalNodes>
          <leafValues>
            6.8341143429279327e-02 -4.5101824402809143e-01</leafValues></_>
        <_>
          <internalNodes>
            0 -1 343 4.7146314755082130e-03</internalNodes>
          <leafValues>
            6.0634806752204895e-02 -5.7834661006927490e-01</leafValues></_>
        <_>
          <internalNodes>
            0 -1 11 7.4156862683594227e-03</internalNodes>
          <leafValues>
            -5.9110671281814575e-02 6.2862712144851685e-01</leafValues></_>
        <_>
          <internalNodes>
            0 -1 3 -1.0097920894622803e-02</internalNodes>
          <leafValues>
            -3.4297150373458862e-01 1.1125271767377853e-01</leafValues></_>
        <_>
          <internalNodes>
            0 -1 546 2.9551093466579914e-03</internalNodes>
          <leafValues>
            -5.7579811662435532e-02 6.2133699655532837e-01</leafValues></_>
        <_>
          <internalNodes>
            0 -1 127 -1.5187398530542850e-03</internalNodes>
          <leafValues>
            4.1371205449104309e-01 -7.3660254478454590e-02</leafValues></_>
        <_>
          <internalNodes>
            0 -1 468 -6.2951483414508402e-05</internalNodes>
          <leafValues>
            1.4474321901798248e-01 -2.3959021270275116e-01</leafValues></_>
        <_>
          <internalNodes>
